svm_type c_svc
kernel_type rbf
gamma 0.06666666666666667
nr_class 5
total_sv 9705
rho 0.6859149773805012 -0.5586657745384457 -0.9549600122095319 -1.021724101874355 -0.8989939992859769 -0.9916881152440417 -1.0657770025031221 -0.9072457852809954 -0.9989807054216149 -0.9366417141701134
label 2 1 3 6 5
nr_sv 2973 4996 1659 74 3
SV
1.0 0.0 0.0 0.0 1:1.3333333333333333 2:2.0 8:2.7478126808466766E-5 9:4.25 10:1.4 11:0.5 12:0.25 13:2.0 14:1.0 15:0.0 
1.0 1.0 0.0 0.0 1:4.0 2:3.0 8:0.20808887912758728 9:6.111111111111111 10:4.266666666666667 11:0.6666666666666666 12:0.16666666666666666 13:4.0 14:0.7222222222222222 15:1.0 
1.0 1.0 0.0 0.0 1:1.3333333333333333 2:2.0 8:0.0013226227939075604 9:6.888888888888889 10:2.3666666666666667 11:0.4444444444444444 12:0.2222222222222222 13:2.0 14:0.5555555555555556 15:0.0 
1.0 1.0 0.0 0.0 1:1.3636363636363635 2:1.375 8:0.1601281538050871 9:5.303030303030303 10:1.3594771241830066 11:0.45454545454545453 12:0.3333333333333333 13:1.3636363636363635 14:0.6060606060606061 15:6.0 
1.0 0.6998918148619311 0.03337236420592071 0.0 1:7.4 2:23.0 8:3.13540089922976E-4 9:5.517241379310345 10:8.4 11:0.6379310344827587 12:0.39655172413793105 13:1.608695652173913 14:0.896551724137931 15:0.0 
1.0 1.0 0.009301704997369788 0.0 1:4.2 2:12.0 8:0.1432469976616366 9:6.685714285714286 10:5.977777777777778 11:0.6 12:0.34285714285714286 13:1.75 14:0.8571428571428571 15:1.0 
1.0 0.0 0.0 0.0 1:3.0 2:2.0 8:1.989453523681934E-5 9:12.285714285714286 10:4.65 11:0.8571428571428571 12:0.2857142857142857 13:3.0 14:1.5714285714285714 15:0.0 
1.0 0.0 0.0 0.0 1:3.0 2:2.0 8:1.989453523681934E-5 9:12.285714285714286 10:4.65 11:0.8571428571428571 12:0.2857142857142857 13:3.0 14:1.1428571428571428 15:0.0 
1.0 0.44129131393694543 0.04506863754133417 0.0 1:0.0 2:0.0 8:0.0 9:220.0 10:5.261904761904762 11:0.0 12:0.0 13:0.0 14:0.0 15:0.0 
1.0 0.0 0.0 0.0 1:0.14285714285714285 2:0.0 8:0.0 9:5.0 10:0.08108108108108109 11:1.0 12:0.0 13:0.0 14:8.5 15:0.0 
1.0 0.0 0.0 0.0 1:0.375 2:0.08333333333333333 8:6.040984444407098E-7 9:6.5 10:0.1935483870967742 11:0.75 12:0.25 13:3.0 14:1.0 15:0.0 
1.0 1.0 0.0 0.0 1:5.428571428571429 2:1.6666666666666667 8:0.16687321866780075 9:8.517241379310345 10:2.905263157894737 11:1.3103448275862069 12:0.1724137931034483 13:7.6 14:1.0689655172413792 15:0.0 
1.0 1.0 0.0 0.0 1:2.0 2:1.0 8:0.16516165344726141 9:6.190476190476191 10:1.5894736842105264 11:0.6666666666666666 12:0.14285714285714285 13:4.666666666666667 14:0.5238095238095238 15:2.0 
1.0 1.0 0.0 0.0 1:1.2857142857142858 2:0.6666666666666666 8:0.23599435393269672 9:8.928571428571429 10:1.4631578947368422 11:0.6428571428571429 12:0.14285714285714285 13:4.5 14:0.7857142857142857 15:2.0 
1.0 0.7995262554908177 0.0 0.0 1:0.14285714285714285 2:1.0 8:1.8969394422540557E-7 9:5.25 10:0.423728813559322 11:0.25 12:0.5 13:0.5 14:0.75 15:0.0 
1.0 0.0 0.0 0.0 1:2.4444444444444446 2:3.0 8:0.02229618626651685 9:7.722222222222222 10:3.5280898876404496 11:0.6111111111111112 12:0.08333333333333333 13:7.333333333333333 14:0.6944444444444444 15:0.0 
1.0 0.0 0.0 0.0 1:0.2222222222222222 2:2.0 8:1.3105830832529273E-5 9:5.166666666666667 10:0.4157303370786517 11:0.3333333333333333 12:0.3333333333333333 13:1.0 14:0.3333333333333333 15:0.0 
1.0 0.0 0.0 0.0 1:0.4444444444444444 2:1.0 8:3.0852450992302255E-5 9:4.8 10:0.3258426966292135 11:0.8 12:0.2 13:4.0 14:0.8 15:0.0 
1.0 0.928188168094175 0.0 0.0 1:0.4444444444444444 2:2.0 8:3.0852450992302255E-5 9:2.625 10:0.3258426966292135 11:0.5 12:0.25 13:2.0 14:0.5 15:1.0 
1.0 0.7402225464011586 0.0 0.0 1:0.1111111111111111 2:2.0 8:5.650823517450831E-7 9:16.8 10:1.0 11:0.2 12:0.4 13:0.5 14:0.6 15:0.0 
1.0 1.0 0.0012354912671350804 0.0 1:3.6666666666666665 2:11.0 8:5.261451194744878E-4 9:7.1875 10:4.415730337078652 11:0.6875 12:0.22916666666666666 13:3.0 14:0.75 15:1.0 
1.0 1.0 0.0 0.0 1:1.3333333333333333 2:2.0 8:0.1518766337603377 9:4.6875 10:1.0340909090909092 11:0.5 12:0.25 13:2.0 14:1.125 15:0.0 
1.0 0.0 0.0 0.0 1:2.8333333333333335 2:1.5 8:1.8218373334161843E-4 9:15.25 10:4.431818181818182 11:0.7083333333333334 12:0.125 13:5.666666666666667 14:0.75 15:0.0 
1.0 1.0 0.0 0.0 1:1.5 2:4.0 8:0.14839879354463847 9:4.4 10:1.2272727272727273 11:0.45 12:0.4 13:1.125 14:0.7 15:2.0 
1.0 0.0 0.0 0.0 1:0.25 2:0.6666666666666666 8:1.9420973619421194E-4 9:4.0 10:0.23809523809523808 11:0.5 12:0.5 13:1.0 14:0.75 15:0.0 
1.0 1.0 0.0 0.0 1:1.5 2:1.0 8:5.559842605113959E-6 9:5.266666666666667 10:1.119047619047619 11:0.8 12:0.2 13:4.0 14:0.6666666666666666 15:0.0 
1.0 1.0 0.0 0.0 1:0.5 2:1.6 8:0.022823067187578164 9:4.642857142857143 10:0.9080459770114943 11:0.21428571428571427 12:0.5714285714285714 13:0.375 14:0.6428571428571429 15:0.0 
1.0 0.7706901994667158 0.0 0.0 1:0.16666666666666666 2:0.16666666666666666 8:0.0018052499460258233 9:4.333333333333333 10:0.11347517730496454 11:0.6666666666666666 12:0.3333333333333333 13:2.0 14:1.0 15:0.0 
1.0 1.0 0.0 0.0 1:0.3333333333333333 2:0.8 8:0.01574210248884526 9:8.75 10:0.609375 11:0.375 12:0.5 13:0.75 14:1.875 15:0.0 
1.0 0.0 0.0 0.0 1:2.6666666666666665 2:1.8 8:3.505484730618975E-4 9:9.64 10:2.078125 11:0.96 12:0.36 13:2.6666666666666665 14:0.96 15:0.0 
1.0 0.0 0.0 0.0 1:0.5555555555555556 2:0.2 8:9.907076889145494E-6 9:14.235294117647058 10:2.0234375 11:0.29411764705882354 12:0.058823529411764705 13:5.0 14:0.35294117647058826 15:0.0 
1.0 1.0 0.0 0.0 1:0.1111111111111111 2:1.4 8:1.1349982439890151E-5 9:4.75 10:0.5390625 11:0.08333333333333333 12:0.5833333333333334 13:0.14285714285714285 14:0.5833333333333334 15:0.0 
1.0 0.0 0.0 0.0 1:2.7777777777777777 2:2.4 8:3.1229340482951117E-4 9:9.035714285714286 10:2.1953125 11:0.8928571428571429 12:0.42857142857142855 13:2.0833333333333335 14:1.0357142857142858 15:0.0 
1.0 0.4200040926300546 0.0 0.0 1:0.3333333333333333 2:0.4 8:0.003819046860034416 9:14.076923076923077 10:1.53125 11:0.23076923076923078 12:0.15384615384615385 13:1.5 14:0.23076923076923078 15:0.0 
1.0 0.0 0.0 0.0 1:0.1111111111111111 2:0.6 8:5.281541529507378E-6 9:6.5 10:0.234375 11:0.25 12:0.75 13:0.3333333333333333 14:0.75 15:0.0 
1.0 0.0 0.0 0.0 1:0.5555555555555556 2:0.4 8:0.0034011090859637685 9:11.125 10:1.515625 11:0.3125 12:0.125 13:2.5 14:0.3125 15:0.0 
1.0 0.0 0.0 0.0 1:0.5555555555555556 2:1.0 8:0.004895001750097093 9:6.9 10:0.6171875 11:0.5 12:0.5 13:1.0 14:0.6 15:0.0 
1.0 0.0 0.0 0.0 1:0.3333333333333333 2:0.8 8:2.6930227072466968E-5 9:5.222222222222222 10:0.4375 11:0.3333333333333333 12:0.4444444444444444 13:0.75 14:0.7777777777777778 15:0.0 
1.0 1.0 0.0 0.0 1:0.3333333333333333 2:0.6 8:2.908796976589233E-5 9:4.875 10:0.3671875 11:0.375 12:0.375 13:1.0 14:0.75 15:0.0 
1.0 0.6944386272885336 0.0 0.0 1:0.6666666666666666 2:0.8 8:0.0033439441620735167 9:11.941176470588236 10:1.71875 11:0.35294117647058826 12:0.23529411764705882 13:1.5 14:0.35294117647058826 15:0.0 
1.0 1.0 0.0 0.0 1:0.4444444444444444 2:0.6 8:3.298265748643478E-5 9:8.714285714285714 10:0.53125 11:0.5714285714285714 12:0.42857142857142855 13:1.3333333333333333 14:1.0 15:0.0 
1.0 0.0 0.0 0.0 1:0.3333333333333333 2:1.2 8:1.4356718364632368E-5 9:9.857142857142858 10:0.59375 11:0.42857142857142855 12:0.8571428571428571 13:0.5 14:0.7142857142857143 15:0.0 
1.0 0.0 0.0 0.0 1:0.1111111111111111 2:0.0 8:0.0 9:12.0 10:0.1015625 11:1.0 12:0.0 13:0.0 14:1.0 15:0.0 
1.0 0.0 0.0 0.0 1:0.2727272727272727 2:1.3333333333333333 8:1.0173489593841572E-5 9:4.615384615384615 10:0.49324324324324326 11:0.23076923076923078 12:0.6153846153846154 13:0.375 14:0.6153846153846154 15:0.0 
1.0 0.08994226455597265 0.0 0.0 1:0.08333333333333333 2:0.09090909090909091 8:9.18619981310385E-4 9:4.25 10:0.08333333333333333 11:0.5 12:0.25 13:2.0 14:7.5 15:0.0 
1.0 1.0 0.0 0.0 1:0.7857142857142857 2:1.2 8:0.0 9:4.9 10:0.8740740740740741 11:0.55 12:0.3 13:1.8333333333333333 14:0.8 15:6.0 
1.0 0.0 0.0 0.0 1:1.4285714285714286 2:3.6 8:0.0 9:5.541666666666667 10:2.325925925925926 11:0.4166666666666667 12:0.375 13:1.1111111111111112 14:0.6458333333333334 15:1.0 
1.0 0.20152874088022518 0.0 0.0 1:0.6 2:2.3333333333333335 8:2.6047907428411454E-5 9:5.071428571428571 10:1.2878787878787878 11:0.21428571428571427 12:0.5 13:0.42857142857142855 14:1.0 15:0.0 
1.0 0.0 0.0 0.0 1:0.6 2:0.3333333333333333 8:1.0260699443736819E-4 9:6.0 10:0.42424242424242425 11:0.75 12:0.25 13:3.0 14:1.0 15:0.0 
1.0 1.0 0.0 0.0 1:2.5 2:0.3333333333333333 8:8.938521023948682E-4 9:4.833333333333333 10:1.0606060606060606 11:0.8333333333333334 12:0.16666666666666666 13:5.0 14:1.0 15:0.0 
1.0 0.029470297272273484 0.01792455425455167 0.0 1:1.6666666666666667 2:2.0 8:1.9898895472791287E-4 9:17.933333333333334 10:10.142857142857142 11:0.3333333333333333 12:0.13333333333333333 13:2.5 14:0.5333333333333333 15:0.0 
1.0 0.3675871292569832 0.03428114176248318 0.0 1:4.5 2:0.0 8:0.0 9:18.75 10:13.941176470588236 11:0.75 12:0.0 13:0.0 14:0.5833333333333334 15:0.0 
1.0 0.0 0.0 0.0 1:0.0 2:0.3333333333333333 8:1.2133641610165353E-5 9:21.0 10:2.2 11:0.0 12:0.2222222222222222 13:0.0 14:1.4444444444444444 15:0.0 
1.0 0.0 0.0 0.0 1:0.375 2:0.5 8:7.898363952465142E-8 9:5.714285714285714 10:0.5222222222222223 11:0.42857142857142855 12:0.42857142857142855 13:1.0 14:0.7142857142857143 15:0.0 
1.0 1.0 0.0 0.0 1:2.3333333333333335 2:2.0 8:0.5144971875823329 9:8.0 10:1.565217391304348 11:0.875 12:0.25 13:3.5 14:1.0 15:0.0 
1.0 1.0 0.0 0.0 1:2.0 2:6.0 8:0.17242439021461226 9:5.125 10:2.130434782608696 11:0.375 12:0.375 13:1.0 14:0.625 15:0.0 
1.0 0.3029205761049004 0.0 0.0 1:0.4 2:2.0 8:3.1965885027825255E-7 9:7.5 10:1.7346938775510203 11:0.2 12:0.2 13:1.0 14:0.7 15:0.0 
1.0 0.0 0.0 0.0 1:0.0 2:1.0 8:4.5942292696189524E-8 9:3.5 10:0.391304347826087 11:0.0 12:0.5 13:0.0 14:1.0 15:0.0 
1.0 1.0 0.0 0.0 1:1.0 2:1.5 8:1.7932691729284045E-5 9:5.384615384615385 10:1.2769230769230768 11:0.46153846153846156 12:0.23076923076923078 13:2.0 14:0.5384615384615384 15:0.0 
1.0 1.0 0.0 0.0 1:0.25 2:0.0 8:0.0 9:7.0 10:0.43243243243243246 11:0.5 12:0.0 13:0.0 14:0.5 15:0.0 
1.0 0.0 0.0 0.0 1:0.5 2:1.0 8:2.355549315962591E-4 9:6.0 10:0.5675675675675675 11:0.6666666666666666 12:0.3333333333333333 13:2.0 14:0.6666666666666666 15:0.0 
1.0 0.03721269215101573 0.0 0.0 1:0.18181818181818182 2:0.0 8:2.7985342978233427E-5 9:4.5 10:0.11 11:1.0 12:0.0 13:0.0 14:6.0 15:0.0 
1.0 0.42828444925948084 0.17860056572590005 0.0 1:1.3846153846153846 2:1.625 8:0.0012253190643272572 9:5.290909090909091 10:1.7128712871287128 11:0.32727272727272727 12:0.4727272727272727 13:0.6923076923076923 14:0.9636363636363636 15:33.0 
1.0 1.0 0.0 0.0 1:0.23076923076923078 2:0.125 8:2.2944122288910022E-5 9:7.833333333333333 10:0.2623762376237624 11:0.5 12:0.3333333333333333 13:1.5 14:0.6666666666666666 15:0.0 
1.0 0.0 1.0 0.0 1:0.46153846153846156 2:0.0 8:1.9814153773429083E-5 9:5.166666666666667 10:0.18316831683168316 11:1.0 12:0.0 13:0.0 14:0.8333333333333334 15:0.0 
1.0 1.0 0.0 0.0 1:0.7692307692307693 2:0.5625 8:9.194348244325833E-5 9:6.470588235294118 10:0.6287128712871287 11:0.5882352941176471 12:0.5294117647058824 13:1.1111111111111112 14:0.8823529411764706 15:1.0 
1.0 1.0 0.0 0.0 1:1.0769230769230769 2:0.4375 8:8.08228332340555E-5 9:5.25 10:0.7425742574257426 11:0.5833333333333334 12:0.2916666666666667 13:2.0 14:0.6666666666666666 15:2.0 
1.0 1.0 0.0 0.0 1:0.3076923076923077 2:0.125 8:9.3948326735606E-5 9:5.888888888888889 10:0.3069306930693069 11:0.4444444444444444 12:0.2222222222222222 13:2.0 14:0.3333333333333333 15:4.0 
1.0 1.0 0.32411790724263795 0.0 1:0.6923076923076923 2:0.1875 8:6.291304629892852E-6 9:6.7272727272727275 10:0.4207920792079208 11:0.8181818181818182 12:0.2727272727272727 13:3.0 14:0.5454545454545454 15:0.0 
1.0 0.9927904919950695 0.044983570828839026 0.0 1:1.9230769230769231 2:1.375 8:0.09582629938238127 9:4.514285714285714 10:1.9108910891089108 11:0.35714285714285715 12:0.3142857142857143 13:1.1363636363636365 14:0.44285714285714284 15:61.0 
1.0 1.0 0.0 0.0 1:0.3076923076923077 2:0.0625 8:0.3015122708521102 9:6.166666666666667 10:0.21287128712871287 11:0.6666666666666666 12:0.16666666666666666 13:4.0 14:0.5 15:0.0 
1.0 1.0 0.0 0.0 1:0.46153846153846156 2:0.0625 8:0.25820475083515076 9:4.375 10:0.21287128712871287 11:0.75 12:0.125 13:6.0 14:0.625 15:0.0 
1.0 1.0 0.0 0.0 1:0.3076923076923077 2:0.125 8:1.6577935432320366E-4 9:5.25 10:0.24752475247524752 11:0.5 12:0.25 13:2.0 14:0.625 15:1.0 
1.0 0.0 0.0 0.0 1:0.15384615384615385 2:0.0 8:2.0032972382535616E-4 9:3.6666666666666665 10:0.06930693069306931 11:0.6666666666666666 12:0.0 13:0.0 14:0.0 15:0.0 
1.0 0.0 0.0 0.0 1:0.3076923076923077 2:0.125 8:2.078907573985816E-4 9:5.833333333333333 10:0.20297029702970298 11:0.6666666666666666 12:0.3333333333333333 13:2.0 14:1.0 15:0.0 
1.0 1.0 0.0 0.0 1:0.15384615384615385 2:0.375 8:1.595469770113026E-4 9:4.333333333333333 10:0.2376237623762376 11:0.2222222222222222 12:0.6666666666666666 13:0.3333333333333333 14:0.5555555555555556 15:5.0 
1.0 0.0 0.0 0.0 1:0.23076923076923078 2:0.0625 8:2.277329128564543E-4 9:6.25 10:0.14356435643564355 11:0.75 12:0.25 13:3.0 14:0.75 15:0.0 
1.0 1.0 0.0 0.0 1:0.3076923076923077 2:0.1875 8:1.842289781187971E-4 9:5.25 10:0.24752475247524752 11:0.5 12:0.375 13:1.3333333333333333 14:0.75 15:3.0 
1.0 1.0 0.0 0.0 1:0.23076923076923078 2:0.1875 8:1.302695627352967E-4 9:5.25 10:0.24752475247524752 11:0.375 12:0.375 13:1.0 14:0.75 15:2.0 
1.0 0.0 0.0 0.0 1:0.23076923076923078 2:0.1875 8:1.6664138211149466E-4 9:4.8 10:0.14356435643564355 11:0.6 12:0.6 13:1.0 14:1.0 15:0.0 
1.0 0.0961750688311783 0.0 0.0 1:0.15384615384615385 2:0.125 8:7.289219819309958E-6 9:4.8 10:0.14356435643564355 11:0.4 12:0.4 13:1.0 14:0.6 15:0.0 
1.0 0.6058471342048356 0.0 0.0 1:0.07692307692307693 2:0.25 8:2.0032972382535616E-4 9:4.833333333333333 10:0.17326732673267325 11:0.16666666666666666 12:0.6666666666666666 13:0.25 14:0.6666666666666666 15:0.0 
1.0 1.0 0.0 0.0 1:0.38461538461538464 2:0.0625 8:8.972683436912066E-6 9:7.4 10:0.2079207920792079 11:1.0 12:0.2 13:5.0 14:1.0 15:1.0 
1.0 0.0 0.0 0.0 1:0.23076923076923078 2:0.0625 8:4.66340249238266E-6 9:7.75 10:0.17326732673267325 11:0.75 12:0.25 13:3.0 14:1.0 15:0.0 
1.0 1.0 0.0 0.0 1:2.0 2:1.0 8:3.805301946085662E-4 9:6.4 10:1.4509803921568627 11:0.8 12:0.1 13:8.0 14:0.5 15:0.0 
1.0 1.0 0.0 0.0 1:1.0 2:2.0 8:0.0011684941842818035 9:6.333333333333333 10:0.8627450980392157 11:0.6666666666666666 12:0.3333333333333333 13:2.0 14:0.8333333333333334 15:0.0 
1.0 1.0 0.0 0.0 1:0.5 2:0.0 8:2.52526541444051E-6 9:7.0 10:0.47058823529411764 11:0.6666666666666666 12:0.0 13:0.0 14:0.6666666666666666 15:0.0 
1.0 0.0 0.0 0.0 1:1.0 2:0.0 8:1.0161201395669831E-5 9:5.666666666666667 10:0.7843137254901961 11:0.6666666666666666 12:0.0 13:0.0 14:0.6666666666666666 15:0.0 
1.0 1.0 0.0 0.0 1:1.5 2:2.0 8:0.2721658345677422 9:6.6 10:1.4901960784313726 11:0.6 12:0.2 13:3.0 14:0.8 15:1.0 
1.0 1.0 0.0 0.0 1:0.75 2:1.0 8:1.9560621789812563E-6 9:5.4 10:0.6274509803921569 11:0.6 12:0.2 13:3.0 14:0.8 15:0.0 
1.0 0.0 0.0 0.0 1:0.0 2:0.6666666666666666 8:1.267644225223131E-5 9:3.5 10:0.21176470588235294 11:0.0 12:0.5 13:0.0 14:2.75 15:0.0 
1.0 1.0 0.0 0.0 1:0.13333333333333333 2:0.8 8:0.3329128272340923 9:4.8 10:0.2 11:0.4 12:0.8 13:0.5 14:0.8 15:1.0 
1.0 1.0 0.0 0.0 1:0.3333333333333333 2:0.4 8:0.49087148321132457 9:4.222222222222222 10:0.32413793103448274 11:0.5555555555555556 12:0.2222222222222222 13:2.5 14:0.4444444444444444 15:1.0 
1.0 1.0 0.0 0.0 1:1.0555555555555556 2:2.1666666666666665 8:5.777739956799616E-4 9:5.777777777777778 10:1.2642487046632125 11:0.5277777777777778 12:0.3611111111111111 13:1.4615384615384615 14:0.6111111111111112 15:3.0 
1.0 0.5338830215406747 0.0 0.0 1:0.2777777777777778 2:0.0 8:4.821365723474383E-6 9:5.0 10:0.18652849740932642 11:0.8333333333333334 12:0.0 13:0.0 14:0.8333333333333334 15:0.0 
1.0 1.0 0.0 0.0 1:1.1428571428571428 2:0.5 8:1.1860394867806806E-4 9:6.818181818181818 10:0.9247311827956989 11:0.7272727272727273 12:0.2727272727272727 13:2.6666666666666665 14:0.9090909090909091 15:0.0 
1.0 0.0 0.0 0.0 1:0.14285714285714285 2:0.0 8:3.487870536182368E-6 9:4.0 10:0.10752688172043011 11:0.5 12:0.0 13:0.0 14:0.5 15:0.0 
1.0 1.0 0.0 0.0 1:0.7307692307692307 2:0.2727272727272727 8:0.0039885779223659224 9:5.583333333333333 10:0.6475409836065574 11:0.7916666666666666 12:0.125 13:6.333333333333333 14:0.7916666666666666 15:2.0 
1.0 0.0 0.0 0.0 1:0.5714285714285714 2:0.2 8:4.825762239926962E-6 9:14.333333333333334 10:0.5227272727272727 11:1.3333333333333333 12:0.3333333333333333 13:4.0 14:1.0 15:0.0 
1.0 1.0 0.0 0.0 1:1.8181818181818181 2:3.6666666666666665 8:0.11552366500027496 9:7.111111111111111 10:2.3548387096774195 11:0.5555555555555556 12:0.3055555555555556 13:1.8181818181818181 14:0.8055555555555556 15:1.0 
1.0 1.0 0.0 0.0 1:0.5 2:2.5 8:0.001993388592651232 9:5.571428571428571 10:0.6216216216216216 11:0.42857142857142855 12:0.7142857142857143 13:0.6 14:1.5714285714285714 15:0.0 
1.0 1.0 0.0 0.0 1:1.5 2:4.5 8:0.004348939180904209 9:4.454545454545454 10:1.6216216216216217 11:0.4090909090909091 12:0.4090909090909091 13:1.0 14:0.5909090909090909 15:0.0 
1.0 0.2841953396110639 0.06854428885432447 0.0 1:4.0 2:4.0 8:0.1286943939575322 9:4.521739130434782 10:3.4324324324324325 11:0.5217391304347826 12:0.17391304347826086 13:3.0 14:0.6086956521739131 15:0.0 
1.0 1.0 0.0 0.0 1:0.4375 2:1.4 8:0.16619831358562887 9:7.333333333333333 10:0.8992805755395683 11:0.4666666666666667 12:0.4666666666666667 13:1.0 14:0.6666666666666666 15:0.0 
1.0 1.0 0.0 0.0 1:0.375 2:0.4 8:1.622738461209801E-4 9:5.6 10:0.4748201438848921 11:0.6 12:0.2 13:3.0 14:0.8 15:1.0 
1.0 1.0 0.0 0.0 1:0.4166666666666667 2:0.6666666666666666 8:0.21891508824169592 9:6.375 10:0.4125874125874126 11:0.625 12:0.25 13:2.5 14:0.75 15:2.0 
1.0 1.0 0.0 0.0 1:0.2222222222222222 2:0.0 8:2.991883701290263E-4 9:5.5 10:0.104 11:1.0 12:0.0 13:0.0 14:6.5 15:0.0 
1.0 0.0 0.0 0.0 1:0.5555555555555556 2:1.0 8:2.4842712234236538E-5 9:10.5 10:0.552 11:0.8333333333333334 12:0.6666666666666666 13:1.25 14:0.8333333333333334 15:0.0 
1.0 1.0 0.0 0.0 1:2.111111111111111 2:2.0 8:0.11445620227030937 9:7.035714285714286 10:1.8 11:0.6785714285714286 12:0.2857142857142857 13:2.375 14:0.6785714285714286 15:2.0 
1.0 0.0 0.0 0.0 1:0.2222222222222222 2:0.25 8:2.3273832774876405E-4 9:4.75 10:0.184 11:0.5 12:0.25 13:2.0 14:0.75 15:0.0 
1.0 1.0 0.0 0.0 1:0.6666666666666666 2:0.75 8:0.0018018323374575347 9:5.2727272727272725 10:0.552 11:0.5454545454545454 12:0.2727272727272727 13:2.0 14:0.8181818181818182 15:0.0 
1.0 0.0 0.0 0.0 1:0.4375 2:0.5 8:6.196878061982932E-4 9:4.2727272727272725 10:0.4142857142857143 11:0.6363636363636364 12:0.09090909090909091 13:7.0 14:0.7272727272727273 15:0.0 
1.0 0.0 0.0 0.0 1:1.0 2:4.0 8:4.2951588131488907E-5 9:9.933333333333334 10:2.342857142857143 11:0.5333333333333333 12:0.26666666666666666 13:2.0 14:0.5 15:0.0 
1.0 0.0 0.0 0.0 1:0.75 2:1.5 8:2.0860064190736887E-5 9:4.7727272727272725 10:0.9071428571428571 11:0.5454545454545454 12:0.13636363636363635 13:4.0 14:0.6363636363636364 15:0.0 
1.0 0.0 0.0 0.0 1:1.0625 2:4.0 8:0.019979658915998955 9:8.068965517241379 10:1.8785714285714286 11:0.5862068965517241 12:0.27586206896551724 13:2.125 14:0.6896551724137931 15:1.0 
1.0 1.0 0.0 0.0 1:0.15789473684210525 2:0.2 8:3.8170089313971145E-4 9:8.25 10:0.20441988950276244 11:0.75 12:0.25 13:3.0 14:1.0 15:0.0 
1.0 0.0 0.0 0.0 1:0.3157894736842105 2:0.6 8:3.8029310296764914E-4 9:4.142857142857143 10:0.39779005524861877 11:0.42857142857142855 12:0.21428571428571427 13:2.0 14:0.42857142857142855 15:1.0 
1.0 1.0 0.0 0.0 1:0.21052631578947367 2:0.4 8:3.20591851640204E-5 9:5.5 10:0.2154696132596685 11:0.6666666666666666 12:0.3333333333333333 13:2.0 14:0.8333333333333334 15:2.0 
1.0 0.0 0.0 0.0 1:0.18181818181818182 2:0.0 8:0.0 9:6.5 10:0.125 11:1.0 12:0.0 13:0.0 14:0.5 15:0.0 
1.0 1.0 0.0 0.0 1:1.75 2:0.5 8:2.043056060804904E-5 9:5.25 10:1.5625 11:0.5833333333333334 12:0.16666666666666666 13:3.5 14:0.5 15:0.0 
1.0 0.0 0.0 0.0 1:3.0 2:0.5 8:7.152087221350504E-5 9:4.142857142857143 10:1.2 11:0.42857142857142855 12:0.2857142857142857 13:1.5 14:0.7142857142857143 15:0.0 
1.0 1.0 0.0 0.0 1:0.1875 2:0.0 8:0.3535614161972773 9:3.5 10:0.12857142857142856 11:0.75 12:0.0 13:0.0 14:0.5 15:5.0 
1.0 0.1695478618065098 0.0 0.0 1:0.15384615384615385 2:0.0 8:7.352737857898922E-5 9:23.3 10:1.1911764705882353 11:0.2 12:0.0 13:0.0 14:2.2 15:0.0 
1.0 1.0 0.0 0.0 1:1.25 2:0.0 8:0.4479662853251621 9:4.333333333333333 10:0.6530612244897959 11:0.8333333333333334 12:0.0 13:0.0 14:0.6666666666666666 15:0.0 
1.0 0.0 0.0 0.0 1:0.3 2:0.3 8:1.992419845912784E-4 9:7.166666666666667 10:0.2722222222222222 11:0.5 12:0.5 13:1.0 14:0.6666666666666666 15:0.0 
1.0 0.0 0.0 0.0 1:0.0 2:0.5 8:0.0 9:7.0 10:0.12903225806451613 11:0.0 12:1.0 13:0.0 14:1.0 15:0.0 
1.0 1.0 0.0 0.0 1:5.2 2:0.0 8:0.1336317368852032 9:9.923076923076923 10:5.461538461538462 11:1.0 12:0.2692307692307692 13:3.7142857142857144 14:1.0 15:0.0 
1.0 1.0 0.0 0.0 1:1.4 2:0.0 8:4.271796779606645E-4 9:5.25 10:1.4423076923076923 11:0.5833333333333334 12:0.16666666666666666 13:3.5 14:0.75 15:0.0 
1.0 0.5905661326068645 0.0 0.0 1:1.8 2:0.0 8:5.968132313199069E-4 9:10.714285714285714 10:3.1538461538461537 11:0.6428571428571429 12:0.35714285714285715 13:1.8 14:0.8571428571428571 15:0.0 
1.0 1.0 0.0 0.0 1:0.6 2:0.0 8:1.370144838355865E-4 9:4.333333333333333 10:0.1553398058252427 11:1.0 12:0.0 13:0.0 14:1.0 15:0.0 
1.0 1.0 0.0 0.0 1:0.7 2:1.0 8:0.5477225575051661 9:5.666666666666667 10:0.6521739130434783 11:0.7777777777777778 12:0.2222222222222222 13:3.5 14:1.7777777777777777 15:2.0 
1.0 0.15872232871298558 0.005582078151932113 0.0 1:0.0 2:0.16666666666666666 8:0.0 9:4.0 10:0.042735042735042736 11:0.0 12:0.5 13:0.0 14:14.0 15:0.0 
1.0 0.7064760714949172 0.0 0.0 1:0.0 2:0.07692307692307693 8:0.0 9:4.5 10:0.047619047619047616 11:0.0 12:0.5 13:0.0 14:11.0 15:0.0 
1.0 1.0 0.0 0.0 1:0.0 2:0.1111111111111111 8:3.8541247074178177E-7 9:4.0 10:0.06756756756756757 11:0.0 12:0.5 13:0.0 14:0.5 15:0.0 
1.0 0.0 0.0 0.0 1:0.4444444444444444 2:0.1111111111111111 8:9.368798490036408E-4 9:2.857142857142857 10:0.18243243243243243 11:0.5714285714285714 12:0.14285714285714285 13:4.0 14:0.42857142857142855 15:0.0 
1.0 1.0 0.0 0.0 1:0.4444444444444444 2:1.0 8:5.386209932154635E-5 9:5.285714285714286 10:0.5945945945945946 11:0.2857142857142857 12:0.6428571428571429 13:0.4444444444444444 14:0.7142857142857143 15:3.0 
1.0 0.0 0.0 0.0 1:0.6666666666666666 2:0.16666666666666666 8:0.1826615701441974 9:7.0 10:0.6380368098159509 11:0.7692307692307693 12:0.07692307692307693 13:10.0 14:0.5384615384615384 15:0.0 
1.0 1.0 0.0 0.0 1:0.13333333333333333 2:0.16666666666666666 8:0.0 9:5.333333333333333 10:0.1165644171779141 11:0.6666666666666666 12:0.3333333333333333 13:2.0 14:0.3333333333333333 15:0.0 
1.0 1.0 0.0 0.0 1:0.45 2:0.5714285714285714 8:5.114150184092934E-4 9:5.866666666666666 10:0.533678756476684 11:0.6 12:0.26666666666666666 13:2.25 14:2.2 15:2.0 
1.0 0.0 1.0 0.0 1:0.25 2:0.0 8:4.114377766045685E-4 9:8.0 10:0.23316062176165803 11:1.0 12:0.0 13:0.0 14:0.8 15:0.0 
1.0 0.0 0.0 0.0 1:0.2 2:0.14285714285714285 8:1.218781246177143E-7 9:3.875 10:0.20207253886010362 11:0.5 12:0.125 13:4.0 14:0.625 15:0.0 
1.0 1.0 0.0 0.0 1:1.1 2:1.2857142857142858 8:4.148700838536935E-4 9:5.3 10:1.305699481865285 11:0.55 12:0.225 13:2.4444444444444446 14:0.575 15:2.0 
1.0 1.0 0.0 0.0 1:0.3 2:0.14285714285714285 8:1.0398820820907617E-6 9:6.375 10:0.30569948186528495 11:0.75 12:0.125 13:6.0 14:0.875 15:0.0 
1.0 0.0 0.0 0.0 1:0.1 2:0.0 8:5.13246345496309E-7 9:4.0 10:0.07772020725388601 11:0.6666666666666666 12:0.0 13:0.0 14:0.6666666666666666 15:0.0 
1.0 1.0 0.0 0.0 1:3.5 2:2.0 8:0.2653525443410949 9:6.529411764705882 10:2.3703703703703702 11:0.8235294117647058 12:0.23529411764705882 13:3.5 14:0.9411764705882353 15:2.0 
1.0 1.0 0.0 0.0 1:0.75 2:0.0 8:1.801152747403125E-4 9:8.0 10:0.5 11:1.0 12:0.0 13:0.0 14:0.6666666666666666 15:0.0 
1.0 0.0 0.0 0.0 1:0.0625 2:0.0 8:0.0 9:14.0 10:0.07692307692307693 11:1.0 12:0.0 13:0.0 14:1.0 15:0.0 
1.0 1.0 0.0 0.0 1:0.3181818181818182 2:1.5 8:0.2182563139281567 9:6.25 10:0.4603174603174603 11:0.5833333333333334 12:0.25 13:2.3333333333333335 14:2.5 15:0.0 
1.0 0.0 0.0 0.0 1:0.4090909090909091 2:1.5 8:8.466296024313787E-4 9:5.076923076923077 10:0.41798941798941797 11:0.6923076923076923 12:0.23076923076923078 13:3.0 14:0.6153846153846154 15:0.0 
1.0 0.0 0.0 0.0 1:0.045454545454545456 2:1.5 8:6.313914139214635E-7 9:4.666666666666667 10:0.17989417989417988 11:0.16666666666666666 12:0.5 13:0.3333333333333333 14:0.5 15:0.0 
1.0 0.0 0.0 0.0 1:0.09090909090909091 2:1.5 8:5.468010041874225E-7 9:4.857142857142857 10:0.21693121693121692 11:0.2857142857142857 12:0.42857142857142855 13:0.6666666666666666 14:0.5714285714285714 15:0.0 
1.0 1.0 0.0 0.0 1:0.2727272727272727 2:0.0 8:0.26816202420389007 9:5.857142857142857 10:0.25396825396825395 11:0.8571428571428571 12:0.0 13:0.0 14:0.7142857142857143 15:0.0 
1.0 0.0 0.0 0.0 1:0.4090909090909091 2:3.0 8:8.501621065434629E-4 9:5.3125 10:0.5343915343915344 11:0.5625 12:0.375 13:1.5 14:0.6875 15:0.0 
1.0 0.0 0.0 0.0 1:0.22727272727272727 2:0.5 8:2.341965796951559E-5 9:4.428571428571429 10:0.20105820105820105 11:0.7142857142857143 12:0.14285714285714285 13:5.0 14:0.8571428571428571 15:0.0 
1.0 0.0 0.0 0.0 1:0.09090909090909091 2:2.0 8:4.364771682331575E-4 9:4.6 10:0.2962962962962963 11:0.2 12:0.4 13:0.5 14:0.4 15:0.0 
1.0 1.0 0.0 0.0 1:0.22727272727272727 2:1.5 8:4.4646115036692613E-7 9:7.166666666666667 10:0.25925925925925924 11:0.8333333333333334 12:0.5 13:1.6666666666666667 14:1.0 15:0.0 
1.0 0.0028677772731476956 0.5077220772138451 0.0 1:0.3181818181818182 2:0.5 8:3.0542124484307368E-6 9:5.666666666666667 10:0.31746031746031744 11:0.7777777777777778 12:0.1111111111111111 13:7.0 14:0.6666666666666666 15:0.0 
1.0 1.0 0.0 0.0 1:0.09090909090909091 2:0.0 8:0.004819844325332865 9:6.5 10:0.07936507936507936 11:1.0 12:0.0 13:0.0 14:1.0 15:0.0 
1.0 0.7038128887133656 0.09253682567744394 0.0 1:0.18181818181818182 2:0.5 8:0.22973850862116185 9:19.5 10:0.8677248677248677 11:0.5 12:0.125 13:4.0 14:0.625 15:1.0 
1.0 0.518638887437652 0.0 0.0 1:1.5714285714285714 2:0.3333333333333333 8:3.066676910372604E-4 9:5.588235294117647 10:1.4736842105263157 11:0.6470588235294118 12:0.058823529411764705 13:11.0 14:0.7058823529411765 15:0.0 
1.0 1.0 0.0 0.0 1:1.8571428571428572 2:1.0 8:1.10994926724226E-4 9:5.391304347826087 10:1.9342105263157894 11:0.5652173913043478 12:0.13043478260869565 13:4.333333333333333 14:0.6086956521739131 15:1.0 
1.0 1.0 0.0 0.0 1:3.6666666666666665 2:8.0 8:0.1941181366911012 9:6.158730158730159 10:3.727272727272727 11:0.6984126984126984 12:0.25396825396825395 13:2.75 14:0.9365079365079365 15:3.0 
1.0 0.0 0.0 0.0 1:0.3333333333333333 2:4.5 8:0.002088727287205675 9:5.428571428571429 10:0.743801652892562 11:0.2857142857142857 12:0.6428571428571429 13:0.4444444444444444 14:0.7857142857142857 15:0.0 
1.0 0.0 0.0 0.0 1:0.5 2:1.0 8:1.8968576120393085E-4 9:3.875 10:0.32231404958677684 11:0.75 12:0.25 13:3.0 14:0.875 15:0.0 
1.0 0.0 0.0 0.0 1:0.08333333333333333 2:0.5 8:4.291185783602161E-4 9:5.4 10:0.2644628099173554 11:0.2 12:0.2 13:1.0 14:0.4 15:0.0 
1.0 1.0 0.0 0.0 1:2.0833333333333335 2:5.0 8:0.1768922460496555 9:6.705882352941177 10:2.165289256198347 11:0.7352941176470589 12:0.29411764705882354 13:2.5 14:0.7647058823529411 15:0.0 
1.0 1.0 0.0 0.0 1:0.4166666666666667 2:0.5 8:0.480314613959812 9:5.833333333333333 10:0.33884297520661155 11:0.8333333333333334 12:0.16666666666666666 13:5.0 14:0.5 15:0.0 
1.0 1.0 0.4255372142609409 0.0 1:0.75 2:1.0 8:7.080170079889005E-4 9:7.25 10:0.8181818181818182 11:0.75 12:0.16666666666666666 13:4.5 14:0.75 15:0.0 
1.0 0.0 0.0 0.0 1:0.0 2:5.0 8:2.4279482578372024E-5 9:5.5 10:0.5371900826446281 11:0.0 12:1.0 13:0.0 14:1.0 15:0.0 
1.0 1.0 0.0 0.0 1:0.25 2:0.5 8:0.36752526610945047 9:5.142857142857143 10:0.35537190082644626 11:0.42857142857142855 12:0.14285714285714285 13:3.0 14:0.5714285714285714 15:0.0 
1.0 0.9563709445095377 0.0 0.0 1:0.2 2:3.5 8:0.0016817646552029302 9:20.5 10:3.706896551724138 11:0.1 12:0.7 13:0.14285714285714285 14:1.3 15:0.0 
1.0 1.0 0.0 0.0 1:0.26666666666666666 2:0.1 8:7.906929893333545E-5 9:3.4 10:0.09777777777777778 11:0.8 12:0.2 13:4.0 14:1.0 15:1.0 
1.0 1.0 0.030156771075478428 0.0 1:0.25 2:0.4 8:9.679297546949327E-6 9:12.0 10:0.4105263157894737 11:0.8888888888888888 12:0.2222222222222222 13:4.0 14:4.444444444444445 15:0.0 
1.0 1.0 0.0 0.0 1:1.1428571428571428 2:1.6 8:0.14554492218303666 9:5.923076923076923 10:1.313868613138686 11:0.6153846153846154 12:0.3076923076923077 13:2.0 14:1.3461538461538463 15:0.0 
1.0 0.0 0.002804967409093288 0.0 1:1.0 2:0.0 8:0.0 9:8.0 10:0.45 11:1.0 12:0.0 13:0.0 14:2.0 15:0.0 
1.0 1.0 0.0 0.0 1:1.4 2:3.0 8:0.006216533703844068 9:5.357142857142857 10:1.8541666666666667 11:0.5 12:0.21428571428571427 13:2.3333333333333335 14:0.6428571428571429 15:0.0 
1.0 1.0 0.0 0.0 1:0.875 2:1.0 8:1.502153006133715E-5 9:5.166666666666667 10:0.8705882352941177 11:0.5833333333333334 12:0.25 13:2.3333333333333335 14:1.5 15:0.0 
1.0 1.0 0.0 0.0 1:0.375 2:0.6666666666666666 8:1.5235704388149814E-4 9:7.8 10:0.5176470588235295 11:0.6 12:0.4 13:1.5 14:1.0 15:0.0 
1.0 1.0 0.0 0.0 1:1.8333333333333333 2:0.2857142857142857 8:1.290072759985371E-4 9:9.142857142857142 10:1.1735537190082646 11:0.7857142857142857 12:0.14285714285714285 13:5.5 14:1.3571428571428572 15:0.0 
1.0 1.0 0.0 0.0 1:0.5 2:0.14285714285714285 8:1.4833487891308798E-5 9:5.0 10:0.2975206611570248 11:0.5 12:0.16666666666666666 13:3.0 14:0.5 15:0.0 
1.0 1.0 0.0 0.0 1:0.3333333333333333 2:0.14285714285714285 8:0.002942002853475167 9:6.75 10:0.256198347107438 11:0.5 12:0.25 13:2.0 14:0.75 15:0.0 
1.0 0.0 0.0 0.0 1:0.6666666666666666 2:1.4285714285714286 8:7.674167693275096E-4 9:5.625 10:0.8760330578512396 11:0.25 12:0.625 13:0.4 14:0.5625 15:0.0 
1.0 1.0 0.0 0.0 1:0.5 2:0.2857142857142857 8:0.0038322506971754542 9:4.0 10:0.2066115702479339 11:0.6 12:0.4 13:1.5 14:0.8 15:0.0 
1.0 0.0 0.0 0.0 1:0.8333333333333334 2:0.0 8:2.5802235411796813E-4 9:6.5 10:0.24793388429752067 11:1.25 12:0.0 13:0.0 14:1.25 15:0.0 
1.0 1.0 0.0 0.0 1:0.8333333333333334 2:0.5714285714285714 8:0.2582307537593703 9:11.222222222222221 10:0.9090909090909091 11:0.5555555555555556 12:0.4444444444444444 13:1.25 14:0.7777777777777778 15:0.0 
1.0 1.0 0.0 0.0 1:1.8333333333333333 2:0.8571428571428571 8:0.0013010854740003808 9:5.368421052631579 10:1.0 11:0.5789473684210527 12:0.3157894736842105 13:1.8333333333333333 14:0.7894736842105263 15:3.0 
1.0 0.6204263486169034 0.0 0.0 1:0.16666666666666666 2:0.14285714285714285 8:0.0013066348835777339 9:23.333333333333332 10:0.6033057851239669 11:0.3333333333333333 12:0.3333333333333333 13:1.0 14:0.6666666666666666 15:0.0 
1.0 0.12567498794524787 0.008089678375356188 0.0 1:0.3333333333333333 2:0.14285714285714285 8:0.0 9:39.0 10:0.9917355371900827 11:0.6666666666666666 12:0.3333333333333333 13:2.0 14:1.0 15:0.0 
1.0 0.0 0.0 0.0 1:0.3333333333333333 2:0.14285714285714285 8:2.2748562274505845E-5 9:5.666666666666667 10:0.1652892561983471 11:0.6666666666666666 12:0.3333333333333333 13:2.0 14:1.0 15:0.0 
1.0 1.0 0.0 0.0 1:1.0 2:0.2857142857142857 8:9.671380979326701E-4 9:11.375 10:0.8181818181818182 11:0.75 12:0.25 13:3.0 14:1.0 15:1.0 
1.0 0.0 0.0 0.0 1:0.16666666666666666 2:0.2857142857142857 8:0.0016792310687456695 9:5.4 10:0.2644628099173554 11:0.2 12:0.4 13:0.5 14:0.4 15:0.0 
1.0 1.0 0.0 0.0 1:2.0 2:0.7142857142857143 8:0.0022429348753887812 9:5.818181818181818 10:1.2396694214876034 11:0.5454545454545454 12:0.22727272727272727 13:2.4 14:0.6818181818181818 15:0.0 
1.0 1.0 0.0 0.0 1:1.0 2:0.8571428571428571 8:0.20010352578817614 9:5.928571428571429 10:0.8016528925619835 11:0.42857142857142855 12:0.42857142857142855 13:1.0 14:0.5 15:0.0 
1.0 1.0 0.0 0.0 1:0.5384615384615384 2:1.0 8:0.0 9:6.5 10:0.5113636363636364 11:0.5833333333333334 12:0.4166666666666667 13:1.4 14:1.9166666666666667 15:0.0 
1.0 1.0 0.0 0.0 1:0.5384615384615384 2:0.2 8:0.0 9:3.5 10:0.3068181818181818 11:0.5833333333333334 12:0.08333333333333333 13:7.0 14:0.5833333333333334 15:1.0 
1.0 1.0 0.0 0.0 1:0.15384615384615385 2:0.0 8:0.0 9:19.0 10:0.22727272727272727 11:1.0 12:0.0 13:0.0 14:1.0 15:0.0 
1.0 0.0 0.0 0.0 1:0.46153846153846156 2:0.6 8:0.0 9:5.636363636363637 10:0.4147727272727273 11:0.5454545454545454 12:0.2727272727272727 13:2.0 14:0.5454545454545454 15:0.0 
1.0 1.0 0.0 0.0 1:0.15384615384615385 2:0.2 8:0.0 9:5.0 10:0.17045454545454544 11:0.4 12:0.2 13:2.0 14:0.0 15:0.0 
1.0 0.0 0.0 0.0 1:0.46153846153846156 2:0.2 8:0.0 9:4.222222222222222 10:0.26704545454545453 11:0.6666666666666666 12:0.1111111111111111 13:6.0 14:0.7777777777777778 15:0.0 
1.0 1.0 0.0 0.0 1:1.0 2:0.8 8:0.0 9:5.235294117647059 10:0.6022727272727273 11:0.7647058823529411 12:0.23529411764705882 13:3.25 14:0.6470588235294118 15:1.0 
1.0 0.0 0.04690787524222718 0.0 1:0.8461538461538461 2:0.4 8:0.0 9:9.7 10:0.6079545454545454 11:1.1 12:0.2 13:5.5 14:1.0 15:0.0 
1.0 0.13248817076439556 0.0 0.0 1:0.0 2:0.4 8:0.0 9:6.333333333333333 10:0.125 11:0.0 12:0.6666666666666666 13:0.0 14:0.6666666666666666 15:0.0 
1.0 1.0 0.0 0.0 1:0.2727272727272727 2:0.0 8:0.730297865112492 9:5.333333333333333 10:0.22093023255813954 11:1.0 12:0.0 13:0.0 14:4.333333333333333 15:0.0 
1.0 0.7547032169230681 0.0 0.0 1:0.18181818181818182 2:0.3333333333333333 8:5.562173012721498E-6 9:3.3333333333333335 10:0.1511627906976744 11:0.6666666666666666 12:0.3333333333333333 13:2.0 14:0.6666666666666666 15:0.0 
1.0 1.0 0.0 0.0 1:0.26666666666666666 2:0.5 8:9.632420883980268E-5 9:6.833333333333333 10:0.36015325670498083 11:0.6666666666666666 12:0.16666666666666666 13:4.0 14:0.5833333333333334 15:1.0 
1.0 1.0 0.0 0.0 1:1.2333333333333334 2:3.5 8:0.12281186494901727 9:6.730769230769231 10:1.5402298850574712 11:0.7115384615384616 12:0.2692307692307692 13:2.642857142857143 14:0.7115384615384616 15:4.0 
1.0 1.0 0.0 0.0 1:1.1 2:3.0 8:0.1055351792795251 9:5.679245283018868 10:1.3563218390804597 11:0.6226415094339622 12:0.22641509433962265 13:2.75 14:0.6981132075471698 15:11.0 
1.0 0.0 0.0 0.0 1:0.5666666666666667 2:2.5 8:7.582617386935936E-4 9:6.535714285714286 10:0.8084291187739464 11:0.6071428571428571 12:0.35714285714285715 13:1.7 14:0.75 15:0.0 
1.0 0.0 0.0 0.0 1:0.13333333333333333 2:0.75 8:5.803347641931932E-4 9:6.666666666666667 10:0.17624521072796934 11:0.6666666666666666 12:0.5 13:1.3333333333333333 14:0.8333333333333334 15:0.0 
1.0 0.5680476018635886 0.0 0.0 1:0.4 2:0.75 8:0.06868197860343474 9:4.545454545454546 10:0.4674329501915709 11:0.5454545454545454 12:0.13636363636363635 13:4.0 14:0.5 15:6.0 
1.0 1.0 0.0 0.0 1:0.43333333333333335 2:1.25 8:0.20589769960483173 9:4.913043478260869 10:0.5210727969348659 11:0.5652173913043478 12:0.21739130434782608 13:2.6 14:0.5652173913043478 15:3.0 
1.0 1.0 0.0 0.0 1:0.4 2:0.25 8:2.740121578934974E-4 9:5.333333333333333 10:0.36398467432950193 11:0.8 12:0.06666666666666667 13:12.0 14:0.6 15:0.0 
1.0 1.0 0.0 0.0 1:0.2 2:1.25 8:0.00241848565998143 9:5.181818181818182 10:0.26053639846743293 11:0.5454545454545454 12:0.45454545454545453 13:1.2 14:0.6363636363636364 15:4.0 
1.0 0.6041343052721254 0.0 0.0 1:1.0666666666666667 2:5.25 8:0.14448666591343 9:6.456140350877193 10:1.628352490421456 11:0.5614035087719298 12:0.3684210526315789 13:1.5238095238095237 14:0.6666666666666666 15:10.0 
1.0 0.0 0.25560398130433554 0.0 1:0.2 2:0.25 8:0.0031034901839248575 9:10.0 10:0.421455938697318 11:0.6 12:0.1 13:6.0 14:0.7 15:0.0 
1.0 1.0 0.011315358288420702 0.0 1:0.6333333333333333 2:1.25 8:0.002204158465207981 9:11.384615384615385 10:0.6168582375478927 11:1.4615384615384615 12:0.38461538461538464 13:3.8 14:1.2307692307692308 15:0.0 
1.0 1.0 0.009054386677887185 0.0 1:0.3 2:0.5 8:0.14840334291279667 9:10.038461538461538 10:1.0996168582375478 11:0.34615384615384615 12:0.07692307692307693 13:4.5 14:0.3076923076923077 15:10.0 
1.0 0.0 0.0 0.0 1:0.03333333333333333 2:0.5 8:2.6677279971956367E-5 9:7.0 10:0.09195402298850575 11:0.3333333333333333 12:0.6666666666666666 13:0.5 14:0.6666666666666666 15:0.0 
1.0 1.0 0.0 0.0 1:0.0 2:0.0 8:3.267286180754503E-5 9:7.5 10:0.06513409961685823 11:0.0 12:0.0 13:0.0 14:0.0 15:0.0 
1.0 1.0 0.0 0.0 1:0.06666666666666667 2:0.0 8:0.33925904654351235 9:5.0 10:0.11494252873563218 11:0.4 12:0.0 13:0.0 14:0.4 15:3.0 
1.0 1.0 0.0 0.0 1:1.2333333333333334 2:3.75 8:0.17835178172138488 9:5.698412698412699 10:1.6168582375478928 11:0.5873015873015873 12:0.23809523809523808 13:2.466666666666667 14:0.6031746031746031 15:7.0 
1.0 0.3844774136160431 0.02273682695295537 0.0 1:1.5 2:6.75 8:0.16175601324007494 9:5.535714285714286 10:2.103448275862069 11:0.5357142857142857 12:0.32142857142857145 13:1.6666666666666667 14:0.6190476190476191 15:31.0 
1.0 1.0 0.0 0.0 1:0.5333333333333333 2:2.25 8:0.021433572756600645 9:5.653846153846154 10:0.6628352490421456 11:0.6153846153846154 12:0.34615384615384615 13:1.7777777777777777 14:0.8076923076923077 15:0.0 
1.0 0.0 0.0 0.0 1:0.06666666666666667 2:0.25 8:5.920936409869614E-5 9:6.4 10:0.1417624521072797 11:0.4 12:0.2 13:2.0 14:0.6 15:0.0 
1.0 0.20681395146645792 0.0 0.0 1:0.13333333333333333 2:0.5 8:0.0025634348582358932 9:4.75 10:0.17624521072796934 11:0.5 12:0.25 13:2.0 14:0.625 15:0.0 
1.0 0.0 0.0 0.0 1:0.8333333333333334 2:3.75 8:0.0014027147220286417 9:7.409090909090909 10:1.417624521072797 11:0.5681818181818182 12:0.3409090909090909 13:1.6666666666666667 14:0.6590909090909091 15:0.0 
1.0 1.0 0.0 0.0 1:0.625 2:1.2 8:1.4943149151889918E-4 9:7.0 10:0.732824427480916 11:0.4166666666666667 12:0.5 13:0.8333333333333334 14:1.6666666666666667 15:0.0 
0.630709176861689 0.2283967753647539 0.023721923573431614 0.0 1:0.05 2:0.0 8:0.0 9:3.0 10:0.02072538860103627 11:1.0 12:0.0 13:0.0 14:26.0 15:0.0 
1.0 1.0 0.0 0.0 1:0.23076923076923078 2:0.0 8:3.55867468997858E-8 9:5.333333333333333 10:0.1557377049180328 11:1.0 12:0.0 13:0.0 14:5.333333333333333 15:0.0 
1.0 1.0 0.0 0.0 1:0.68 2:1.6 8:0.18257418583505533 9:4.775 10:0.9058823529411765 11:0.425 12:0.4 13:1.0625 14:0.6 15:6.0 
1.0 1.0 0.0 0.0 1:0.6666666666666666 2:2.0 8:2.1171067917544057E-4 9:5.2 10:0.96875 11:0.4 12:0.4 13:1.0 14:1.4 15:0.0 
1.0 0.0 0.0 0.0 1:0.4 2:0.0 8:0.0 9:4.0 10:0.11627906976744186 11:1.0 12:0.0 13:0.0 14:0.5 15:0.0 
1.0 1.0 0.0 0.0 1:1.2 2:0.2 8:5.869405450622966E-5 9:5.875 10:0.6395348837209303 11:0.75 12:0.125 13:6.0 14:0.625 15:0.0 
1.0 1.0 0.3461563543333147 0.0 1:2.2 2:1.4 8:0.02329832759099781 9:5.16 10:1.7906976744186047 11:0.44 12:0.28 13:1.5714285714285714 14:0.52 15:8.0 
1.0 1.0 0.0 0.0 1:1.6 2:0.4 8:0.2043771056554114 9:4.9375 10:1.1046511627906976 11:0.5 12:0.125 13:4.0 14:0.5 15:1.0 
1.0 1.0 0.0 0.0 1:1.6 2:0.4 8:0.0010435846462967706 9:4.583333333333333 10:0.7790697674418605 11:0.6666666666666666 12:0.16666666666666666 13:4.0 14:0.5833333333333334 15:0.0 
1.0 0.0 0.0 0.0 1:0.058823529411764705 2:0.16666666666666666 8:9.227756162844268E-7 9:4.333333333333333 10:0.09090909090909091 11:0.3333333333333333 12:0.3333333333333333 13:1.0 14:0.6666666666666666 15:0.0 
1.0 1.0 0.0 0.0 1:0.058823529411764705 2:0.16666666666666666 8:1.1301647034890834E-6 9:9.5 10:0.11931818181818182 11:0.5 12:0.5 13:1.0 14:1.0 15:0.0 
1.0 0.12464404389612559 0.0 0.0 1:0.11764705882352941 2:0.16666666666666666 8:0.001588145332465426 9:6.25 10:0.16477272727272727 11:0.5 12:0.25 13:2.0 14:0.75 15:0.0 
1.0 0.0 0.0 0.0 1:0.23529411764705882 2:0.6666666666666666 8:1.4965636981535255E-5 9:5.2 10:0.5284090909090909 11:0.26666666666666666 12:0.26666666666666666 13:1.0 14:0.4 15:0.0 
1.0 0.012829223354895915 0.0 0.0 1:0.11764705882352941 2:0.0 8:1.4482047400264736E-6 9:3.5 10:0.05113636363636364 11:1.0 12:0.0 13:0.0 14:0.5 15:0.0 
1.0 1.0 0.0 0.0 1:0.5294117647058824 2:0.8333333333333334 8:1.0899074006198478E-4 9:5.529411764705882 10:0.6306818181818182 11:0.5294117647058824 12:0.29411764705882354 13:1.8 14:0.7647058823529411 15:0.0 
1.0 0.0 0.0 0.0 1:1.0 2:0.8333333333333334 8:1.122449093231053E-4 9:4.75 10:0.7840909090909091 11:0.7083333333333334 12:0.20833333333333334 13:3.4 14:0.7083333333333334 15:0.0 
1.0 0.8136172008253048 0.0 0.0 1:0.29411764705882354 2:0.5 8:1.7232948816096847E-4 9:3.625 10:0.21022727272727273 11:0.625 12:0.375 13:1.6666666666666667 14:0.75 15:0.0 
1.0 0.0 0.0 0.0 1:0.23529411764705882 2:0.3333333333333333 8:5.054250205550132E-7 9:6.285714285714286 10:0.2897727272727273 11:0.5714285714285714 12:0.2857142857142857 13:2.0 14:0.8571428571428571 15:0.0 
1.0 0.0 0.0 0.0 1:0.17647058823529413 2:0.6666666666666666 8:9.679297546949327E-6 9:3.7142857142857144 10:0.1875 11:0.42857142857142855 12:0.5714285714285714 13:0.75 14:0.5714285714285714 15:0.0 
1.0 0.0 0.0 0.0 1:0.058823529411764705 2:0.3333333333333333 8:1.5360530883284282E-6 9:3.6666666666666665 10:0.07954545454545454 11:0.3333333333333333 12:0.6666666666666666 13:0.5 14:0.6666666666666666 15:0.0 
1.0 0.0 0.0 0.0 1:0.5882352941176471 2:1.0 8:5.674991220127839E-6 9:5.176470588235294 10:0.5965909090909091 11:0.5882352941176471 12:0.35294117647058826 13:1.6666666666666667 14:0.7058823529411765 15:0.0 
1.0 0.0 0.0 0.0 1:0.23529411764705882 2:0.5 8:7.178359182686075E-6 9:4.428571428571429 10:0.2159090909090909 11:0.5714285714285714 12:0.42857142857142855 13:1.3333333333333333 14:0.8571428571428571 15:0.0 
1.0 0.4708851987123865 0.0 0.0 1:0.29411764705882354 2:0.5 8:7.178359182686075E-6 9:5.384615384615385 10:0.4715909090909091 11:0.38461538461538464 12:0.23076923076923078 13:1.6666666666666667 14:0.5384615384615384 15:0.0 
1.0 0.0 0.0 0.0 1:0.5882352941176471 2:0.6666666666666666 8:1.2645527428469615E-4 9:4.066666666666666 10:0.4318181818181818 11:0.6666666666666666 12:0.26666666666666666 13:2.5 14:0.6666666666666666 15:0.0 
1.0 0.0 0.0 0.0 1:0.058823529411764705 2:0.16666666666666666 8:1.605129909608748E-5 9:4.0 10:0.08522727272727272 11:0.3333333333333333 12:0.3333333333333333 13:1.0 14:0.3333333333333333 15:0.0 
1.0 1.0 0.0 0.0 1:0.058823529411764705 2:0.16666666666666666 8:2.1723071100340153E-6 9:6.666666666666667 10:0.13068181818181818 11:0.3333333333333333 12:0.3333333333333333 13:1.0 14:0.6666666666666666 15:0.0 
1.0 0.0 0.0 0.0 1:0.11764705882352941 2:0.16666666666666666 8:6.040984444407098E-7 9:5.666666666666667 10:0.11363636363636363 11:0.6666666666666666 12:0.3333333333333333 13:2.0 14:1.0 15:0.0 
1.0 0.0 0.0 0.0 1:0.23529411764705882 2:0.3333333333333333 8:3.1563247687400525E-6 9:6.111111111111111 10:0.36363636363636365 11:0.4444444444444444 12:0.2222222222222222 13:2.0 14:0.3333333333333333 15:0.0 
1.0 1.0 0.0 0.0 1:0.35294117647058826 2:0.8333333333333334 8:7.786023719363424E-6 9:7.166666666666667 10:0.5568181818181818 11:0.5 12:0.4166666666666667 13:1.2 14:0.8333333333333334 15:0.0 
1.0 0.0 0.0 0.0 1:0.23529411764705882 2:0.16666666666666666 8:1.6648610282418667E-4 9:4.166666666666667 10:0.17613636363636365 11:0.6666666666666666 12:0.16666666666666666 13:4.0 14:0.6666666666666666 15:0.0 
1.0 1.0 0.0 0.0 1:0.23529411764705882 2:0.5 8:0.0013214178168333478 9:5.571428571428571 10:0.26136363636363635 11:0.5714285714285714 12:0.42857142857142855 13:1.3333333333333333 14:0.8571428571428571 15:0.0 
1.0 0.0 0.0 0.0 1:0.17647058823529413 2:0.16666666666666666 8:8.57978026303518E-6 9:4.6 10:0.1590909090909091 11:0.6 12:0.2 13:3.0 14:0.8 15:0.0 
1.0 0.0 0.0 0.0 1:0.29411764705882354 2:0.8333333333333334 8:0.0024049472982401606 9:5.7 10:0.3806818181818182 11:0.5 12:0.5 13:1.0 14:0.7 15:0.0 
1.0 0.3659959026623956 0.0 0.0 1:0.875 2:0.3333333333333333 8:0.002583720025736184 9:5.909090909090909 10:0.5714285714285714 11:0.6363636363636364 12:0.18181818181818182 13:3.5 14:2.0 15:0.0 
1.0 1.0 0.0 0.0 1:0.25 2:0.3333333333333333 8:0.004027278410210876 9:5.8 10:0.2556390977443609 11:0.4 12:0.4 13:1.0 14:0.6 15:1.0 
1.0 1.0 0.0 0.0 1:0.4 2:0.5555555555555556 8:7.947980196792616E-4 9:4.285714285714286 10:0.4966442953020134 11:0.2857142857142857 12:0.35714285714285715 13:0.8 14:1.7857142857142858 15:8.0 
1.0 0.3136547086604984 0.023610006805489768 0.0 1:0.8 2:1.8888888888888888 8:5.114151474424838E-4 9:4.516129032258065 10:1.1476510067114094 11:0.25806451612903225 12:0.5483870967741935 13:0.47058823529411764 14:0.6451612903225806 15:16.0 
1.0 1.0 0.0 0.0 1:0.4 2:0.2222222222222222 8:3.658273893627298E-6 9:5.5 10:0.348993288590604 11:0.5 12:0.25 13:2.0 14:0.5 15:3.0 
1.0 1.0 0.0 0.0 1:1.1 2:0.8888888888888888 8:3.3646159122355736E-5 9:6.809523809523809 10:1.1006711409395973 11:0.5238095238095238 12:0.38095238095238093 13:1.375 14:0.7619047619047619 15:5.0 
1.0 1.0 0.0 0.0 1:1.0 2:0.3333333333333333 8:0.14909620222155415 9:7.277777777777778 10:1.0 11:0.5555555555555556 12:0.16666666666666666 13:3.3333333333333335 14:0.5 15:0.0 
1.0 1.0 0.0 0.0 1:0.3 2:0.2222222222222222 8:0.24255609610013365 9:5.375 10:0.3422818791946309 11:0.375 12:0.25 13:1.5 14:0.5 15:5.0 
1.0 0.0 0.0 0.0 1:0.38461538461538464 2:0.125 8:0.007477975718007846 9:9.142857142857142 10:0.5107913669064749 11:0.7142857142857143 12:0.14285714285714285 13:5.0 14:0.5714285714285714 15:0.0 
1.0 1.0 0.0 0.0 1:0.38461538461538464 2:0.375 8:0.2739065629381041 9:9.88888888888889 10:0.7050359712230215 11:0.5555555555555556 12:0.3333333333333333 13:1.6666666666666667 14:0.6666666666666666 15:1.0 
1.0 0.44214625100441174 0.04541716234861676 0.0 1:1.6153846153846154 2:0.0 8:0.0 9:48.5 10:0.7122302158273381 11:10.5 12:0.0 13:0.0 14:6.0 15:0.0 
1.0 0.0 0.0 0.0 1:0.07692307692307693 2:0.0 8:1.1367794467133206E-6 9:7.0 10:0.05755395683453238 11:1.0 12:0.0 13:0.0 14:1.0 15:0.0 
1.0 1.0 0.0 0.0 1:0.15384615384615385 2:0.0 8:0.0 9:8.0 10:0.12949640287769784 11:1.0 12:0.0 13:0.0 14:1.0 15:0.0 
1.0 1.0 0.36521035745975505 0.0 1:0.6153846153846154 2:0.375 8:0.006448876511530138 9:7.25 10:0.7122302158273381 11:0.6666666666666666 12:0.25 13:2.6666666666666665 14:0.9166666666666666 15:0.0 
1.0 1.0 0.0 0.025677372625111314 1:0.7692307692307693 2:0.25 8:5.381748593379845E-6 9:8.875 10:1.1366906474820144 11:0.625 12:0.125 13:5.0 14:0.625 15:0.0 
1.0 1.0 0.0 0.0 1:0.6153846153846154 2:0.375 8:1.672441618704776E-4 9:6.25 10:0.8345323741007195 11:0.5 12:0.1875 13:2.6666666666666665 14:0.5625 15:1.0 
1.0 0.951390799634733 0.0 0.0 1:0.15384615384615385 2:0.0 8:0.0027574537892862635 9:6.333333333333333 10:0.15827338129496402 11:0.6666666666666666 12:0.0 13:0.0 14:0.3333333333333333 15:0.0 
1.0 1.0 0.0 0.0 1:0.38461538461538464 2:0.25 8:6.237351061425549E-5 9:5.5 10:0.2805755395683453 11:0.8333333333333334 12:0.3333333333333333 13:2.5 14:0.6666666666666666 15:1.0 
1.0 0.0 0.0 0.0 1:0.6923076923076923 2:0.625 8:0.004875021882060564 9:12.421052631578947 10:1.8345323741007193 11:0.47368421052631576 12:0.2631578947368421 13:1.8 14:0.5789473684210527 15:6.0 
1.0 0.338780891079414 0.026409146212721613 0.0 1:0.75 2:0.0 8:0.0 9:30.11111111111111 10:7.368421052631579 11:0.3333333333333333 12:0.2222222222222222 13:1.5 14:0.7777777777777778 15:0.0 
1.0 1.0 0.0 0.0 1:0.3125 2:2.0 8:2.9931273956366793E-5 9:6.0 10:0.49557522123893805 11:0.625 12:0.25 13:2.5 14:2.375 15:0.0 
1.0 0.0 0.0 0.0 1:0.5555555555555556 2:0.14285714285714285 8:1.6397060896993488E-4 9:6.8 10:0.291044776119403 11:1.0 12:0.2 13:5.0 14:1.2 15:0.0 
1.0 0.0 0.0 0.0 1:0.1111111111111111 2:0.14285714285714285 8:0.0 9:4.666666666666667 10:0.12686567164179105 11:0.3333333333333333 12:0.3333333333333333 13:1.0 14:0.6666666666666666 15:0.0 
1.0 0.0 0.0 0.0 1:0.18181818181818182 2:0.0 8:0.001262074113952739 9:3.5 10:0.08181818181818182 11:1.0 12:0.0 13:0.0 14:1.0 15:0.0 
1.0 0.0 0.0 0.0 1:0.6363636363636364 2:0.5 8:5.81860928546015E-4 9:4.888888888888889 10:0.4818181818181818 11:0.7777777777777778 12:0.1111111111111111 13:7.0 14:0.8888888888888888 15:0.0 
1.0 0.5923164932399587 0.0997813589552014 0.0 1:1.8181818181818181 2:1.0 8:0.0949157995752499 9:6.046153846153846 10:1.9324894514767932 11:0.6153846153846154 12:0.1076923076923077 13:5.714285714285714 14:0.6153846153846154 15:37.0 
1.0 1.0 0.0 0.0 1:0.7272727272727273 2:1.3333333333333333 8:4.8746109964248445E-5 9:5.666666666666667 10:0.7299270072992701 11:0.5333333333333333 12:0.26666666666666666 13:2.0 14:0.6666666666666666 15:1.0 
1.0 0.0 0.0 0.0 1:0.1111111111111111 2:1.0 8:3.186427435056611E-5 9:1.9166666666666667 10:0.4268292682926829 11:0.08333333333333333 12:0.25 13:0.3333333333333333 14:0.25 15:0.0 
1.0 1.0 0.0 0.0 1:0.5555555555555556 2:0.25 8:0.23905261692580557 9:7.428571428571429 10:0.4573643410852713 11:0.7142857142857143 12:0.14285714285714285 13:5.0 14:2.5714285714285716 15:0.0 
1.0 1.0 0.0 0.0 1:1.6666666666666667 2:1.7272727272727273 8:0.09065515871001664 9:6.589285714285714 10:1.7068273092369477 11:0.625 12:0.3392857142857143 13:1.8421052631578947 14:1.1964285714285714 15:3.0 
1.0 1.0 0.0 0.0 1:0.19047619047619047 2:0.09090909090909091 8:0.2390511481787729 9:6.0 10:0.1686746987951807 11:0.6666666666666666 12:0.16666666666666666 13:4.0 14:0.6666666666666666 15:4.0 
1.0 1.0 0.0 0.0 1:1.619047619047619 2:1.3636363636363635 8:0.15619886991865156 9:6.82 10:1.570281124497992 11:0.68 12:0.3 13:2.2666666666666666 14:0.7 15:4.0 
1.0 0.0 0.0 0.0 1:0.14285714285714285 2:0.09090909090909091 8:0.0011184017171741506 9:5.2 10:0.12449799196787148 11:0.6 12:0.2 13:3.0 14:0.8 15:0.0 
1.0 1.0 0.0 0.0 1:0.6190476190476191 2:0.36363636363636365 8:0.19885098766298287 9:5.136363636363637 10:0.5421686746987951 11:0.5909090909090909 12:0.18181818181818182 13:3.25 14:0.5909090909090909 15:5.0 
1.0 1.0 0.020548266130625256 0.0 1:5.666666666666667 2:0.0 8:4.6043113470335646E-4 9:6.454545454545454 10:11.714285714285714 11:0.7727272727272727 12:0.13636363636363635 13:5.666666666666667 14:0.9545454545454546 15:0.0 
1.0 1.0 0.0 0.0 1:2.45 2:2.1538461538461537 8:1.6238192265135697E-4 9:5.178217821782178 10:2.1894736842105265 11:0.48514851485148514 12:0.27722772277227725 13:1.75 14:0.900990099009901 15:7.0 
1.0 1.0 0.0 0.0 1:0.9166666666666666 2:1.6666666666666667 8:0.18991814902229223 9:4.888888888888889 10:0.9298245614035088 11:0.6111111111111112 12:0.2777777777777778 13:2.2 14:0.5555555555555556 15:3.0 
1.0 1.0 0.0 0.0 1:0.16 2:0.1111111111111111 8:7.347839500540354E-5 9:5.0 10:0.1494661921708185 11:0.5714285714285714 12:0.14285714285714285 13:4.0 14:0.42857142857142855 15:0.0 
1.0 1.0 0.0 0.0 1:0.16 2:0.1111111111111111 8:4.33693552154253E-4 9:5.4 10:0.11387900355871886 11:0.8 12:0.2 13:4.0 14:0.8 15:1.0 
1.0 1.0 0.0 0.0 1:0.2 2:1.0 8:0.21831738039301263 9:6.642857142857143 10:0.3807829181494662 11:0.35714285714285715 12:0.6428571428571429 13:0.5555555555555556 14:0.7142857142857143 15:0.0 
1.0 0.0 0.0 0.0 1:0.0 2:0.1111111111111111 8:1.0815726830147918E-4 9:3.5 10:0.06405693950177936 11:0.0 12:0.25 13:0.0 14:0.25 15:2.0 
1.0 1.0 0.0 0.0 1:0.72 2:0.6666666666666666 8:0.13873827558518317 9:6.8076923076923075 10:0.7224199288256228 11:0.6923076923076923 12:0.23076923076923078 13:3.0 14:0.6538461538461539 15:5.0 
1.0 1.0 0.0 0.0 1:0.5 2:1.0 8:3.3947017804557865E-7 9:11.0 10:1.0909090909090908 11:0.5 12:0.5 13:1.0 14:1.0 15:0.0 
1.0 1.0 0.0 0.0 1:1.6 2:3.5 8:0.1715698894988599 9:5.551724137931035 10:1.7592592592592593 11:0.5517241379310345 12:0.2413793103448276 13:2.2857142857142856 14:0.7586206896551724 15:1.0 
1.0 0.0 0.0 0.0 1:0.4090909090909091 2:0.3333333333333333 8:0.0 9:17.357142857142858 10:1.0532786885245902 11:0.6428571428571429 12:0.14285714285714285 13:4.5 14:2.0 15:0.0 
1.0 0.09300449896795643 0.0 0.0 1:0.047619047619047616 2:0.125 8:1.7022105357785914E-6 9:4.0 10:0.07389162561576355 11:0.3333333333333333 12:0.3333333333333333 13:1.0 14:10.0 15:0.0 
1.0 0.0 0.0 0.9781298564928889 1:0.09090909090909091 2:0.0 8:1.8264395103670636E-6 9:9.0 10:0.10204081632653061 11:1.0 12:0.0 13:0.0 14:13.0 15:0.0 
1.0 1.0 0.0 0.0 1:0.5555555555555556 2:1.5 8:0.23749434593697177 9:5.0 10:0.6857142857142857 11:0.4166666666666667 12:0.25 13:1.6666666666666667 14:0.5833333333333334 15:0.0 
1.0 1.0 0.0 0.0 1:1.0 2:1.0 8:2.6323764002063023E-4 9:6.571428571428571 10:1.394736842105263 11:0.5714285714285714 12:0.2857142857142857 13:2.0 14:1.4285714285714286 15:0.0 
1.0 1.0 0.0 0.0 1:2.25 2:3.0 8:8.73722055618675E-6 9:6.375 10:3.1052631578947367 11:0.5625 12:0.375 13:1.5 14:0.6875 15:0.0 
1.0 0.45138537196013284 0.04306674730860811 0.0 1:10.5 2:18.5 8:0.018249649898967674 9:5.637362637362638 10:15.894736842105264 11:0.46153846153846156 12:0.4065934065934066 13:1.135135135135135 14:0.7472527472527473 15:0.0 
1.0 1.0 0.0 0.0 1:2.0 2:5.0 8:7.46370247647897E-6 9:5.590909090909091 10:3.8157894736842106 11:0.36363636363636365 12:0.45454545454545453 13:0.8 14:0.7272727272727273 15:0.0 
1.0 0.0 0.0 0.0 1:0.75 2:0.0 8:0.0 9:12.0 10:0.6842105263157895 11:1.5 12:0.0 13:0.0 14:1.5 15:0.0 
1.0 0.0 0.0 0.0 1:0.75 2:1.5 8:2.5291054452511593E-4 9:5.5 10:1.0263157894736843 11:0.5 12:0.5 13:1.0 14:1.0 15:0.0 
1.0 0.0 0.0 0.0 1:0.25 2:0.0 8:1.0108500411097686E-6 9:5.333333333333333 10:0.5 11:0.3333333333333333 12:0.0 13:0.0 14:0.3333333333333333 15:0.0 
1.0 0.0 0.0 0.0 1:2.0 2:2.0 8:0.0015490980229692743 9:3.888888888888889 10:1.5714285714285714 11:0.8888888888888888 12:0.2222222222222222 13:4.0 14:1.3333333333333333 15:0.0 
1.0 0.0 0.0 0.0 1:0.625 2:4.0 8:2.078821797758875E-7 9:4.875 10:0.6911764705882353 11:0.625 12:0.5 13:1.25 14:0.875 15:1.0 
1.0 1.0 0.0 0.0 1:0.875 2:1.0 8:0.3779644730092272 9:5.888888888888889 10:0.9117647058823529 11:0.7777777777777778 12:0.1111111111111111 13:7.0 14:0.4444444444444444 15:0.0 
1.0 0.0 0.0 0.0 1:0.25 2:2.0 8:3.393063184189735E-8 9:4.571428571428571 10:0.5735294117647058 11:0.2857142857142857 12:0.2857142857142857 13:1.0 14:0.42857142857142855 15:2.0 
1.0 0.0 0.0 0.0 1:1.25 2:0.6666666666666666 8:9.226950759317354E-6 9:11.125 10:1.7321428571428572 11:0.625 12:0.25 13:2.5 14:1.125 15:0.0 
1.0 0.9468914954767823 0.0 0.0 1:1.6666666666666667 2:0.25 8:2.2116385165723684E-4 9:4.5 10:0.5714285714285714 11:0.625 12:0.125 13:5.0 14:1.25 15:0.0 
1.0 1.0 0.0 0.0 1:0.5384615384615384 2:0.42857142857142855 8:0.21392360282804124 9:4.909090909090909 10:0.3939393939393939 11:0.6363636363636364 12:0.2727272727272727 13:2.3333333333333335 14:0.8181818181818182 15:1.0 
1.0 0.0 0.0 0.0 1:0.23076923076923078 2:0.0 8:2.125406328076311E-4 9:5.0 10:0.14545454545454545 11:0.75 12:0.0 13:0.0 14:0.75 15:0.0 
1.0 1.0 0.0 0.0 1:1.8571428571428572 2:1.6666666666666667 8:0.18055741496138136 9:6.142857142857143 10:1.8072289156626506 11:0.6190476190476191 12:0.23809523809523808 13:2.6 14:1.1428571428571428 15:4.0 
1.0 1.0 0.0 0.0 1:2.2857142857142856 2:1.3333333333333333 8:0.31622776601683794 9:5.318181818181818 10:1.6746987951807228 11:0.7272727272727273 12:0.18181818181818182 13:4.0 14:0.8181818181818182 15:4.0 
1.0 1.0 0.0 0.0 1:3.142857142857143 2:2.3333333333333335 8:0.00469351518759456 9:7.233333333333333 10:2.9759036144578315 11:0.7333333333333333 12:0.23333333333333334 13:3.142857142857143 14:0.7333333333333333 15:2.0 
1.0 0.0 0.0 0.0 1:1.0 2:0.0 8:2.673111628509262E-4 9:3.25 10:0.9444444444444444 11:0.75 12:0.0 13:0.0 14:0.75 15:0.0 
1.0 0.0 0.0 0.0 1:0.6666666666666666 2:0.0 8:2.070054350950328E-5 9:5.666666666666667 10:1.1111111111111112 11:0.6666666666666666 12:0.3333333333333333 13:2.0 14:0.6666666666666666 15:0.0 
1.0 1.0 0.0 0.0 1:2.0 2:0.0 8:0.041202748553250575 9:4.909090909090909 10:3.611111111111111 11:0.5454545454545454 12:0.2727272727272727 13:2.0 14:0.8181818181818182 15:0.0 
1.0 0.23353527467415855 0.0 0.0 1:2.3333333333333335 2:5.0 8:3.0346456468891404E-4 9:6.285714285714286 10:3.3260869565217392 11:0.6666666666666666 12:0.23809523809523808 13:2.8 14:0.7619047619047619 15:0.0 
1.0 1.0 0.0 0.0 1:0.4 2:1.5 8:3.836227506558729E-5 9:5.222222222222222 10:0.4148148148148148 11:0.4444444444444444 12:0.3333333333333333 13:1.3333333333333333 14:0.6666666666666666 15:0.0 
1.0 0.03283708571509707 0.0 0.0 1:2.0 2:0.0 8:3.431139805753893E-6 9:2.5 10:0.21875 11:1.0 12:0.0 13:0.0 14:1.0 15:0.0 
1.0 1.0 0.39948172578657887 0.0 1:5.0 2:2.5 8:1.0883844782457165E-4 9:4.133333333333334 10:2.40625 11:0.3333333333333333 12:0.3333333333333333 13:1.0 14:0.4666666666666667 15:0.0 
1.0 1.0 0.0 0.0 1:2.2 2:0.0 8:0.0010760764156952213 9:4.8125 10:2.90625 11:0.6875 12:0.25 13:2.75 14:1.25 15:0.0 
1.0 1.0 0.0 0.0 1:0.4 2:0.0 8:3.839257389403382E-6 9:3.4 10:0.6875 11:0.4 12:0.0 13:0.0 14:0.4 15:0.0 
1.0 1.0 0.0 0.0 1:0.3125 2:1.0 8:0.22374693545767507 9:4.545454545454546 10:0.32620320855614976 11:0.45454545454545453 12:0.7272727272727273 13:0.625 14:0.6363636363636364 15:1.0 
1.0 1.0 0.0 0.0 1:0.1111111111111111 2:0.6666666666666666 8:2.277329128564543E-4 9:5.25 10:0.26881720430107525 11:0.25 12:0.5 13:0.5 14:0.75 15:1.0 
1.0 1.0 0.0 0.0 1:0.8333333333333334 2:2.0 8:3.062340804061699E-5 9:5.8 10:0.8869565217391304 11:0.6666666666666666 12:0.26666666666666666 13:2.5 14:0.8 15:1.0 
1.0 0.0 0.0 0.0 1:2.0 2:3.5 8:2.8556475247820006E-5 9:7.3 10:2.1652173913043478 11:0.8 12:0.23333333333333334 13:3.4285714285714284 14:0.8 15:1.0 
1.0 1.0 0.0 0.0 1:0.3888888888888889 2:0.6666666666666666 8:4.999216547232415E-4 9:4.909090909090909 10:0.3532608695652174 11:0.6363636363636364 12:0.36363636363636365 13:1.75 14:2.6363636363636362 15:2.0 
1.0 0.5846234842360014 0.0 0.0 1:0.25 2:0.0 8:0.0 9:5.75 10:0.1836734693877551 11:1.0 12:0.0 13:0.0 14:1.0 15:0.0 
1.0 0.5611234978155499 0.0 0.0 1:0.5 2:0.0 8:1.0151732911216986E-5 9:3.1666666666666665 10:0.20491803278688525 11:1.0 12:0.0 13:0.0 14:0.6666666666666666 15:0.0 
1.0 1.0 0.04454586236111652 0.0 1:0.0 2:0.0 8:0.0 9:63.0 10:0.2689075630252101 11:0.0 12:0.0 13:0.0 14:0.0 15:0.0 
1.0 0.0 0.0 0.0 1:0.36363636363636365 2:0.0 8:6.455762415772003E-5 9:5.75 10:0.18 11:1.0 12:0.0 13:0.0 14:0.75 15:0.0 
1.0 0.0 0.0 0.0 1:0.047619047619047616 2:0.3333333333333333 8:1.3820622385785037E-4 9:4.4 10:0.13636363636363635 11:0.2 12:0.4 13:0.5 14:0.4 15:0.0 
1.0 1.0 0.0 0.0 1:0.6428571428571429 2:0.0 8:0.0015457892087687843 9:6.0 10:0.3167420814479638 11:0.9 12:0.0 13:0.0 14:3.0 15:1.0 
1.0 0.0 0.0 0.0 1:0.14285714285714285 2:0.0 8:0.0 9:6.0 10:0.10218978102189781 11:1.0 12:0.0 13:0.0 14:0.5 15:0.0 
1.0 1.0 0.0 0.0 1:0.8333333333333334 2:0.8333333333333334 8:0.0012819299949530022 9:6.0 10:0.6666666666666666 11:0.625 12:0.625 13:1.0 14:1.0 15:1.0 
1.0 0.0 0.0 0.0 1:0.0 2:1.0 8:0.0 9:3.3333333333333335 10:0.34210526315789475 11:0.0 12:1.0 13:0.0 14:2.0 15:0.0 
1.0 1.0 0.0 0.0 1:0.3333333333333333 2:0.25 8:2.1630560520753663E-7 9:4.0 10:0.2597402597402597 11:0.5 12:0.25 13:2.0 14:2.25 15:0.0 
1.0 1.0 0.0 0.0 1:0.6666666666666666 2:0.5 8:1.368859386514037E-5 9:5.111111111111111 10:0.7142857142857143 11:0.4444444444444444 12:0.2222222222222222 13:2.0 14:0.4444444444444444 15:0.0 
1.0 0.0 0.0 0.0 1:0.5 2:0.0 8:0.0 9:8.0 10:0.35064935064935066 11:1.0 12:0.0 13:0.0 14:0.6666666666666666 15:0.0 
1.0 0.0 0.0 0.0 1:0.3333333333333333 2:0.0 8:0.0 9:4.5 10:0.14285714285714285 11:1.0 12:0.0 13:0.0 14:1.0 15:0.0 
1.0 1.0 0.0 0.0 1:2.0 2:0.75 8:0.23570422870846044 9:7.846153846153846 10:1.4935064935064934 11:0.9230769230769231 12:0.23076923076923078 13:4.0 14:0.8461538461538461 15:0.0 
1.0 1.0 0.0 0.0 1:0.6666666666666666 2:0.5 8:0.34815638148088235 9:3.625 10:0.4805194805194805 11:0.5 12:0.25 13:2.0 14:0.375 15:0.0 
1.0 1.0 0.0 0.0 1:0.3333333333333333 2:0.0 8:2.26032940697528E-6 9:9.5 10:0.2727272727272727 11:1.0 12:0.0 13:0.0 14:1.0 15:0.0 
1.0 0.0 0.0 0.0 1:0.6666666666666666 2:0.0 8:0.0016172332275093413 9:9.75 10:0.5584415584415584 11:1.0 12:0.0 13:0.0 14:1.0 15:0.0 
1.0 1.0 0.0 0.0 1:0.3157894736842105 2:0.7142857142857143 8:9.67929754740275E-6 9:6.846153846153846 10:0.5368421052631579 11:0.46153846153846156 12:0.38461538461538464 13:1.2 14:0.6153846153846154 15:1.0 
1.0 0.0 0.0 0.0 1:0.15789473684210525 2:0.5714285714285714 8:2.8836238484926787E-4 9:4.125 10:0.21578947368421053 11:0.375 12:0.5 13:0.75 14:0.625 15:0.0 
1.0 1.0 0.0 0.0 1:0.3684210526315789 2:0.2857142857142857 8:2.2797048546475396E-4 9:5.545454545454546 10:0.37894736842105264 11:0.6363636363636364 12:0.18181818181818182 13:3.5 14:0.7272727272727273 15:1.0 
1.0 1.0 0.0 0.0 1:0.21052631578947367 2:0.14285714285714285 8:2.749427471386113E-4 9:4.2 10:0.1368421052631579 11:0.8 12:0.2 13:4.0 14:1.0 15:2.0 
1.0 1.0 0.0 0.0 1:0.6666666666666666 2:0.5 8:0.0 9:12.571428571428571 10:1.3013698630136987 11:0.5714285714285714 12:0.14285714285714285 13:4.0 14:0.5714285714285714 15:0.0 
1.0 1.0 0.0 0.0 1:0.2222222222222222 2:0.25 8:0.001082308435144057 9:5.2 10:0.26495726495726496 11:0.4 12:0.2 13:2.0 14:2.4 15:0.0 
1.0 0.2291638383092168 0.0 0.0 1:0.5 2:0.0 8:2.765834928210473E-4 9:6.0 10:0.23728813559322035 11:1.0 12:0.0 13:0.0 14:3.5 15:0.0 
1.0 0.833304223497758 0.0 0.0 1:0.5 2:0.0 8:0.0 9:6.0 10:0.23728813559322035 11:1.0 12:0.0 13:0.0 14:1.0 15:0.0 
1.0 0.0 0.0 0.0 1:0.5 2:0.0 8:0.0 9:13.0 10:0.23728813559322035 11:2.0 12:0.0 13:0.0 14:2.0 15:0.0 
1.0 1.0 0.0 0.0 1:1.5 2:0.0 8:0.0011994676298064217 9:7.571428571428571 10:1.0169491525423728 11:0.8571428571428571 12:0.0 13:0.0 14:0.5714285714285714 15:0.0 
1.0 0.0 0.0 0.0 1:0.5 2:0.6666666666666666 8:2.432658099880308E-4 9:3.4 10:0.3728813559322034 11:0.4 12:0.4 13:1.0 14:0.8 15:0.0 
1.0 0.0 0.0 0.0 1:0.25 2:1.0 8:1.4892463853807668E-5 9:5.333333333333333 10:0.3220338983050847 11:0.3333333333333333 12:1.0 13:0.3333333333333333 14:0.6666666666666666 15:0.0 
1.0 1.0 0.0 0.0 1:0.5 2:0.3333333333333333 8:7.489716529612307E-4 9:3.6 10:0.3898305084745763 11:0.4 12:0.2 13:2.0 14:0.6 15:0.0 
1.0 0.0 0.0 0.0 1:0.75 2:1.0 8:1.7477773596864498E-4 9:5.714285714285714 10:0.7966101694915254 11:0.42857142857142855 12:0.42857142857142855 13:1.0 14:0.5714285714285714 15:0.0 
1.0 0.44510570473522015 0.04508496241901233 0.0 1:0.0 2:1.0 8:4.12166294702407E-6 9:110.0 10:1.1443298969072164 11:0.0 12:0.5 13:0.0 14:8.5 15:0.0 
1.0 1.0 0.0 0.0 1:0.3333333333333333 2:0.8 8:0.17899700071238456 9:10.9 10:0.8561151079136691 11:0.4 12:0.4 13:1.0 14:0.4 15:1.0 
1.0 1.0 0.0 0.0 1:1.7333333333333334 2:0.75 8:0.0015479503043537997 9:8.125 10:1.4455445544554455 11:0.8125 12:0.1875 13:4.333333333333333 14:0.71875 15:3.0 
1.0 0.0 0.0 0.0 1:0.06666666666666667 2:0.125 8:0.00579171928167725 9:10.0 10:0.10891089108910891 11:0.5 12:0.5 13:1.0 14:1.0 15:0.0 
1.0 1.0 0.0 0.0 1:3.8666666666666667 2:2.5 8:0.0025540060581515757 9:5.395833333333333 10:3.0396039603960396 11:0.6041666666666666 12:0.20833333333333334 13:2.9 14:0.6145833333333334 15:6.0 
1.0 1.0 0.0 0.0 1:0.4666666666666667 2:0.5 8:0.040602655903204485 9:6.083333333333333 10:0.4207920792079208 11:0.5833333333333334 12:0.3333333333333333 13:1.75 14:0.9166666666666666 15:0.0 
1.0 0.0 0.0 0.0 1:0.26666666666666666 2:0.125 8:4.821365723474383E-6 9:4.4 10:0.13366336633663367 11:0.8 12:0.2 13:4.0 14:1.0 15:0.0 
1.0 1.0 0.0 0.0 1:0.8 2:0.75 8:0.0016860864337815903 9:6.0 10:0.6584158415841584 11:0.631578947368421 12:0.3157894736842105 13:2.0 14:0.8421052631578947 15:2.0 
1.0 0.0 0.0 0.0 1:0.6666666666666666 2:1.5 8:1.0746631900642312E-4 9:6.3478260869565215 10:0.8366336633663366 11:0.43478260869565216 12:0.5217391304347826 13:0.8333333333333334 14:0.7391304347826086 15:0.0 
1.0 0.3814351530483045 0.0 0.0 1:0.13333333333333333 2:0.125 8:1.1301647034890834E-6 9:5.0 10:0.0594059405940594 11:1.0 12:0.5 13:2.0 14:1.0 15:0.0 
1.0 1.0 0.0 0.0 1:3.2666666666666666 2:2.0 8:0.0011725370165878702 9:6.746835443037975 10:3.0297029702970297 11:0.620253164556962 12:0.20253164556962025 13:3.0625 14:0.5949367088607594 15:4.0 
1.0 1.0 0.0 0.0 1:0.3333333333333333 2:0.375 8:0.002895932497651458 9:7.333333333333333 10:0.3712871287128713 11:0.5555555555555556 12:0.3333333333333333 13:1.6666666666666667 14:0.4444444444444444 15:1.0 
1.0 0.0 0.0 0.0 1:0.4666666666666667 2:0.75 8:8.170955479120255E-4 9:5.421052631578948 10:0.6039603960396039 11:0.3684210526315789 12:0.3157894736842105 13:1.1666666666666667 14:0.5263157894736842 15:0.0 
1.0 1.0 0.0 0.0 1:0.7333333333333333 2:0.5 8:0.18490006540840973 9:8.88 10:1.2227722772277227 11:0.44 12:0.16 13:2.75 14:0.52 15:1.0 
1.0 1.0 0.19949698434654164 0.0 1:0.13333333333333333 2:0.0 8:4.1576435955171205E-7 9:8.5 10:0.09405940594059406 11:1.0 12:0.0 13:0.0 14:1.0 15:0.0 
1.0 1.0 0.0 0.0 1:0.13333333333333333 2:0.0 8:0.0 9:9.5 10:0.10396039603960396 11:1.0 12:0.0 13:0.0 14:1.0 15:2.0 
1.0 0.0 0.0 0.0 1:0.13333333333333333 2:0.25 8:5.054250205550132E-7 9:6.2 10:0.1782178217821782 11:0.4 12:0.4 13:1.0 14:0.6 15:0.0 
1.0 0.0 0.0 0.0 1:0.06666666666666667 2:0.125 8:1.605129909608748E-5 9:4.0 10:0.07425742574257425 11:0.3333333333333333 12:0.3333333333333333 13:1.0 14:0.6666666666666666 15:1.0 
1.0 0.43524540827204905 0.060120735861878126 0.0 1:0.1875 2:0.25 8:7.364841124907619E-6 9:3.0 10:0.21428571428571427 11:0.25 12:0.25 13:1.0 14:0.5 15:10.0 
1.0 0.0 0.0 0.0 1:1.0 2:0.3333333333333333 8:9.983309908037496E-4 9:4.75 10:0.5822784810126582 11:0.875 12:0.125 13:7.0 14:1.875 15:0.0 
1.0 0.0 0.08293305517729052 0.0 1:0.7142857142857143 2:1.0 8:2.9039785258519316E-4 9:7.153846153846154 10:0.7019867549668874 11:0.7692307692307693 12:0.23076923076923078 13:3.3333333333333335 14:0.6153846153846154 15:0.0 
1.0 0.0 0.0 0.0 1:0.25 2:0.05263157894736842 8:2.3222939841762184E-6 9:4.5 10:0.09361702127659574 11:0.75 12:0.25 13:3.0 14:0.75 15:0.0 
1.0 0.0 0.0 0.0 1:0.25 2:0.10526315789473684 8:3.0396064114306115E-4 9:4.6 10:0.11914893617021277 11:0.6 12:0.4 13:1.5 14:1.0 15:0.0 
1.0 0.0 0.0 0.0 1:0.08333333333333333 2:0.21052631578947367 8:8.543242131365415E-7 9:6.333333333333333 10:0.18723404255319148 11:0.16666666666666666 12:0.6666666666666666 13:0.25 14:0.5 15:0.0 
1.0 1.0 0.0 0.0 1:0.5833333333333334 2:0.3684210526315789 8:0.29488391230979427 9:5.8125 10:0.46382978723404256 11:0.4375 12:0.4375 13:1.0 14:0.5625 15:2.0 
1.0 0.0 0.0 0.0 1:0.3333333333333333 2:0.05263157894736842 8:1.310583083365482E-5 9:4.333333333333333 10:0.13617021276595745 11:0.6666666666666666 12:0.16666666666666666 13:4.0 14:0.8333333333333334 15:0.0 
1.0 0.0 0.0 0.0 1:1.375 2:0.6 8:7.814344082998009E-4 9:4.4375 10:0.7837837837837838 11:0.6875 12:0.1875 13:3.6666666666666665 14:0.75 15:0.0 
1.0 0.0 0.0 0.0 1:0.0 2:0.2 8:3.838050563015304E-7 9:3.0 10:0.10810810810810811 11:0.0 12:0.3333333333333333 13:0.0 14:0.3333333333333333 15:0.0 
1.0 1.0 0.0 0.0 1:3.0 2:9.0 8:0.15244987439893184 9:6.612903225806452 10:3.5757575757575757 11:0.6774193548387096 12:0.2903225806451613 13:2.3333333333333335 14:0.7741935483870968 15:2.0 
1.0 1.0 0.0 0.0 1:0.14285714285714285 2:1.0 8:8.288855212500143E-6 9:5.833333333333333 10:0.5 11:0.16666666666666666 12:0.3333333333333333 13:0.5 14:1.5 15:0.0 
1.0 1.0 0.0 0.0 1:1.2857142857142858 2:2.0 8:0.1557707775695169 9:5.214285714285714 10:1.2083333333333333 11:0.6428571428571429 12:0.2857142857142857 13:2.25 14:1.2142857142857142 15:4.0 
1.0 1.0 0.0 0.0 1:0.3333333333333333 2:0.18181818181818182 8:0.29853020225073107 9:5.0 10:0.16042780748663102 11:0.6 12:0.4 13:1.5 14:0.6 15:3.0 
1.0 1.0 0.0 0.0 1:0.5625 2:0.5 8:0.674199862463242 9:6.416666666666667 10:0.664179104477612 11:0.75 12:0.16666666666666666 13:4.5 14:2.1666666666666665 15:3.0 
1.0 1.0 0.0 0.0 1:3.0 2:0.0 8:0.38490891663623167 9:10.25 10:2.142857142857143 11:1.5 12:0.0 13:0.0 14:2.0 15:1.0 
1.0 1.0 0.0 0.0 1:2.0 2:1.0 8:2.0303465820341547E-5 9:5.0 10:1.7142857142857142 11:0.6666666666666666 12:0.16666666666666666 13:4.0 14:0.8333333333333334 15:0.0 
1.0 0.0 0.0 0.0 1:2.5 2:2.0 8:5.644173960992599E-4 9:8.5 10:2.7142857142857144 11:0.8333333333333334 12:0.3333333333333333 13:2.5 14:1.0 15:0.0 
1.0 0.0 0.0 0.0 1:0.5 2:1.0 8:8.924218499677381E-4 9:5.5 10:0.6190476190476191 11:0.5 12:0.5 13:1.0 14:1.0 15:0.0 
1.0 0.0 0.0 0.0 1:0.0 2:0.0 8:3.2102598183903905E-5 9:5.333333333333333 10:0.5588235294117647 11:0.0 12:1.0 13:0.0 14:1.6666666666666667 15:0.0 
1.0 0.0 0.0 0.0 1:0.23076923076923078 2:0.5 8:3.8076521905454007E-6 9:6.0 10:0.4046242774566474 11:0.3 12:0.4 13:0.75 14:0.5 15:0.0 
1.0 0.0 0.0 0.0 1:0.07692307692307693 2:0.0 8:2.1042807891165377E-5 9:3.0 10:0.023121387283236993 11:1.0 12:0.0 13:0.0 14:1.0 15:0.0 
1.0 0.0 0.0 0.0 1:0.3076923076923077 2:0.5 8:2.736933309663369E-6 9:6.0 10:0.44508670520231214 11:0.36363636363636365 12:0.36363636363636365 13:1.0 14:0.5454545454545454 15:0.0 
1.0 0.0 0.0 0.0 1:0.15384615384615385 2:0.625 8:5.788361628161268E-8 9:5.7 10:0.3872832369942196 11:0.2 12:0.5 13:0.4 14:0.5 15:0.0 
1.0 0.0 0.0 0.0 1:0.23076923076923078 2:0.5 8:1.235629580706103E-5 9:7.2 10:0.47398843930635837 11:0.3 12:0.4 13:0.75 14:0.4 15:0.0 
1.0 1.0 0.12477092603401524 0.0 1:0.7692307692307693 2:0.25 8:7.217623564862677E-6 9:6.25 10:0.5028901734104047 11:0.8333333333333334 12:0.16666666666666666 13:5.0 14:0.6666666666666666 15:5.0 
1.0 0.0 0.0 0.0 1:0.5263157894736842 2:0.07692307692307693 8:7.65005390988115E-4 9:7.357142857142857 10:0.4448669201520912 11:0.7142857142857143 12:0.07142857142857142 13:10.0 14:2.642857142857143 15:0.0 
1.0 1.0 0.009094816582343698 0.0 1:1.3157894736842106 2:1.2307692307692308 8:0.18505174279351969 9:5.471698113207547 10:1.3041825095057034 11:0.4716981132075472 12:0.3018867924528302 13:1.5625 14:0.6981132075471698 15:20.0 
1.0 0.0 0.0 0.0 1:1.2105263157894737 2:0.23076923076923078 8:0.004150105780176185 9:8.068965517241379 10:1.0 11:0.7931034482758621 12:0.10344827586206896 13:7.666666666666667 14:0.7586206896551724 15:0.0 
1.0 0.0 0.0 0.0 1:1.0526315789473684 2:0.15384615384615385 8:6.540063129510763E-4 9:8.583333333333334 10:0.8745247148288974 11:0.8333333333333334 12:0.08333333333333333 13:10.0 14:0.7916666666666666 15:0.0 
1.0 0.36667764495537364 0.0 0.0 1:1.2105263157894737 2:0.23076923076923078 8:0.004150105780176185 9:8.068965517241379 10:1.0 11:0.7931034482758621 12:0.10344827586206896 13:7.666666666666667 14:0.7586206896551724 15:0.0 
1.0 0.0 0.0 0.0 1:0.21052631578947367 2:0.15384615384615385 8:2.435121860493741E-5 9:4.285714285714286 10:0.14068441064638784 11:0.5714285714285714 12:0.2857142857142857 13:2.0 14:0.7142857142857143 15:0.0 
1.0 1.0 0.0 0.0 1:1.2105263157894737 2:0.23076923076923078 8:0.004150105780176185 9:8.068965517241379 10:1.0 11:0.7931034482758621 12:0.10344827586206896 13:7.666666666666667 14:0.7586206896551724 15:0.0 
1.0 0.0 0.0 0.0 1:1.0526315789473684 2:0.15384615384615385 8:6.540063129510763E-4 9:8.583333333333334 10:0.8745247148288974 11:0.8333333333333334 12:0.08333333333333333 13:10.0 14:0.7916666666666666 15:0.0 
1.0 1.0 0.0 0.0 1:1.2105263157894737 2:0.23076923076923078 8:0.004150105780176185 9:8.068965517241379 10:1.0 11:0.7931034482758621 12:0.10344827586206896 13:7.666666666666667 14:0.7586206896551724 15:0.0 
1.0 0.0 0.0 0.0 1:1.0526315789473684 2:0.15384615384615385 8:6.540063129510763E-4 9:8.583333333333334 10:0.8745247148288974 11:0.8333333333333334 12:0.08333333333333333 13:10.0 14:0.7916666666666666 15:0.0 
1.0 1.0 0.0 0.0 1:1.2105263157894737 2:0.23076923076923078 8:0.004150105780176185 9:8.068965517241379 10:1.0 11:0.7931034482758621 12:0.10344827586206896 13:7.666666666666667 14:0.7586206896551724 15:0.0 
1.0 0.0 0.0 0.0 1:1.0526315789473684 2:0.15384615384615385 8:6.540063129510763E-4 9:8.583333333333334 10:0.8745247148288974 11:0.8333333333333334 12:0.08333333333333333 13:10.0 14:0.7916666666666666 15:0.0 
1.0 1.0 0.0 0.0 1:1.2105263157894737 2:0.23076923076923078 8:0.004150105780176185 9:8.068965517241379 10:1.0 11:0.7931034482758621 12:0.10344827586206896 13:7.666666666666667 14:0.7586206896551724 15:0.0 
1.0 0.0 0.0 0.0 1:1.0526315789473684 2:0.15384615384615385 8:6.540063129510763E-4 9:8.583333333333334 10:0.8745247148288974 11:0.8333333333333334 12:0.08333333333333333 13:10.0 14:0.7916666666666666 15:0.0 
1.0 1.0 0.0 0.15292748933170938 1:1.2105263157894737 2:0.23076923076923078 8:0.004150105780176185 9:8.068965517241379 10:1.0 11:0.7931034482758621 12:0.10344827586206896 13:7.666666666666667 14:0.7586206896551724 15:0.0 
1.0 0.0 0.0 0.0 1:1.0526315789473684 2:0.15384615384615385 8:6.540063129510763E-4 9:8.583333333333334 10:0.8745247148288974 11:0.8333333333333334 12:0.08333333333333333 13:10.0 14:0.7916666666666666 15:0.0 
1.0 1.0 0.0 0.0 1:0.5555555555555556 2:0.125 8:2.371465843430543E-4 9:9.666666666666666 10:0.6153846153846154 11:0.8333333333333334 12:0.08333333333333333 13:10.0 14:0.75 15:2.0 
1.0 0.3709582530279135 0.0 0.0 1:0.3333333333333333 2:0.75 8:2.4813150992202853E-5 9:4.6875 10:0.4375 11:0.375 12:0.375 13:1.0 14:0.625 15:13.0 
1.0 1.0 0.0 0.0 1:2.6 2:1.0 8:7.768952207866386E-4 9:4.541666666666667 10:2.293103448275862 11:0.5416666666666666 12:0.125 13:4.333333333333333 14:0.4583333333333333 15:0.0 
1.0 0.0 0.0 0.0 1:0.4 2:0.0 8:4.044670747635441E-5 9:4.5 10:0.3793103448275862 11:0.5 12:0.0 13:0.0 14:0.25 15:0.0 
1.0 1.0 0.0 0.0 1:0.2 2:0.7142857142857143 8:1.4519289795530594E-4 9:5.444444444444445 10:0.2577777777777778 11:0.3333333333333333 12:0.5555555555555556 13:0.6 14:2.7777777777777777 15:0.0 
1.0 1.0 0.0 0.0 1:0.3333333333333333 2:0.2857142857142857 8:0.27747665982697656 9:4.25 10:0.18666666666666668 11:0.625 12:0.25 13:2.5 14:0.625 15:1.0 
1.0 0.9978416672969185 0.0 0.0 1:0.26666666666666666 2:0.0 8:3.964474015458512E-6 9:3.8333333333333335 10:0.1288888888888889 11:0.6666666666666666 12:0.0 13:0.0 14:0.6666666666666666 15:0.0 
1.0 1.0 0.0 0.0 1:0.5333333333333333 2:1.0 8:5.073747541072993E-5 9:5.0588235294117645 10:0.4577777777777778 11:0.47058823529411764 12:0.4117647058823529 13:1.1428571428571428 14:0.7647058823529411 15:2.0 
1.0 1.0 0.0 0.0 1:0.26666666666666666 2:0.2857142857142857 8:2.8841822820874766E-4 9:6.5 10:0.2 11:0.6666666666666666 12:0.3333333333333333 13:2.0 14:0.8333333333333334 15:1.0 
1.0 0.0 0.0 0.0 1:0.4 2:0.8571428571428571 8:1.1375750910617175E-4 9:4.705882352941177 10:0.4311111111111111 11:0.35294117647058826 12:0.35294117647058826 13:1.0 14:0.5882352941176471 15:2.0 
1.0 0.0 0.0 0.0 1:0.26666666666666666 2:0.0 8:0.0 9:3.0 10:0.08888888888888889 11:0.8 12:0.0 13:0.0 14:0.8 15:0.0 
1.0 0.15843427840758734 0.0 0.0 1:0.4 2:0.5714285714285714 8:3.506780849204423E-4 9:5.090909090909091 10:0.29777777777777775 11:0.5454545454545454 12:0.36363636363636365 13:1.5 14:0.7272727272727273 15:0.0 
1.0 1.0 0.0 0.0 1:0.26666666666666666 2:0.2857142857142857 8:1.7557228631677813E-4 9:4.875 10:0.2088888888888889 11:0.5 12:0.25 13:2.0 14:0.5 15:0.0 
1.0 1.0 0.0 0.0 1:0.3333333333333333 2:0.14285714285714285 8:5.430689908767756E-4 9:2.5454545454545454 10:0.17333333333333334 11:0.45454545454545453 12:0.09090909090909091 13:5.0 14:0.5454545454545454 15:1.0 
1.0 1.0 0.0 0.0 1:1.75 2:0.3333333333333333 8:6.807497928234691E-4 9:4.545454545454546 10:1.150943396226415 11:0.6363636363636364 12:0.09090909090909091 13:7.0 14:0.7272727272727273 15:0.0 
1.0 1.0 0.0 0.0 1:2.227272727272727 2:2.625 8:0.08640107264153077 9:5.444444444444445 10:2.5 11:0.5444444444444444 12:0.23333333333333334 13:2.3333333333333335 14:0.6444444444444445 15:1.0 
0.6396886184538462 0.0 0.0 0.0 1:1.6666666666666667 2:1.0 8:3.734613830633037E-6 9:15.6 10:3.772727272727273 11:1.0 12:0.2 13:5.0 14:1.2 15:0.0 
0.9816877668281415 0.0 0.01824174223603184 0.0 1:5.666666666666667 2:18.0 8:2.685850561894089E-5 9:5.0 10:11.727272727272727 11:0.3953488372093023 12:0.4186046511627907 13:0.9444444444444444 14:0.5813953488372093 15:0.0 
1.0 0.0 0.0 0.0 1:1.0 2:5.0 8:2.0568300672411736E-5 9:4.181818181818182 10:2.590909090909091 11:0.2727272727272727 12:0.45454545454545453 13:0.6 14:0.6363636363636364 15:0.0 
1.0 1.0 0.0 0.0 1:2.0 2:9.0 8:0.20100756305184242 9:4.888888888888889 10:4.818181818181818 11:0.3333333333333333 12:0.5 13:0.6666666666666666 14:0.6111111111111112 15:0.0 
1.0 0.0 0.0 0.0 1:2.3333333333333335 2:2.0 8:2.0568300672411736E-5 9:3.909090909090909 10:2.4545454545454546 11:0.6363636363636364 12:0.18181818181818182 13:3.5 14:0.8181818181818182 15:0.0 
1.0 0.0 0.0 0.0 1:0.6666666666666666 2:4.0 8:2.332226077021128E-5 9:5.222222222222222 10:2.5454545454545454 11:0.2222222222222222 12:0.4444444444444444 13:0.5 14:0.3333333333333333 15:0.0 
1.0 0.0 0.0 0.0 1:0.3333333333333333 2:2.0 8:0.0034612889314136717 9:6.8 10:1.7727272727272727 11:0.2 12:0.4 13:0.5 14:0.6 15:0.0 
1.0 1.0 0.0 0.0 1:2.6666666666666665 2:6.0 8:0.0020738288088301146 9:4.388888888888889 10:4.409090909090909 11:0.4444444444444444 12:0.3333333333333333 13:1.3333333333333333 14:0.6111111111111112 15:0.0 
1.0 1.0 0.0 0.0 1:1.0 2:1.0 8:2.759527108176091E-5 9:5.6 10:1.5 11:0.6 12:0.2 13:3.0 14:0.6 15:0.0 
1.0 0.0 0.0 0.0 1:2.6666666666666665 2:2.0 8:0.0011555468341168979 9:5.5 10:2.3636363636363638 11:1.0 12:0.25 13:4.0 14:0.875 15:0.0 
1.0 0.9369363892672306 0.0 0.0 1:2.6666666666666665 2:2.0 8:3.098439923372449E-4 9:5.0 10:3.5454545454545454 11:0.6153846153846154 12:0.15384615384615385 13:4.0 14:0.6153846153846154 15:0.0 
1.0 0.6859515628824234 0.021872646793646602 0.0 1:5.333333333333333 2:18.0 8:2.0105334223782532E-4 9:4.642857142857143 10:10.772727272727273 11:0.38095238095238093 12:0.42857142857142855 13:0.8888888888888888 14:0.6190476190476191 15:0.0 
1.0 1.0 0.041791992025674816 0.0 1:7.333333333333333 2:10.0 8:0.0012462194420515093 9:4.38 10:12.227272727272727 11:0.44 12:0.2 13:2.2 14:0.56 15:0.0 
1.0 0.4851244096965261 0.0 0.0 1:1.0 2:2.0 8:3.56081457279229E-6 9:4.222222222222222 10:2.1363636363636362 11:0.3333333333333333 12:0.2222222222222222 13:1.5 14:0.3333333333333333 15:0.0 
1.0 0.0 0.0 0.0 1:1.0 2:1.0 8:2.908796975358652E-5 9:4.5 10:1.0 11:0.75 12:0.25 13:3.0 14:1.0 15:0.0 
1.0 0.0 0.0 0.0 1:1.6666666666666667 2:2.0 8:2.0019713792386464E-5 9:4.5 10:2.5 11:0.5 12:0.2 13:2.5 14:0.6 15:0.0 
1.0 1.0 0.0 0.013782772155519728 1:2.0 2:1.0 8:5.542656663638829E-4 9:7.0 10:2.5454545454545454 11:0.8571428571428571 12:0.14285714285714285 13:6.0 14:0.8571428571428571 15:0.0 
1.0 0.0 0.0 0.0 1:1.6666666666666667 2:3.0 8:4.861231819745633E-4 9:5.222222222222222 10:2.5454545454545454 11:0.5555555555555556 12:0.3333333333333333 13:1.6666666666666667 14:0.8888888888888888 15:0.0 
1.0 1.0 0.0 0.0 1:4.0 2:2.0 8:4.068081900000938E-5 9:4.764705882352941 10:4.454545454545454 11:0.7058823529411765 12:0.11764705882352941 13:6.0 14:0.6470588235294118 15:1.0 
1.0 1.0 0.0 0.0 1:0.5 2:0.4166666666666667 8:0.1563673081982047 9:4.8 10:0.5021645021645021 11:0.4 12:0.25 13:1.6 14:0.65 15:6.0 
1.0 1.0 0.0 0.0 1:0.625 2:0.4166666666666667 8:2.3042249017454812E-4 9:4.35 10:0.46320346320346323 11:0.5 12:0.25 13:2.0 14:0.65 15:9.0 
1.0 1.0 0.0 0.0 1:0.2222222222222222 2:0.4 8:0.2331629391638962 9:6.166666666666667 10:0.18376068376068377 11:0.6666666666666666 12:0.3333333333333333 13:2.0 14:0.8333333333333334 15:3.0 
1.0 0.5567704874682328 0.0 0.0 1:1.5 2:0.6666666666666666 8:3.08251333761754E-4 9:22.3 10:5.4186046511627906 11:0.3 12:0.2 13:1.5 14:0.9 15:0.0 
1.0 0.0 0.0 0.0 1:1.4705882352941178 2:0.38461538461538464 8:6.010270689205402E-4 9:9.942857142857143 10:1.3927272727272728 11:0.7142857142857143 12:0.14285714285714285 13:5.0 14:0.7714285714285715 15:0.0 
1.0 0.11580467342152372 0.0 0.0 1:1.0 2:0.2222222222222222 8:0.0 9:10.8 10:0.7919463087248322 11:0.9 12:0.2 13:4.5 14:2.1 15:0.0 
1.0 0.05898267480116746 0.0 0.0 1:1.0 2:0.2222222222222222 8:0.0 9:10.8 10:0.7919463087248322 11:0.9 12:0.2 13:4.5 14:1.0 15:0.0 
1.0 0.0 0.0 0.0 1:3.857142857142857 2:4.5 8:0.003607408749228764 9:9.213333333333333 10:5.072847682119205 11:0.72 12:0.12 13:6.0 14:0.5733333333333334 15:1.0 
1.0 0.0 0.0 0.0 1:0.35714285714285715 2:0.0 8:1.8901754394136272E-4 9:6.333333333333333 10:0.2913907284768212 11:0.8333333333333334 12:0.0 13:0.0 14:0.6666666666666666 15:0.0 
1.0 0.0 0.0 0.0 1:0.21428571428571427 2:0.5 8:0.0038070603083745253 9:4.2 10:0.17218543046357615 11:0.6 12:0.2 13:3.0 14:0.6 15:0.0 
1.0 1.0 0.0 0.0 1:0.4444444444444444 2:0.6666666666666666 8:9.913344975009022E-4 9:5.375 10:0.49038461538461536 11:0.5 12:0.25 13:2.0 14:2.125 15:0.0 
1.0 1.0 0.0 0.0 1:0.8666666666666667 2:1.75 8:0.020685288877031423 9:4.869565217391305 10:0.8766233766233766 11:0.5652173913043478 12:0.30434782608695654 13:1.8571428571428572 14:0.6086956521739131 15:1.0 
1.0 1.0 0.0 0.0 1:1.0 2:0.75 8:1.5938472653645761E-4 9:6.7 10:1.0 11:0.75 12:0.15 13:5.0 14:0.65 15:1.0 
1.0 1.0 0.0 0.0 1:0.8666666666666667 2:1.0 8:0.0 9:7.526315789473684 10:1.1571428571428573 11:0.6842105263157895 12:0.2631578947368421 13:2.6 14:1.4736842105263157 15:0.0 
1.0 1.0 0.0 0.0 1:0.75 2:1.0 8:0.18265742572450616 9:4.3076923076923075 10:0.5847457627118644 11:0.6923076923076923 12:0.23076923076923078 13:3.0 14:1.6153846153846154 15:0.0 
1.0 0.0 0.0 0.0 1:0.5555555555555556 2:0.3333333333333333 8:0.003591945966989017 9:5.555555555555555 10:0.4097222222222222 11:0.5555555555555556 12:0.3333333333333333 13:1.6666666666666667 14:0.5555555555555556 15:0.0 
1.0 0.0 0.0 0.0 1:0.1111111111111111 2:0.0 8:9.673480743165821E-8 9:5.0 10:0.125 11:0.3333333333333333 12:0.0 13:0.0 14:0.3333333333333333 15:0.0 
1.0 1.0 0.0 0.0 1:0.23076923076923078 2:0.0 8:1.369520430713886E-4 9:13.833333333333334 10:0.3236363636363636 11:0.5 12:0.3333333333333333 13:1.5 14:3.0 15:0.0 
1.0 1.0 0.0 0.0 1:0.5384615384615384 2:0.0 8:1.2679295435027286E-4 9:4.25 10:0.2290909090909091 11:0.5833333333333334 12:0.25 13:2.3333333333333335 14:0.6666666666666666 15:0.0 
1.0 1.0 0.0 0.0 1:1.6666666666666667 2:1.6666666666666667 8:0.006223142525211579 9:5.5 10:1.4444444444444444 11:0.625 12:0.3125 13:2.0 14:1.25 15:0.0 
1.0 1.0 0.0 0.0 1:1.6666666666666667 2:1.6666666666666667 8:0.006223142525211579 9:5.5 10:1.4444444444444444 11:0.625 12:0.3125 13:2.0 14:0.75 15:0.0 
1.0 1.0 0.0 0.0 1:0.6 2:0.0 8:3.3134689257593226E-6 9:4.25 10:0.3684210526315789 11:0.75 12:0.0 13:0.0 14:2.0 15:0.0 
1.0 0.0 0.0 0.0 1:0.6666666666666666 2:0.5 8:9.356933198454514E-5 9:5.8 10:0.7083333333333334 11:0.8 12:0.2 13:4.0 14:1.0 15:0.0 
1.0 0.0 0.0 0.0 1:0.6666666666666666 2:0.5 8:0.0011698067677345287 9:3.727272727272727 10:1.0833333333333333 11:0.36363636363636365 12:0.09090909090909091 13:4.0 14:0.36363636363636365 15:0.0 
1.0 1.0 0.0 0.0 1:0.6666666666666666 2:1.5 8:0.07118642251711892 9:5.363636363636363 10:1.4583333333333333 11:0.36363636363636365 12:0.2727272727272727 13:1.3333333333333333 14:0.5454545454545454 15:0.0 
1.0 0.36899312559458963 0.0 0.0 1:0.6666666666666666 2:1.0 8:0.1375978752205418 9:16.333333333333332 10:7.583333333333333 11:0.19047619047619047 12:0.09523809523809523 13:2.0 14:0.23809523809523808 15:1.0 
1.0 1.0 0.0 0.0 1:2.3333333333333335 2:1.5 8:9.757759994358599E-4 9:5.111111111111111 10:2.2916666666666665 11:0.7777777777777778 12:0.16666666666666666 13:4.666666666666667 14:0.8888888888888888 15:1.0 
1.0 1.0 0.0 0.0 1:0.5 2:0.5 8:7.029746035579445E-4 9:5.4 10:0.6666666666666666 11:0.6 12:0.2 13:3.0 14:0.6 15:1.0 
1.0 0.7590416070443254 0.7007348134753193 0.0 1:0.18181818181818182 2:0.0 8:8.392312462202085E-5 9:2.0 10:0.049586776859504134 11:1.0 12:0.0 13:0.0 14:1.0 15:0.0 
1.0 0.0 0.0 0.0 1:0.5454545454545454 2:1.5 8:8.384099827612416E-5 9:16.125 10:1.1322314049586777 11:0.75 12:0.375 13:2.0 14:1.0 15:0.0 
1.0 1.0 0.0 0.0 1:0.2727272727272727 2:1.5 8:0.008123661340086085 9:5.555555555555555 10:0.48760330578512395 11:0.3333333333333333 12:0.3333333333333333 13:1.0 14:0.4444444444444444 15:0.0 
1.0 0.0 0.0 0.0 1:1.0 2:1.0 8:3.4441509949633004E-6 9:4.666666666666667 10:0.8292682926829268 11:0.5 12:0.3333333333333333 13:1.5 14:0.8333333333333334 15:0.0 
1.0 1.0 0.0 0.0 1:0.631578947368421 2:0.5 8:0.4688576074660039 9:6.625 10:0.5922330097087378 11:0.75 12:0.25 13:3.0 14:0.75 15:5.0 
1.0 0.0 0.0 0.0 1:1.5 2:0.3333333333333333 8:1.1607295527589609E-4 9:4.111111111111111 10:0.9019607843137255 11:0.6666666666666666 12:0.1111111111111111 13:6.0 14:1.4444444444444444 15:0.0 
1.0 0.0 0.0 0.0 1:0.5 2:1.6666666666666667 8:7.647873812201426E-5 9:4.5 10:0.8627450980392157 11:0.25 12:0.625 13:0.4 14:0.625 15:1.0 
1.0 1.0 0.0 0.0 1:2.25 2:1.3333333333333333 8:0.1690412809318301 9:4.846153846153846 10:1.4901960784313726 11:0.6923076923076923 12:0.3076923076923077 13:2.25 14:0.8461538461538461 15:0.0 
1.0 0.0 0.0 0.0 1:0.11764705882352941 2:0.1111111111111111 8:1.8223606205486065E-5 9:3.3333333333333335 10:0.061611374407582936 11:0.6666666666666666 12:0.3333333333333333 13:2.0 14:0.3333333333333333 15:1.0 
1.0 0.0 0.0 0.0 1:0.6666666666666666 2:0.0 8:0.0 9:6.5 10:0.4918032786885246 11:0.5 12:0.0 13:0.0 14:0.25 15:0.0 
1.0 1.0 0.0 0.0 1:0.5833333333333334 2:0.25 8:9.904741368346422E-4 9:4.555555555555555 10:0.43478260869565216 11:0.7777777777777778 12:0.1111111111111111 13:7.0 14:0.7777777777777778 15:1.0 
1.0 1.0 0.0 0.0 1:1.4166666666666667 2:0.0 8:0.30237157840738177 9:5.722222222222222 10:1.0521739130434782 11:0.9444444444444444 12:0.0 13:0.0 14:0.6666666666666666 15:0.0 
1.0 1.0 0.0 0.0 1:0.6551724137931034 2:1.1818181818181819 8:0.004367996307825552 9:4.891304347826087 10:0.8713826366559485 11:0.41304347826086957 12:0.2826086956521739 13:1.4615384615384615 14:0.43478260869565216 15:10.0 
1.0 1.0 0.014538145360789845 0.0 1:1.2758620689655173 2:2.3636363636363638 8:0.003076858080761435 9:4.3604651162790695 10:1.482315112540193 11:0.43023255813953487 12:0.3023255813953488 13:1.4230769230769231 14:0.5348837209302325 15:28.0 
1.0 1.0 0.0 0.0 1:1.0 2:1.5 8:6.243603544772664E-4 9:4.933333333333334 10:1.289855072463768 11:0.4666666666666667 12:0.4 13:1.1666666666666667 14:1.3333333333333333 15:2.0 
1.0 1.0 0.0 0.0 1:1.1428571428571428 2:0.5 8:0.29096616364162076 9:6.461538461538462 10:1.4057971014492754 11:0.6153846153846154 12:0.15384615384615385 13:4.0 14:0.6923076923076923 15:1.0 
1.0 1.0 0.0 0.0 1:0.5714285714285714 2:0.75 8:0.2365012380968996 9:3.625 10:0.5362318840579711 11:0.5 12:0.375 13:1.3333333333333333 14:0.625 15:2.0 
1.0 0.0 0.0 0.0 1:0.23529411764705882 2:0.125 8:5.28471592140513E-4 9:6.4 10:0.17703349282296652 11:0.8 12:0.2 13:4.0 14:0.8 15:0.0 
1.0 0.0 0.0 0.0 1:0.4117647058823529 2:0.125 8:1.563864630848685E-4 9:13.428571428571429 10:0.48325358851674644 11:1.0 12:0.14285714285714285 13:7.0 14:0.7142857142857143 15:1.0 
1.0 1.0 0.0 0.0 1:0.4117647058823529 2:1.25 8:4.482807918413084E-5 9:10.538461538461538 10:0.9090909090909091 11:0.5384615384615384 12:0.38461538461538464 13:1.4 14:0.7692307692307693 15:5.0 
1.0 1.0 0.0 0.0 1:0.11764705882352941 2:0.25 8:1.1349982439159086E-5 9:4.2 10:0.15757575757575756 11:0.4 12:0.2 13:2.0 14:0.4 15:0.0 
1.0 0.0 0.0 0.0 1:0.42857142857142855 2:1.0 8:1.1338154636309758E-5 9:4.0 10:0.25316455696202533 11:0.75 12:0.25 13:3.0 14:0.5 15:0.0 
1.0 0.0 0.0 0.0 1:0.5 2:0.6363636363636364 8:7.789526787163354E-4 9:5.2 10:0.4714828897338403 11:0.55 12:0.35 13:1.5714285714285714 14:0.55 15:0.0 
1.0 1.0 0.0 0.0 1:0.1111111111111111 2:0.18181818181818182 8:6.171534348842511E-5 9:5.5 10:0.11255411255411256 11:0.5 12:0.5 13:1.0 14:1.0 15:1.0 
1.0 1.0 0.0 0.0 1:1.4444444444444444 2:5.0 8:0.024591327584266433 9:6.368421052631579 10:1.794871794871795 11:0.6842105263157895 12:0.2631578947368421 13:2.6 14:0.8947368421052632 15:1.0 
1.0 1.0 0.0 0.0 1:0.7777777777777778 2:2.0 8:0.21770230969706092 9:6.6 10:0.9743589743589743 11:0.7 12:0.2 13:3.5 14:0.8 15:1.0 
1.0 1.0 0.0 0.0 1:0.7777777777777778 2:3.0 8:0.03342637163525259 9:7.181818181818182 10:1.1538461538461537 11:0.6363636363636364 12:0.2727272727272727 13:2.3333333333333335 14:0.9090909090909091 15:2.0 
1.0 1.0 0.0 0.0 1:2.0 2:0.6 8:0.24088147950553027 9:4.6 10:0.875 11:0.5333333333333333 12:0.2 13:2.6666666666666665 14:0.6 15:1.0 
1.0 1.0 0.0 0.0 1:1.25 2:0.8 8:0.2519820351806279 9:5.2 10:0.6458333333333334 11:0.5 12:0.4 13:1.25 14:0.7 15:1.0 
1.0 1.0 0.7191743502289505 0.0 1:0.5 2:0.0 8:1.771759800889508E-9 9:4.25 10:0.39622641509433965 11:0.5 12:0.0 13:0.0 14:1.5 15:0.0 
1.0 1.0 0.0 0.0 1:0.3333333333333333 2:0.21428571428571427 8:0.29285900665411924 9:5.785714285714286 10:0.3392857142857143 11:0.5714285714285714 12:0.21428571428571427 13:2.6666666666666665 14:2.7857142857142856 15:2.0 
1.0 1.0 0.0 0.0 1:0.7142857142857143 2:2.5 8:0.2480871280830632 9:4.3 10:0.654320987654321 11:0.5 12:0.5 13:1.0 14:0.6 15:3.0 
1.0 0.1358203102581655 0.0 0.0 1:4.75 2:1.0 8:6.384455987425039E-5 9:8.3 10:3.9574468085106385 11:0.95 12:0.05 13:19.0 14:1.2 15:0.0 
1.0 1.0 0.40979628501914805 0.0 1:4.75 2:1.0 8:6.384455987425039E-5 9:8.3 10:3.9574468085106385 11:0.95 12:0.05 13:19.0 14:1.0 15:0.0 
1.0 0.5561373217072231 0.0 0.0 1:2.0 2:3.0 8:3.4329898884909984E-4 9:4.846153846153846 10:1.6170212765957446 11:0.6153846153846154 12:0.23076923076923078 13:2.6666666666666665 14:0.6153846153846154 15:0.0 
1.0 0.01773323087540894 0.0 0.0 1:3.0 2:3.0 8:1.1208952299625628E-4 9:12.545454545454545 10:6.340425531914893 11:0.5454545454545454 12:0.13636363636363635 13:4.0 14:0.5 15:0.0 
1.0 0.0 0.0 0.0 1:1.0 2:1.0 8:1.1284490994848626E-4 9:5.0 10:0.6382978723404256 11:0.8 12:0.2 13:4.0 14:0.8 15:0.0 
1.0 0.0 0.0 0.0 1:2.0 2:1.0 8:1.0151732911216986E-5 9:4.8 10:1.7058823529411764 11:0.8 12:0.2 13:4.0 14:1.6 15:0.0 
1.0 1.0 0.0 0.0 1:1.2 2:0.0 8:0.3006784991615451 9:5.7 10:2.0303030303030303 11:0.6 12:0.2 13:3.0 14:0.3 15:0.0 
1.0 1.0 1.0 0.0 1:0.0 2:0.0 8:0.0 9:2.0 10:0.0379746835443038 11:0.0 12:0.0 13:0.0 14:0.0 15:0.0 
1.0 0.0 0.0 0.0 1:0.2222222222222222 2:0.0 8:9.886903482718749E-6 9:5.0 10:0.1518987341772152 11:1.0 12:0.0 13:0.0 14:1.0 15:0.0 
1.0 1.0 0.0 0.0 1:1.5 2:0.0 8:0.007477119243494877 9:16.75 10:1.7317073170731707 11:0.75 12:0.0 13:0.0 14:1.75 15:0.0 
1.0 1.0 0.0 0.0 1:2.5 2:0.3333333333333333 8:0.31622776601683794 9:9.333333333333334 10:3.024390243902439 11:0.4166666666666667 12:0.08333333333333333 13:5.0 14:0.3333333333333333 15:1.0 
1.0 0.0 0.0 0.0 1:1.0 2:0.0 8:1.4356718364632368E-5 9:14.142857142857142 10:2.5853658536585367 11:0.2857142857142857 12:0.0 13:0.0 14:0.2857142857142857 15:0.0 
1.0 0.2677115171886502 1.0 0.0 1:5.0 2:0.0 8:0.001868766998127167 9:6.125 10:1.3902439024390243 11:1.25 12:0.0 13:0.0 14:0.75 15:0.0 
1.0 1.0 0.0 0.0 1:7.0 2:0.3333333333333333 8:0.0015457892087687843 9:6.833333333333333 10:2.292682926829268 11:1.1666666666666667 12:0.08333333333333333 13:14.0 14:0.9166666666666666 15:0.0 
1.0 1.0 0.0 0.0 1:4.0 2:1.0 8:0.0012512043672251215 9:6.846153846153846 10:2.4878048780487805 11:0.6153846153846154 12:0.23076923076923078 13:2.6666666666666665 14:0.6923076923076923 15:0.0 
1.0 0.0 0.0 0.0 1:1.3333333333333333 2:3.0 8:1.2736651708004457E-4 9:4.25 10:1.575 11:0.3333333333333333 12:0.5 13:0.6666666666666666 14:1.1666666666666667 15:0.0 
1.0 1.0 0.0 0.0 1:1.1666666666666667 2:0.8 8:0.3033069478408108 9:5.222222222222222 10:0.6153846153846154 11:0.7777777777777778 12:0.4444444444444444 13:1.75 14:1.1111111111111112 15:2.0 
1.0 1.0 0.0 0.0 1:0.5 2:0.5555555555555556 8:6.256410239468895E-5 9:4.071428571428571 10:0.398876404494382 11:0.35714285714285715 12:0.35714285714285715 13:1.0 14:0.5714285714285714 15:5.0 
1.0 0.0 0.0 0.0 1:0.625 2:0.5 8:2.1132804008766896E-4 9:5.5 10:0.38613861386138615 11:0.8333333333333334 12:0.16666666666666666 13:5.0 14:2.3333333333333335 15:0.0 
1.0 0.0 0.0 0.0 1:0.125 2:0.0 8:7.005575216684023E-5 9:4.5 10:0.10891089108910891 11:0.5 12:0.0 13:0.0 14:0.0 15:0.0 
1.0 0.0 0.0 0.0 1:0.05555555555555555 2:0.1 8:0.0014744282514885286 9:3.5 10:0.05232558139534884 11:0.5 12:0.5 13:1.0 14:1.0 15:0.0 
1.0 1.0 0.0 0.0 1:0.2777777777777778 2:0.3 8:0.028737042484713482 9:4.833333333333333 10:0.4069767441860465 11:0.4166666666666667 12:0.25 13:1.6666666666666667 14:0.6666666666666666 15:0.0 
1.0 0.0 0.0 0.0 1:0.16666666666666666 2:0.0 8:1.1659474035397871E-4 9:5.0 10:0.13953488372093023 11:0.75 12:0.0 13:0.0 14:0.5 15:0.0 
1.0 0.5161805889939637 0.0 0.0 1:0.14285714285714285 2:0.5 8:1.8312855036264262E-4 9:4.75 10:0.13690476190476192 11:0.5 12:0.5 13:1.0 14:0.75 15:0.0 
1.0 0.0 0.0 0.0 1:1.3571428571428572 2:3.25 8:2.327232348479515E-4 9:8.842105263157896 10:2.2261904761904763 11:0.5 12:0.34210526315789475 13:1.4615384615384615 14:0.5526315789473685 15:0.0 
1.0 0.0 0.0 0.0 1:0.35714285714285715 2:0.5 8:2.5110209100493927E-5 9:3.2 10:0.25 11:0.5 12:0.2 13:2.5 14:0.7 15:0.0 
1.0 0.0 0.0 0.0 1:0.5 2:0.2 8:3.333668426601028E-4 9:4.5 10:0.3188405797101449 11:0.5 12:0.25 13:2.0 14:0.75 15:0.0 
1.0 1.0 0.0 0.0 1:1.75 2:1.0 8:3.679345520393398E-4 9:6.133333333333334 10:1.5507246376811594 11:0.4666666666666667 12:0.3333333333333333 13:1.4 14:0.6 15:1.0 
1.0 1.0 0.0 0.0 1:5.25 2:1.6 8:0.13261738971894171 9:8.03125 10:4.188405797101449 11:0.65625 12:0.25 13:2.625 14:0.75 15:3.0 
1.0 0.0 0.0 0.0 1:0.75 2:0.4 8:8.300592778331675E-5 9:5.0 10:0.43478260869565216 11:0.6 12:0.4 13:1.5 14:1.0 15:0.0 
1.0 0.0 0.0 0.0 1:3.75 2:0.6 8:1.2408721010029146E-4 9:11.421052631578947 10:3.420289855072464 11:0.7894736842105263 12:0.15789473684210525 13:5.0 14:0.8947368421052632 15:0.0 
1.0 1.0 0.0 0.0 1:5.0 2:1.2 8:0.07183157220114068 9:5.129032258064516 10:2.753623188405797 11:0.6451612903225806 12:0.1935483870967742 13:3.3333333333333335 14:0.6129032258064516 15:0.0 
1.0 1.0 0.3644509637504269 0.0 1:1.0 2:0.0 8:5.55639553589785E-4 9:4.8 10:0.42028985507246375 11:0.8 12:0.0 13:0.0 14:0.4 15:1.0 
1.0 1.0 0.0 0.0 1:0.75 2:0.2 8:5.81860928546015E-4 9:3.875 10:0.5652173913043478 11:0.375 12:0.125 13:3.0 14:0.25 15:0.0 
1.0 0.0 0.0 0.0 1:0.5 2:0.2 8:6.595047051488538E-6 9:6.666666666666667 10:0.3333333333333333 11:0.6666666666666666 12:0.3333333333333333 13:2.0 14:1.0 15:0.0 
1.0 0.0 0.0 0.0 1:1.25 2:0.6 8:4.392716874618573E-4 9:7.285714285714286 10:0.8405797101449275 11:0.7142857142857143 12:0.42857142857142855 13:1.6666666666666667 14:1.0 15:0.0 
1.0 1.0 0.0 0.0 1:0.5625 2:1.0 8:1.8068964519550258E-6 9:5.4375 10:0.7054794520547946 11:0.5625 12:0.25 13:2.25 14:0.625 15:0.0 
1.0 0.0 0.0 0.0 1:0.5 2:0.0 8:1.1301647034890834E-6 9:6.0 10:0.25 11:1.0 12:0.0 13:0.0 14:0.5 15:0.0 
1.0 0.14007813093762633 0.0 0.0 1:1.0 2:0.0 8:1.9599319867649136E-7 9:10.2 10:1.0 11:0.8 12:0.0 13:0.0 14:0.6 15:0.0 
1.0 0.9705835666771634 0.0 0.0 1:0.3181818181818182 2:0.3 8:9.243254577635356E-6 9:5.428571428571429 10:0.38461538461538464 11:0.5 12:0.21428571428571427 13:2.3333333333333335 14:0.5714285714285714 15:0.0 
1.0 1.0 0.0 0.0 1:0.2727272727272727 2:0.4 8:0.19245038724403118 9:9.545454545454545 10:0.49572649572649574 11:0.5454545454545454 12:0.36363636363636365 13:1.5 14:0.5454545454545454 15:0.0 
1.0 0.0 0.0 0.0 1:0.045454545454545456 2:0.1 8:0.0 9:5.0 10:0.05128205128205128 11:0.5 12:0.5 13:1.0 14:1.0 15:0.0 
1.0 1.0 0.0 0.0 1:0.8636363636363636 2:0.5 8:0.1066577651821842 9:6.333333333333333 10:0.7521367521367521 11:0.7916666666666666 12:0.20833333333333334 13:3.8 14:0.8333333333333334 15:0.0 
1.0 0.0 0.0 0.0 1:0.22727272727272727 2:0.0 8:2.771455316969304E-4 9:7.5 10:0.21794871794871795 11:0.8333333333333334 12:0.0 13:0.0 14:0.5 15:0.0 
1.0 0.0 0.0 0.0 1:0.13636363636363635 2:0.0 8:8.731572118137206E-6 9:11.0 10:0.15384615384615385 11:1.0 12:0.0 13:0.0 14:1.0 15:0.0 
1.0 1.0 0.0 0.0 1:0.45454545454545453 2:0.4 8:0.14020155097909073 9:4.894736842105263 10:0.47863247863247865 11:0.5263157894736842 12:0.21052631578947367 13:2.5 14:0.631578947368421 15:2.0 
1.0 1.0 1.0 0.0 1:2.5 2:0.0 8:9.53813434379224E-4 9:5.222222222222222 10:1.8666666666666667 11:0.5555555555555556 12:0.0 13:0.0 14:0.5555555555555556 15:0.0 
1.0 1.0 0.3135982006109348 0.0 1:6.5 2:0.6666666666666666 8:2.3664912131716853E-5 9:10.055555555555555 10:6.633333333333334 11:0.7222222222222222 12:0.1111111111111111 13:6.5 14:0.7222222222222222 15:0.0 
1.0 1.0 0.0 0.0 1:2.5 2:0.0 8:1.5233103652607504E-4 9:9.666666666666666 10:2.1333333333333333 11:0.8333333333333334 12:0.0 13:0.0 14:0.5 15:0.0 
1.0 0.0 1.0 0.0 1:3.5 2:0.0 8:0.046994024735584124 9:4.375 10:1.048780487804878 11:0.875 12:0.0 13:0.0 14:0.875 15:0.0 
1.0 1.0 0.0 0.0 1:1.6666666666666667 2:1.0 8:1.6307619864699206E-7 9:6.0 10:2.074074074074074 11:0.625 12:0.25 13:2.5 14:0.75 15:1.0 
1.0 0.0 0.0 0.0 1:0.1 2:0.15789473684210525 8:8.903658759857705E-6 9:5.125 10:0.18846153846153846 11:0.25 12:0.375 13:0.6666666666666666 14:0.375 15:0.0 
1.0 1.0 0.0 0.0 1:0.2 2:0.2222222222222222 8:0.28286016504108824 9:5.0 10:0.19672131147540983 11:0.5 12:0.25 13:2.0 14:0.375 15:1.0 
1.0 1.0 0.0 0.0 1:0.15 2:0.2222222222222222 8:0.23915470550594953 9:3.4444444444444446 10:0.16393442622950818 11:0.3333333333333333 12:0.2222222222222222 13:1.5 14:0.5555555555555556 15:7.0 
1.0 0.0 0.0 0.0 1:0.5 2:0.0 8:0.0 9:5.5 10:0.5 11:1.0 12:0.0 13:0.0 14:1.0 15:0.0 
1.0 1.0 0.0 0.0 1:0.5 2:0.0 8:0.0 9:4.0 10:0.38461538461538464 11:1.0 12:0.0 13:0.0 14:1.0 15:0.0 
1.0 0.0 0.0 0.0 1:0.5 2:2.0 8:8.386565638576319E-5 9:7.166666666666667 10:1.8846153846153846 11:0.3333333333333333 12:0.3333333333333333 13:1.0 14:0.5 15:0.0 
1.0 1.0 0.0 0.0 1:0.8333333333333334 2:1.0 8:0.00181755644014418 9:5.0 10:0.9850746268656716 11:0.45454545454545453 12:0.36363636363636365 13:1.25 14:0.8181818181818182 15:2.0 
1.0 0.4156610348666321 1.0 0.0 1:0.2222222222222222 2:0.0 8:0.0 9:8.5 10:0.17272727272727273 11:1.0 12:0.0 13:0.0 14:1.0 15:0.0 
1.0 0.0 0.0 0.0 1:0.2222222222222222 2:0.4 8:7.534431356601376E-7 9:5.4 10:0.2909090909090909 11:0.4 12:0.4 13:1.0 14:0.6 15:0.0 
1.0 0.0 0.0 0.0 1:0.4444444444444444 2:0.0 8:7.469227661161899E-6 9:5.2 10:0.2818181818181818 11:0.8 12:0.0 13:0.0 14:0.4 15:0.0 
1.0 0.0 0.0 0.0 1:0.2222222222222222 2:0.0 8:5.519054212149428E-5 9:6.5 10:0.13636363636363635 11:1.0 12:0.0 13:0.0 14:0.5 15:0.0 
1.0 0.0 0.0 0.0 1:0.3333333333333333 2:0.8 8:2.629524692209549E-7 9:6.25 10:0.5272727272727272 11:0.375 12:0.5 13:0.75 14:0.625 15:0.0 
1.0 1.0 0.0 0.0 1:0.4444444444444444 2:0.07692307692307693 8:0.43643627371613997 9:5.8 10:0.2518518518518518 11:0.8 12:0.2 13:4.0 14:0.8 15:0.0 
1.0 0.0 0.0 0.0 1:0.0625 2:0.4 8:1.8579697448709035E-5 9:7.333333333333333 10:0.1497005988023952 11:0.3333333333333333 12:0.6666666666666666 13:0.5 14:0.6666666666666666 15:0.0 
1.0 1.0 0.0 0.0 1:0.4375 2:1.2 8:2.3149337886023478E-4 9:4.705882352941177 10:0.5808383233532934 11:0.4117647058823529 12:0.35294117647058826 13:1.1666666666666667 14:0.7058823529411765 15:3.0 
1.0 0.0 0.0 0.0 1:0.125 2:0.0 8:0.0 9:3.5 10:0.05389221556886228 11:1.0 12:0.0 13:0.0 14:1.0 15:0.0 
1.0 0.41576432714565137 0.061707282476600026 0.0 1:3.5 2:0.0 8:1.5529162607450732E-4 9:16.333333333333332 10:20.0 11:0.4666666666666667 12:0.0 13:0.0 14:0.3333333333333333 15:0.0 
1.0 1.0 0.0 0.0 1:0.2727272727272727 2:0.3333333333333333 8:0.03968508233060222 9:4.857142857142857 10:0.26973684210526316 11:0.42857142857142855 12:0.42857142857142855 13:1.0 14:0.8571428571428571 15:0.0 
1.0 1.0 0.0 0.0 1:0.36363636363636365 2:0.2222222222222222 8:0.03498631461606853 9:5.428571428571429 10:0.29605263157894735 11:0.5714285714285714 12:0.2857142857142857 13:2.0 14:0.5714285714285714 15:0.0 
1.0 0.0 0.0 0.0 1:0.09090909090909091 2:0.2222222222222222 8:0.0 9:6.0 10:0.13815789473684212 11:0.3333333333333333 12:0.6666666666666666 13:0.5 14:0.6666666666666666 15:0.0 
1.0 1.0 0.0 0.0 1:1.1818181818181819 2:0.1111111111111111 8:0.030441627161396336 9:4.533333333333333 10:0.5460526315789473 11:0.8666666666666667 12:0.06666666666666667 13:13.0 14:0.8666666666666667 15:1.0 
1.0 1.0 0.0 0.0 1:0.5454545454545454 2:0.2222222222222222 8:1.038313891531781E-4 9:5.4 10:0.42105263157894735 11:0.6 12:0.2 13:3.0 14:0.8 15:1.0 
1.0 1.0 0.0 0.0 1:0.18181818181818182 2:0.4444444444444444 8:0.23660334561368437 9:3.7142857142857144 10:0.21710526315789475 11:0.2857142857142857 12:0.5714285714285714 13:0.5 14:0.42857142857142855 15:0.0 
1.0 0.0 0.0 0.0 1:0.14285714285714285 2:0.0 8:0.0 9:3.0 10:0.04819277108433735 11:1.0 12:0.0 13:0.0 14:5.0 15:0.0 
1.0 0.0 0.0 0.0 1:0.06666666666666667 2:0.0 8:1.1233630815344924E-5 9:5.5 10:0.08387096774193549 11:0.5 12:0.0 13:0.0 14:0.5 15:0.0 
1.0 1.0 0.0 0.0 1:0.5 2:0.75 8:0.0 9:5.6 10:0.6 11:0.5 12:0.3 13:1.6666666666666667 14:2.0 15:1.0 
1.0 0.0 0.0 0.0 1:0.25 2:0.25 8:1.9439327349594332E-5 9:12.176470588235293 10:3.393939393939394 11:0.058823529411764705 12:0.058823529411764705 13:1.0 14:0.4117647058823529 15:0.0 
1.0 1.0 0.0 0.0 1:5.0 2:0.0 8:9.875867703156595E-4 9:5.75 10:6.75 11:0.625 12:0.25 13:2.5 14:1.0 15:0.0 
1.0 1.0 0.0 0.0 1:5.0 2:0.0 8:9.875867703156595E-4 9:5.75 10:6.75 11:0.625 12:0.25 13:2.5 14:0.875 15:0.0 
1.0 1.0 0.0 0.0 1:4.0 2:0.0 8:3.364868382138231E-4 9:5.428571428571429 10:5.625 11:0.5714285714285714 12:0.2857142857142857 13:2.0 14:0.8571428571428571 15:0.0 
1.0 1.0 0.0 0.0 1:1.0 2:0.0 8:0.22649339000169502 9:5.5 10:1.278688524590164 11:0.6666666666666666 12:0.3333333333333333 13:2.0 14:1.25 15:0.0 
1.0 0.0 0.0 0.0 1:0.25 2:0.0 8:2.140173212872931E-5 9:4.75 10:0.3770491803278688 11:0.5 12:0.25 13:2.0 14:0.75 15:0.0 
1.0 1.0 0.0 0.0 1:0.25 2:0.0 8:0.8944271909999159 9:4.0 10:0.16393442622950818 11:1.0 12:0.0 13:0.0 14:1.0 15:2.0 
1.0 1.0 0.0 0.0 1:0.3333333333333333 2:0.125 8:7.501172356800055E-5 9:4.5 10:0.16296296296296298 11:0.5 12:0.25 13:2.0 14:3.0 15:0.0 
