svm_type c_svc
kernel_type rbf
gamma 0.3333333333333333
nr_class 6
total_sv 15244
rho 0.17492192039685406 0.8384560130430044 -0.40958444355769497 -0.9770765275026746 -0.9993210421345524 0.8334760334036817 -0.5455689180239713 -0.9794391443685927 -1.0048053919240556 -0.9033320088933546 -0.9963114437094649 -0.9993458415262687 -0.974616320269534 -0.9992037241983005 -0.9710848798688622
label 2 4 1 3 6 5
nr_sv 2980 3755 6773 1659 74 3
SV
1.0 1.0 1.0 0.0026432995554484945 0.0 1:1.3333333333333333 2:2.0 3:42.0 
0.5954040666248207 1.0 0.09680715842231205 0.014086293875070554 0.0 1:4.0 2:3.0 3:128.0 
1.0 1.0 1.0 0.0 0.0 1:1.3333333333333333 2:2.0 3:71.0 
1.0 1.0 0.0 0.0 0.0 1:1.3636363636363635 2:1.375 3:208.0 
1.0 1.0 0.5905448774826281 0.022741746423468323 0.0 1:7.4 2:23.0 3:378.0 
1.0 1.0 0.5880074827218568 0.022833473697450646 0.0 1:4.2 2:12.0 3:269.0 
1.0 1.0 1.0 0.0 0.0 1:3.0 2:2.0 3:93.0 
1.0 1.0 1.0 0.004052984357461764 0.0 1:3.0 2:2.0 3:93.0 
1.0 1.0 0.09772430453387743 0.011343456280317965 0.0 1:0.0 2:0.0 3:221.0 
1.0 1.0 0.0 0.0 0.0 1:0.14285714285714285 2:0.0 3:12.0 
1.0 1.0 0.0 0.0 0.0 1:0.375 2:0.08333333333333333 3:30.0 
1.0 1.0 1.0 0.022528187581468465 0.0 1:5.428571428571429 2:1.6666666666666667 3:276.0 
1.0 1.0 0.0 0.0 0.0 1:2.0 2:1.0 3:151.0 
1.0 1.0 1.0 0.0 0.0 1:1.2857142857142858 2:0.6666666666666666 3:139.0 
1.0 1.0 0.0 0.0 0.0 1:0.14285714285714285 2:1.0 3:25.0 
0.7382631081674504 1.0 0.3178695227232227 0.0 0.0 1:2.4444444444444446 2:3.0 3:314.0 
1.0 1.0 1.0 0.0063317018816334 0.0 1:0.2222222222222222 2:2.0 3:37.0 
1.0 1.0 0.0 0.0 0.0 1:0.4444444444444444 2:1.0 3:29.0 
1.0 1.0 0.0 0.0 0.0 1:0.4444444444444444 2:2.0 3:29.0 
1.0 1.0 0.5070391325917776 0.0 0.0 1:0.1111111111111111 2:2.0 3:89.0 
1.0 1.0 0.59036473533133 0.023325878033718772 0.0 1:3.6666666666666665 2:11.0 3:393.0 
1.0 1.0 1.0 0.0 0.0 1:1.3333333333333333 2:2.0 3:91.0 
0.7942166924722301 1.0 0.4504856501765662 0.011627692683332606 0.0 1:2.8333333333333335 2:1.5 3:390.0 
1.0 1.0 0.9605413294167189 0.013326121285960169 0.0 1:1.5 2:4.0 3:108.0 
1.0 1.0 0.0 0.0 0.0 1:0.25 2:0.6666666666666666 3:20.0 
1.0 1.0 1.0 0.0 0.0 1:1.5 2:1.0 3:94.0 
1.0 1.0 1.0 0.0 0.0 1:0.5 2:1.6 3:79.0 
1.0 1.0 0.0 0.0 0.0 1:0.16666666666666666 2:0.16666666666666666 3:16.0 
1.0 1.0 0.0 0.058318042273920304 0.0 1:0.3333333333333333 2:0.8 3:78.0 
1.0 1.0 0.22569631636109747 0.012186457857971468 0.0 1:2.6666666666666665 2:1.8 3:266.0 
1.0 1.0 0.0 0.0 0.0 1:0.5555555555555556 2:0.2 3:259.0 
1.0 1.0 0.3682479895836149 0.0 0.0 1:0.1111111111111111 2:1.4 3:69.0 
1.0 1.0 1.0 0.017647171090025685 0.0 1:2.7777777777777777 2:2.4 3:281.0 
0.0 1.0 0.5179130486831198 0.00900107962349378 0.0 1:0.3333333333333333 2:0.4 3:196.0 
1.0 1.0 0.0 0.0 0.0 1:0.1111111111111111 2:0.6 3:30.0 
1.0 1.0 1.0 0.013544472883664789 0.0 1:0.5555555555555556 2:0.4 3:194.0 
1.0 1.0 1.0 0.0 0.0 1:0.5555555555555556 2:1.0 3:79.0 
1.0 1.0 1.0 0.0 0.0 1:0.3333333333333333 2:0.8 3:56.0 
1.0 1.0 0.0 0.0 0.0 1:0.3333333333333333 2:0.6 3:47.0 
1.0 1.0 1.0 0.008928969845266865 0.0 1:0.6666666666666666 2:0.8 3:220.0 
1.0 1.0 0.0 0.0 0.0 1:0.4444444444444444 2:0.6 3:68.0 
1.0 1.0 0.0 0.0 0.0 1:0.3333333333333333 2:1.2 3:76.0 
1.0 1.0 1.0 0.0 0.0 1:0.1111111111111111 2:0.0 3:13.0 
1.0 1.0 1.0 0.0 0.0 1:0.2727272727272727 2:1.3333333333333333 3:73.0 
1.0 1.0 0.11614138402090883 0.0 0.0 1:0.08333333333333333 2:0.09090909090909091 3:21.0 
1.0 1.0 1.0 0.0 0.0 1:0.7857142857142857 2:1.2 3:118.0 
1.0 1.0 0.33547731923569185 0.010496549149400887 0.0 1:1.4285714285714286 2:3.6 3:314.0 
1.0 1.0 0.0 0.0 0.0 1:0.6 2:2.3333333333333335 3:85.0 
1.0 1.0 0.0 0.0 0.0 1:0.6 2:0.3333333333333333 3:28.0 
1.0 1.0 0.0 0.0 0.0 1:2.5 2:0.3333333333333333 3:35.0 
1.0 1.0 0.07271477376030296 0.007176088108542051 0.0 1:1.6666666666666667 2:2.0 3:284.0 
0.11670069101397985 1.0 0.0 0.0036623161299321194 0.0 1:4.5 2:0.0 3:237.0 
1.0 1.0 0.6826946825459469 0.011630948878321067 0.0 1:0.0 2:0.3333333333333333 3:198.0 
1.0 1.0 0.0 0.0 0.0 1:0.375 2:0.5 3:47.0 
0.0 1.0 0.0 0.0 0.0 1:2.3333333333333335 2:2.0 3:72.0 
0.7891937753888864 1.0 0.5867346965289996 0.007289741742994295 0.0 1:2.0 2:6.0 3:98.0 
1.0 1.0 1.0 0.0 0.0 1:0.4 2:2.0 3:85.0 
1.0 1.0 0.7733087678795761 0.008508780558447379 0.0 1:0.0 2:1.0 3:9.0 
1.0 1.0 0.8140244210138288 0.0 0.0 1:1.0 2:1.5 3:83.0 
1.0 1.0 0.0 0.0 0.0 1:0.25 2:0.0 3:16.0 
1.0 1.0 0.00641090804763776 0.0 0.0 1:0.5 2:1.0 3:21.0 
0.0 1.0 0.0 0.0 0.0 1:0.18181818181818182 2:0.0 3:11.0 
1.0 1.0 0.917096494897071 0.008453345838675907 0.0 1:1.3846153846153846 2:1.625 3:346.0 
1.0 1.0 1.0 0.0 0.0 1:0.23076923076923078 2:0.125 3:53.0 
1.0 1.0 1.0 0.0 0.0 1:0.46153846153846156 2:0.0 3:37.0 
1.0 1.0 0.7434904393388065 0.0 0.0 1:0.7692307692307693 2:0.5625 3:127.0 
1.0 1.0 1.0 0.0 0.0 1:1.0769230769230769 2:0.4375 3:150.0 
1.0 1.0 1.0 0.03544968284364718 0.0 1:0.3076923076923077 2:0.125 3:62.0 
1.0 1.0 1.0 0.0 0.0 1:0.6923076923076923 2:0.1875 3:85.0 
0.6636362028150309 1.0 0.0 0.008836605412714194 0.0 1:1.9230769230769231 2:1.375 3:386.0 
1.0 1.0 0.7740426399095528 0.0 0.0 1:0.3076923076923077 2:0.0625 3:43.0 
1.0 1.0 0.0 0.0 0.0 1:0.46153846153846156 2:0.0625 3:43.0 
1.0 1.0 1.0 0.0 0.0 1:0.3076923076923077 2:0.125 3:50.0 
1.0 1.0 0.0 0.0 0.0 1:0.15384615384615385 2:0.0 3:14.0 
1.0 1.0 1.0 0.0 0.0 1:0.3076923076923077 2:0.125 3:41.0 
1.0 1.0 0.0 0.0 0.0 1:0.15384615384615385 2:0.375 3:48.0 
1.0 1.0 0.0 0.0 0.0 1:0.23076923076923078 2:0.0625 3:29.0 
1.0 1.0 0.0 0.0 0.0 1:0.3076923076923077 2:0.1875 3:50.0 
1.0 1.0 0.0 0.0 0.0 1:0.23076923076923078 2:0.1875 3:50.0 
1.0 1.0 0.0 0.0 0.0 1:0.23076923076923078 2:0.1875 3:29.0 
1.0 1.0 0.0 0.0 0.0 1:0.15384615384615385 2:0.125 3:29.0 
1.0 1.0 1.0 0.0 0.0 1:0.07692307692307693 2:0.25 3:35.0 
1.0 1.0 0.7425743938607609 0.0 0.0 1:0.38461538461538464 2:0.0625 3:42.0 
1.0 1.0 0.0 0.0 0.0 1:0.23076923076923078 2:0.0625 3:35.0 
1.0 1.0 1.0 0.0 0.0 1:2.0 2:1.0 3:74.0 
1.0 1.0 0.0 0.0 0.0 1:1.0 2:2.0 3:44.0 
1.0 1.0 0.0 0.0 0.0 1:0.5 2:0.0 3:24.0 
1.0 1.0 0.6067153288974362 0.0 0.0 1:1.0 2:0.0 3:40.0 
1.0 1.0 0.4895968956005459 0.0 0.0 1:1.5 2:2.0 3:76.0 
1.0 1.0 0.0 0.0 0.0 1:0.75 2:1.0 3:32.0 
1.0 1.0 0.0 0.0 0.0 1:0.0 2:0.6666666666666666 3:18.0 
1.0 1.0 0.0 0.0 0.0 1:0.13333333333333333 2:0.8 3:29.0 
1.0 1.0 1.0 0.0 0.0 1:0.3333333333333333 2:0.4 3:47.0 
1.0 1.0 1.0 0.040321774390054514 0.0 1:1.0555555555555556 2:2.1666666666666665 3:244.0 
1.0 1.0 0.0 0.9458860361442355 0.0 1:0.2777777777777778 2:0.0 3:36.0 
1.0 1.0 1.0 0.0 0.0 1:1.1428571428571428 2:0.5 3:86.0 
1.0 1.0 0.0 0.0 0.0 1:0.14285714285714285 2:0.0 3:10.0 
1.0 1.0 1.0 0.0 0.0 1:0.7307692307692307 2:0.2727272727272727 3:158.0 
1.0 1.0 1.0 0.0 0.0 1:0.5714285714285714 2:0.2 3:46.0 
1.0 1.0 1.0 0.019381503854433657 0.0 1:1.8181818181818181 2:3.6666666666666665 3:292.0 
1.0 1.0 0.3810139887535825 0.0 0.0 1:0.5 2:2.5 3:46.0 
1.0 1.0 0.8944472327276887 0.008588324689856918 0.0 1:1.5 2:4.5 3:120.0 
1.0 1.0 0.8031219728678441 0.019610037583458362 0.0 1:4.0 2:4.0 3:254.0 
1.0 1.0 1.0 9.1768996624636E-4 0.0 1:0.4375 2:1.4 3:125.0 
1.0 1.0 1.0 0.0 0.0 1:0.375 2:0.4 3:66.0 
1.0 1.0 0.0 0.0 0.0 1:0.4166666666666667 2:0.6666666666666666 3:59.0 
1.0 1.0 0.0 0.0 0.0 1:0.2222222222222222 2:0.0 3:13.0 
1.0 1.0 0.0 0.0 0.0 1:0.5555555555555556 2:1.0 3:69.0 
1.0 1.0 1.0 0.015389360458910262 0.0 1:2.111111111111111 2:2.0 3:225.0 
1.0 1.0 1.0 0.0 0.0 1:0.2222222222222222 2:0.25 3:23.0 
1.0 1.0 0.0 0.0 0.0 1:0.6666666666666666 2:0.75 3:69.0 
1.0 1.0 0.0 0.0 0.0 1:0.4375 2:0.5 3:58.0 
1.0 1.0 0.7327949880421476 0.022277718672948588 0.0 1:1.0 2:4.0 3:328.0 
1.0 1.0 0.15505848521277799 0.0 0.0 1:0.75 2:1.5 3:127.0 
1.0 1.0 0.8314969854646033 0.01436332469828333 0.0 1:1.0625 2:4.0 3:263.0 
1.0 1.0 0.0 0.0 0.0 1:0.15789473684210525 2:0.2 3:37.0 
1.0 1.0 0.6910130664995097 0.0 0.0 1:0.3157894736842105 2:0.6 3:72.0 
1.0 1.0 0.0 0.0 0.0 1:0.21052631578947367 2:0.4 3:39.0 
1.0 1.0 0.0 0.0 0.0 1:0.18181818181818182 2:0.0 3:15.0 
1.0 1.0 1.0 0.0 0.0 1:1.75 2:0.5 3:75.0 
1.0 1.0 0.5219810150989684 0.00906003370115968 0.0 1:3.0 2:0.5 3:36.0 
1.0 1.0 0.0 0.0 0.0 1:0.1875 2:0.0 3:18.0 
1.0 1.0 0.22864041912777516 0.1992273640905932 0.0 1:0.15384615384615385 2:0.0 3:243.0 
1.0 1.0 0.0 0.01090745179991702 0.0 1:1.25 2:0.0 3:32.0 
1.0 1.0 1.0 0.0 0.0 1:0.3 2:0.3 3:49.0 
1.0 1.0 0.3368092054630629 0.0 0.0 1:0.0 2:0.5 3:8.0 
1.0 1.0 0.5562698514039179 0.02019084518403963 0.0 1:5.2 2:0.0 3:284.0 
1.0 1.0 1.0 0.0 0.0 1:1.4 2:0.0 3:75.0 
1.0 1.0 0.26007516743056003 0.011345332980323457 0.0 1:1.8 2:0.0 3:164.0 
1.0 1.0 0.0 0.0 0.0 1:0.6 2:0.0 3:16.0 
1.0 1.0 0.0 0.0 0.0 1:0.7 2:1.0 3:60.0 
1.0 1.0 0.6979581567493278 0.0 0.0 1:0.0 2:0.16666666666666666 3:10.0 
1.0 1.0 1.0 0.0 0.0 1:0.0 2:0.07692307692307693 3:11.0 
1.0 1.0 1.0 0.0 0.0 1:0.0 2:0.1111111111111111 3:10.0 
1.0 1.0 1.0 0.0 0.0 1:0.4444444444444444 2:0.1111111111111111 3:27.0 
1.0 1.0 1.0 0.0 0.0 1:0.4444444444444444 2:1.0 3:88.0 
1.0 1.0 1.0 0.0 0.0 1:0.6666666666666666 2:0.16666666666666666 3:104.0 
1.0 1.0 0.0 0.0 0.0 1:0.13333333333333333 2:0.16666666666666666 3:19.0 
1.0 1.0 1.0 0.0 0.0 1:0.45 2:0.5714285714285714 3:103.0 
1.0 1.0 1.0 0.0 0.0 1:0.25 2:0.0 3:45.0 
1.0 1.0 1.0 0.0 0.0 1:0.2 2:0.14285714285714285 3:39.0 
1.0 1.0 0.4984215123764973 0.0 0.0 1:1.1 2:1.2857142857142858 3:252.0 
1.0 1.0 1.0 0.04287225825154831 0.0 1:0.3 2:0.14285714285714285 3:59.0 
1.0 1.0 0.017275167400671504 0.0 0.0 1:0.1 2:0.0 3:15.0 
1.0 1.0 1.0 0.00735260603999465 0.0 1:3.5 2:2.0 3:128.0 
1.0 1.0 1.0 0.0 0.0 1:0.75 2:0.0 3:27.0 
1.0 1.0 1.0 0.0 0.0 1:0.0625 2:0.0 3:15.0 
1.0 1.0 1.0 0.0 0.0 1:0.3181818181818182 2:1.5 3:87.0 
1.0 1.0 1.0 0.0 0.0 1:0.4090909090909091 2:1.5 3:79.0 
1.0 1.0 0.29830170309640286 0.00420036179194232 0.0 1:0.045454545454545456 2:1.5 3:34.0 
1.0 1.0 0.0 0.0 0.0 1:0.09090909090909091 2:1.5 3:41.0 
1.0 1.0 1.0 0.0 0.0 1:0.2727272727272727 2:0.0 3:48.0 
1.0 1.0 0.0 0.0 0.0 1:0.4090909090909091 2:3.0 3:101.0 
1.0 1.0 1.0 0.0 0.0 1:0.22727272727272727 2:0.5 3:38.0 
1.0 1.0 0.0 0.0 0.0 1:0.09090909090909091 2:2.0 3:56.0 
1.0 1.0 1.0 0.0 0.0 1:0.22727272727272727 2:1.5 3:49.0 
1.0 1.0 1.0 0.0 0.0 1:0.3181818181818182 2:0.5 3:60.0 
1.0 1.0 1.0 0.0 0.0 1:0.09090909090909091 2:0.0 3:15.0 
1.0 1.0 1.0 0.011358298148369677 0.0 1:0.18181818181818182 2:0.5 3:164.0 
1.0 1.0 1.0 0.0 0.0 1:1.5714285714285714 2:0.3333333333333333 3:112.0 
1.0 1.0 1.0 0.10160003849493254 0.0 1:1.8571428571428572 2:1.0 3:147.0 
1.0 1.0 0.5904577768729292 0.022967397599027994 0.0 1:3.6666666666666665 2:8.0 3:451.0 
1.0 1.0 0.23577234874382805 0.013858002467399488 0.0 1:0.3333333333333333 2:4.5 3:90.0 
1.0 1.0 0.0 0.0 0.0 1:0.5 2:1.0 3:39.0 
1.0 1.0 1.0 0.0 0.0 1:0.08333333333333333 2:0.5 3:32.0 
0.9756373488796398 1.0 0.3539019950733447 0.01731827741708386 0.0 1:2.0833333333333335 2:5.0 3:262.0 
1.0 1.0 1.0 0.0 0.0 1:0.4166666666666667 2:0.5 3:41.0 
1.0 1.0 1.0 0.0 0.0 1:0.75 2:1.0 3:99.0 
1.0 1.0 0.42391041158083265 0.02081211332217311 0.0 1:0.0 2:5.0 3:65.0 
1.0 1.0 0.0 0.0 0.0 1:0.25 2:0.5 3:43.0 
1.0 1.0 1.0 0.020532465055186435 0.0 1:0.2 2:3.5 3:215.0 
1.0 1.0 0.0 0.0 0.0 1:0.26666666666666666 2:0.1 3:22.0 
1.0 1.0 0.0 0.0 0.0 1:0.25 2:0.4 3:117.0 
1.0 1.0 1.0 0.0 0.0 1:1.1428571428571428 2:1.6 3:180.0 
0.0 1.0 0.0 0.0 0.0 1:1.0 2:0.0 3:9.0 
1.0 1.0 0.7700182682507913 0.0 0.0 1:1.4 2:3.0 3:89.0 
1.0 1.0 1.0 0.0 0.0 1:0.875 2:1.0 3:74.0 
1.0 1.0 0.0 0.0 0.0 1:0.375 2:0.6666666666666666 3:44.0 
1.0 1.0 1.0 0.0 0.0 1:1.8333333333333333 2:0.2857142857142857 3:142.0 
1.0 1.0 0.5040617838955666 0.0 0.0 1:0.5 2:0.14285714285714285 3:36.0 
1.0 1.0 0.0 0.0 0.0 1:0.3333333333333333 2:0.14285714285714285 3:31.0 
1.0 1.0 1.0 0.0 0.0 1:0.6666666666666666 2:1.4285714285714286 3:106.0 
1.0 1.0 0.0 0.0 0.0 1:0.5 2:0.2857142857142857 3:25.0 
1.0 1.0 0.0 0.0 0.0 1:0.8333333333333334 2:0.0 3:30.0 
1.0 1.0 1.0 0.0 0.0 1:0.8333333333333334 2:0.5714285714285714 3:110.0 
1.0 1.0 1.0 0.0 0.0 1:1.8333333333333333 2:0.8571428571428571 3:121.0 
1.0 1.0 1.0 0.0 0.0 1:0.16666666666666666 2:0.14285714285714285 3:73.0 
1.0 1.0 1.0 0.004648118509758277 0.0 1:0.3333333333333333 2:0.14285714285714285 3:120.0 
1.0 1.0 1.0 0.0 0.0 1:0.3333333333333333 2:0.14285714285714285 3:20.0 
1.0 1.0 0.0 0.3887773581248775 0.0 1:1.0 2:0.2857142857142857 3:99.0 
1.0 1.0 0.0 0.0 0.0 1:0.16666666666666666 2:0.2857142857142857 3:32.0 
1.0 1.0 0.889904689619588 0.0 0.0 1:2.0 2:0.7142857142857143 3:150.0 
1.0 1.0 0.314226037626277 0.0 0.0 1:1.0 2:0.8571428571428571 3:97.0 
1.0 1.0 0.0 0.0 0.0 1:0.5384615384615384 2:1.0 3:90.0 
1.0 1.0 1.0 0.0 0.0 1:0.5384615384615384 2:0.2 3:54.0 
1.0 1.0 1.0 0.0 0.0 1:0.15384615384615385 2:0.0 3:40.0 
1.0 1.0 1.0 0.0 0.0 1:0.46153846153846156 2:0.6 3:73.0 
1.0 1.0 0.0 0.0 0.0 1:0.15384615384615385 2:0.2 3:30.0 
1.0 1.0 1.0 0.0 0.0 1:0.46153846153846156 2:0.2 3:47.0 
1.0 1.0 0.0 0.0 0.0 1:1.0 2:0.8 3:106.0 
0.0 1.0 0.5133050369832353 0.0 0.0 1:0.8461538461538461 2:0.4 3:107.0 
1.0 1.0 0.7005528552254914 0.0 0.0 1:0.0 2:0.4 3:22.0 
1.0 1.0 0.0 0.0 0.0 1:0.2727272727272727 2:0.0 3:19.0 
1.0 1.0 0.0 0.0 0.0 1:0.18181818181818182 2:0.3333333333333333 3:13.0 
1.0 1.0 1.0 0.0 0.0 1:0.26666666666666666 2:0.5 3:94.0 
1.0 1.0 0.477756483267731 0.018943502262776413 0.0 1:1.2333333333333334 2:3.5 3:402.0 
1.0 1.0 0.6155872463266461 0.022107989508201253 0.0 1:1.1 2:3.0 3:354.0 
1.0 1.0 0.0 0.0 0.0 1:0.5666666666666667 2:2.5 3:211.0 
1.0 1.0 0.0 0.0 0.0 1:0.13333333333333333 2:0.75 3:46.0 
1.0 1.0 0.0 0.0 0.0 1:0.4 2:0.75 3:122.0 
1.0 1.0 1.0 0.0 0.0 1:0.43333333333333335 2:1.25 3:136.0 
1.0 1.0 1.0 0.0 0.0 1:0.4 2:0.25 3:95.0 
1.0 1.0 0.0 0.0 0.0 1:0.2 2:1.25 3:68.0 
1.0 1.0 0.5645690029198249 0.021929571001351844 0.0 1:1.0666666666666667 2:5.25 3:425.0 
1.0 1.0 0.5752370881677644 0.0 0.0 1:0.2 2:0.25 3:110.0 
1.0 1.0 1.0 8.98047546816716E-4 0.0 1:0.6333333333333333 2:1.25 3:161.0 
1.0 1.0 0.0 0.0 0.0 1:0.3 2:0.5 3:287.0 
1.0 1.0 0.010692734750076201 0.0 0.0 1:0.03333333333333333 2:0.5 3:24.0 
1.0 1.0 1.0 0.0 0.0 1:0.0 2:0.0 3:17.0 
1.0 1.0 1.0 0.2114188179494154 0.0 1:0.06666666666666667 2:0.0 3:30.0 
1.0 1.0 0.5083762617479141 0.01992382467986903 0.0 1:1.2333333333333334 2:3.75 3:422.0 
1.0 1.0 0.5903044539754353 0.022919662988653944 0.0 1:1.5 2:6.75 3:549.0 
1.0 1.0 0.23024159827686957 0.0 0.0 1:0.5333333333333333 2:2.25 3:173.0 
1.0 1.0 1.0 0.0 0.0 1:0.06666666666666667 2:0.25 3:37.0 
1.0 1.0 0.47200994283045317 0.0 0.0 1:0.13333333333333333 2:0.5 3:46.0 
1.0 1.0 0.95173286508374 0.022746274114401444 0.0 1:0.8333333333333334 2:3.75 3:370.0 
1.0 1.0 0.9715361263218151 0.0 0.0 1:0.625 2:1.2 3:96.0 
0.0 1.0 0.7900172597473958 0.0 0.0 1:0.05 2:0.0 3:4.0 
1.0 1.0 0.0 0.0 0.0 1:0.23076923076923078 2:0.0 3:19.0 
1.0 1.0 0.4842913567805134 0.0 0.0 1:0.68 2:1.6 3:231.0 
1.0 1.0 1.0 0.0025117159490731233 0.0 1:0.6666666666666666 2:2.0 3:31.0 
0.8480072890563085 1.0 0.0 0.0 0.0 1:0.4 2:0.0 3:10.0 
1.0 1.0 1.0 0.24486393618647245 0.0 1:1.2 2:0.2 3:55.0 
1.0 1.0 1.0 0.2430804513458954 0.0 1:2.2 2:1.4 3:154.0 
1.0 1.0 1.0 0.0 0.0 1:1.6 2:0.4 3:95.0 
1.0 1.0 1.0 0.0 0.0 1:1.6 2:0.4 3:67.0 
1.0 1.0 0.30121085030030104 0.0 0.0 1:0.058823529411764705 2:0.16666666666666666 3:16.0 
1.0 1.0 1.0 0.0 0.0 1:0.058823529411764705 2:0.16666666666666666 3:21.0 
1.0 1.0 1.0 0.0 0.0 1:0.11764705882352941 2:0.16666666666666666 3:29.0 
1.0 1.0 1.0 0.0 0.0 1:0.23529411764705882 2:0.6666666666666666 3:93.0 
0.0 1.0 0.0 0.0 0.0 1:0.11764705882352941 2:0.0 3:9.0 
1.0 1.0 0.0 0.0 0.0 1:0.5294117647058824 2:0.8333333333333334 3:111.0 
1.0 1.0 1.0 0.0 0.0 1:1.0 2:0.8333333333333334 3:138.0 
1.0 1.0 0.0 0.0 0.0 1:0.29411764705882354 2:0.5 3:37.0 
1.0 1.0 1.0 0.0 0.0 1:0.23529411764705882 2:0.3333333333333333 3:51.0 
1.0 1.0 1.0 0.0 0.0 1:0.17647058823529413 2:0.6666666666666666 3:33.0 
1.0 1.0 0.0 0.0 0.0 1:0.058823529411764705 2:0.3333333333333333 3:14.0 
1.0 1.0 0.0 0.0 0.0 1:0.5882352941176471 2:1.0 3:105.0 
1.0 1.0 1.0 0.0 0.0 1:0.23529411764705882 2:0.5 3:38.0 
1.0 1.0 1.0 0.0 0.0 1:0.29411764705882354 2:0.5 3:83.0 
1.0 1.0 0.0 0.0 0.0 1:0.5882352941176471 2:0.6666666666666666 3:76.0 
1.0 1.0 0.0 0.0 0.0 1:0.058823529411764705 2:0.16666666666666666 3:15.0 
1.0 1.0 1.0 0.0 0.0 1:0.058823529411764705 2:0.16666666666666666 3:23.0 
1.0 1.0 0.0 0.0 0.0 1:0.11764705882352941 2:0.16666666666666666 3:20.0 
1.0 1.0 0.692448776697084 0.0 0.0 1:0.23529411764705882 2:0.3333333333333333 3:64.0 
1.0 1.0 1.0 0.0 0.0 1:0.35294117647058826 2:0.8333333333333334 3:98.0 
1.0 1.0 0.0 0.0 0.0 1:0.23529411764705882 2:0.16666666666666666 3:31.0 
1.0 1.0 0.0 0.0 0.0 1:0.23529411764705882 2:0.5 3:46.0 
1.0 1.0 0.0 0.0 0.0 1:0.17647058823529413 2:0.16666666666666666 3:28.0 
1.0 1.0 1.0 0.0 0.0 1:0.29411764705882354 2:0.8333333333333334 3:67.0 
1.0 1.0 1.0 0.0 0.0 1:0.875 2:0.3333333333333333 3:76.0 
1.0 1.0 1.0 0.0 0.0 1:0.25 2:0.3333333333333333 3:34.0 
1.0 1.0 1.0 0.0 0.0 1:0.4 2:0.5555555555555556 3:74.0 
1.0 1.0 1.0 0.0025095339051516286 0.0 1:0.8 2:1.8888888888888888 3:171.0 
1.0 1.0 0.0 0.0 0.0 1:0.4 2:0.2222222222222222 3:52.0 
1.0 1.0 1.0 0.0 0.0 1:1.1 2:0.8888888888888888 3:164.0 
1.0 1.0 1.0 0.0 0.0 1:1.0 2:0.3333333333333333 3:149.0 
1.0 1.0 1.0 0.0 0.0 1:0.3 2:0.2222222222222222 3:51.0 
1.0 1.0 0.0 0.0 0.0 1:0.38461538461538464 2:0.125 3:71.0 
1.0 1.0 1.0 0.0 0.0 1:0.38461538461538464 2:0.375 3:98.0 
1.0 1.0 0.3575303473924077 1.0 0.0 1:1.6153846153846154 2:0.0 3:99.0 
1.0 1.0 1.0 0.0 0.0 1:0.07692307692307693 2:0.0 3:8.0 
1.0 1.0 0.0 0.0 0.0 1:0.15384615384615385 2:0.0 3:18.0 
1.0 1.0 1.0 0.0 0.0 1:0.6153846153846154 2:0.375 3:99.0 
1.0 1.0 1.0 0.0 0.0 1:0.7692307692307693 2:0.25 3:158.0 
1.0 1.0 0.0 0.007072796636787119 0.0 1:0.6153846153846154 2:0.375 3:116.0 
1.0 1.0 0.1742846001342753 0.8306489340109603 0.0 1:0.15384615384615385 2:0.0 3:22.0 
1.0 1.0 0.0 0.0 0.0 1:0.38461538461538464 2:0.25 3:39.0 
1.0 1.0 0.0 0.007871267998782041 0.0 1:0.6923076923076923 2:0.625 3:255.0 
0.8146710420215898 1.0 0.38188078416224835 0.016064726909643015 0.0 1:0.75 2:0.0 3:280.0 
1.0 1.0 0.0 0.0 0.0 1:0.3125 2:2.0 3:56.0 
1.0 1.0 0.0 0.0 0.0 1:0.5555555555555556 2:0.14285714285714285 3:39.0 
1.0 1.0 0.0 0.0 0.0 1:0.1111111111111111 2:0.14285714285714285 3:17.0 
0.0 1.0 0.0 0.0 0.0 1:0.18181818181818182 2:0.0 3:9.0 
1.0 1.0 0.7385893676812542 0.0 0.0 1:0.6363636363636364 2:0.5 3:53.0 
1.0 1.0 0.5764551453527468 0.02227574799953913 0.0 1:1.8181818181818181 2:1.0 3:458.0 
1.0 1.0 0.0 0.0 0.0 1:0.7272727272727273 2:1.3333333333333333 3:100.0 
1.0 1.0 0.0 0.0 0.0 1:0.1111111111111111 2:1.0 3:35.0 
1.0 1.0 1.0 0.0 0.0 1:0.5555555555555556 2:0.25 3:59.0 
1.0 1.0 0.5246730661669674 0.020497979378914177 0.0 1:1.6666666666666667 2:1.7272727272727273 3:425.0 
1.0 1.0 0.0 0.0 0.0 1:0.19047619047619047 2:0.09090909090909091 3:42.0 
0.8822315256944766 1.0 0.44007580817604885 0.00901940405811244 0.0 1:1.619047619047619 2:1.3636363636363635 3:391.0 
1.0 1.0 0.0 0.0 0.0 1:0.14285714285714285 2:0.09090909090909091 3:31.0 
1.0 1.0 1.0 0.007582860218481804 0.0 1:0.6190476190476191 2:0.36363636363636365 3:135.0 
1.0 1.0 0.7938603502049861 0.02168084775599964 0.0 1:5.666666666666667 2:0.0 3:164.0 
1.0 1.0 0.5857245762707283 0.022677069645670456 0.0 1:2.45 2:2.1538461538461537 3:624.0 
1.0 1.0 1.0 0.0 0.0 1:0.9166666666666666 2:1.6666666666666667 3:106.0 
1.0 1.0 0.0 0.0 0.0 1:0.16 2:0.1111111111111111 3:42.0 
1.0 1.0 0.0 0.0 0.0 1:0.16 2:0.1111111111111111 3:32.0 
1.0 1.0 1.0 0.0 0.0 1:0.2 2:1.0 3:107.0 
1.0 1.0 1.0 0.13850856530067926 0.0 1:0.0 2:0.1111111111111111 3:18.0 
1.0 1.0 0.0 0.0 0.0 1:0.72 2:0.6666666666666666 3:203.0 
1.0 1.0 1.0 0.0 0.0 1:0.5 2:1.0 3:24.0 
1.0 1.0 1.0 0.02220342834120148 0.0 1:1.6 2:3.5 3:190.0 
1.0 0.29495237500338434 0.0 0.0 0.0 1:0.4090909090909091 2:0.3333333333333333 3:257.0 
1.0 1.0 0.0 0.0 0.0 1:0.047619047619047616 2:0.125 3:15.0 
1.0 1.0 0.0 0.0 0.0 1:0.09090909090909091 2:0.0 3:10.0 
1.0 1.0 1.0 0.0 0.0 1:0.5555555555555556 2:1.5 3:72.0 
1.0 1.0 0.0 0.0 0.0 1:1.0 2:1.0 3:53.0 
0.5104337471966798 1.0 0.0 0.0 0.0 1:2.25 2:3.0 3:118.0 
1.0 1.0 0.5905118441745326 0.02294419658173852 0.0 1:10.5 2:18.5 3:604.0 
1.0 1.0 0.7687988321956645 0.014964990753656371 0.0 1:2.0 2:5.0 3:145.0 
1.0 1.0 1.0 0.0 0.0 1:0.75 2:0.0 3:26.0 
1.0 1.0 0.2471566383566361 0.0 0.0 1:0.75 2:1.5 3:39.0 
1.0 1.0 0.0 0.0 0.0 1:0.25 2:0.0 3:19.0 
1.0 1.0 0.425919543249822 0.008952339564467976 0.0 1:2.0 2:2.0 3:44.0 
0.7260640580067933 1.0 1.0 0.014474277864349683 0.0 1:0.625 2:4.0 3:47.0 
1.0 1.0 1.0 0.24165804375568747 0.0 1:0.875 2:1.0 3:62.0 
1.0 1.0 0.0 0.0 0.0 1:0.25 2:2.0 3:39.0 
1.0 1.0 0.0 0.0 0.0 1:1.25 2:0.6666666666666666 3:97.0 
1.0 1.0 1.0 0.0 0.0 1:1.6666666666666667 2:0.25 3:44.0 
1.0 1.0 0.0 0.0 0.0 1:0.5384615384615384 2:0.42857142857142855 3:65.0 
1.0 1.0 0.0 0.0 0.0 1:0.23076923076923078 2:0.0 3:24.0 
1.0 1.0 1.0 0.0 0.0 1:1.8571428571428572 2:1.6666666666666667 3:150.0 
1.0 1.0 1.0 0.0 0.0 1:2.2857142857142856 2:1.3333333333333333 3:139.0 
1.0 1.0 0.11446584382436292 0.007526572732626215 0.0 1:3.142857142857143 2:2.3333333333333335 3:247.0 
1.0 1.0 0.0 0.02011276208932455 0.0 1:1.0 2:0.0 3:17.0 
1.0 1.0 1.0 0.0 0.0 1:0.6666666666666666 2:0.0 3:20.0 
0.0 1.0 1.0 0.23127941795077783 0.0 1:2.0 2:0.0 3:65.0 
0.5881437565063459 1.0 0.6366511964574995 0.0060731901361663065 0.0 1:2.3333333333333335 2:5.0 3:153.0 
1.0 1.0 0.9158492883708663 0.0 0.0 1:0.4 2:1.5 3:56.0 
0.005276580223446215 0.8093425162913376 0.0019800478907903863 0.0 0.0 1:2.0 2:0.0 3:7.0 
0.5566377545514611 1.0 0.0 0.018966066538835525 0.0 1:5.0 2:2.5 3:77.0 
1.0 1.0 1.0 0.14345461223485417 0.0 1:2.2 2:0.0 3:93.0 
1.0 1.0 0.0 0.0 0.0 1:0.4 2:0.0 3:22.0 
1.0 1.0 0.46259044459635734 0.0 0.0 1:0.3125 2:1.0 3:61.0 
1.0 1.0 0.0 0.0 0.0 1:0.1111111111111111 2:0.6666666666666666 3:25.0 
1.0 1.0 0.931537418556508 0.0 0.0 1:0.8333333333333334 2:2.0 3:102.0 
1.0 1.0 0.36966587544764407 0.01520974351758797 0.0 1:2.0 2:3.5 3:249.0 
1.0 1.0 0.0 0.0 0.0 1:0.3888888888888889 2:0.6666666666666666 3:65.0 
1.0 1.0 1.0 0.0 0.0 1:0.25 2:0.0 3:27.0 
1.0 1.0 0.4813775822545068 0.0 0.0 1:0.5 2:0.0 3:25.0 
1.0 1.0 0.5348818583898248 0.0 0.0 1:0.0 2:0.0 3:64.0 
1.0 1.0 1.0 0.0 0.0 1:0.36363636363636365 2:0.0 3:27.0 
1.0 1.0 0.9789398411058831 0.0 0.0 1:0.047619047619047616 2:0.3333333333333333 3:27.0 
1.0 1.0 1.0 0.0 0.0 1:0.6428571428571429 2:0.0 3:70.0 
1.0 1.0 0.7050984710577167 0.8714188725088835 0.0 1:0.14285714285714285 2:0.0 3:14.0 
1.0 1.0 0.0 0.0 0.0 1:0.8333333333333334 2:0.8333333333333334 3:56.0 
1.0 1.0 0.0 0.0 0.0 1:0.0 2:1.0 3:13.0 
1.0 1.0 0.34710474569165817 0.0 0.0 1:0.3333333333333333 2:0.25 3:20.0 
1.0 1.0 1.0 0.0 0.0 1:0.6666666666666666 2:0.5 3:55.0 
1.0 1.0 1.0 0.0 0.0 1:0.5 2:0.0 3:27.0 
0.0 1.0 0.0 0.0 0.0 1:0.3333333333333333 2:0.0 3:11.0 
1.0 1.0 0.11241988423588692 0.0 0.0 1:2.0 2:0.75 3:115.0 
1.0 1.0 0.0 0.0 0.0 1:0.6666666666666666 2:0.5 3:37.0 
1.0 1.0 0.0 0.0 0.0 1:0.3333333333333333 2:0.0 3:21.0 
1.0 1.0 1.0 0.0 0.0 1:0.6666666666666666 2:0.0 3:43.0 
1.0 1.0 1.0 0.0 0.0 1:0.3157894736842105 2:0.7142857142857143 3:102.0 
1.0 1.0 0.0 0.055258848346532365 0.0 1:0.15789473684210525 2:0.5714285714285714 3:41.0 
1.0 1.0 1.0 0.0 0.0 1:0.3684210526315789 2:0.2857142857142857 3:72.0 
1.0 1.0 0.0 0.0 0.0 1:0.21052631578947367 2:0.14285714285714285 3:26.0 
1.0 1.0 1.0 0.0 0.0 1:0.6666666666666666 2:0.5 3:95.0 
1.0 1.0 0.0 0.0 0.0 1:0.2222222222222222 2:0.25 3:31.0 
1.0 1.0 0.0 0.0 0.0 1:0.5 2:0.0 3:14.0 
1.0 1.0 0.0 0.0 0.0 1:0.5 2:0.0 3:14.0 
1.0 1.0 0.0 0.0 0.0 1:0.5 2:0.0 3:14.0 
1.0 1.0 1.0 0.0 0.0 1:1.5 2:0.0 3:60.0 
1.0 1.0 0.0 0.0 0.0 1:0.5 2:0.6666666666666666 3:22.0 
1.0 1.0 0.0 0.0 0.0 1:0.25 2:1.0 3:19.0 
1.0 1.0 0.8975705778090824 0.0 0.0 1:0.5 2:0.3333333333333333 3:23.0 
1.0 1.0 0.0 0.0 0.0 1:0.75 2:1.0 3:47.0 
1.0 1.0 0.7877020586680188 0.008586686889281917 0.0 1:0.0 2:1.0 3:222.0 
1.0 1.0 1.0 0.0 0.0 1:0.3333333333333333 2:0.8 3:119.0 
1.0 1.0 0.7956050854924079 0.014795110684469037 0.0 1:1.7333333333333334 2:0.75 3:292.0 
1.0 1.0 0.0 0.15455134163098977 0.0 1:0.06666666666666667 2:0.125 3:22.0 
0.7041560924320013 1.0 0.3598714291521179 0.013877760570482955 0.0 1:3.8666666666666667 2:2.5 3:614.0 
1.0 1.0 1.0 0.0 0.0 1:0.4666666666666667 2:0.5 3:85.0 
1.0 1.0 0.0 0.0 0.0 1:0.26666666666666666 2:0.125 3:27.0 
1.0 1.0 1.0 0.0 0.0 1:0.8 2:0.75 3:133.0 
1.0 1.0 1.0 0.0 0.0 1:0.6666666666666666 2:1.5 3:169.0 
1.0 1.0 0.0 0.0 0.0 1:0.13333333333333333 2:0.125 3:12.0 
0.9978275302302796 1.0 0.5005696824988145 0.019450082625634524 0.0 1:3.2666666666666666 2:2.0 3:612.0 
1.0 1.0 1.0 0.0 0.0 1:0.3333333333333333 2:0.375 3:75.0 
1.0 1.0 0.0 0.0 0.0 1:0.4666666666666667 2:0.75 3:122.0 
1.0 1.0 1.0 0.007148050311570883 0.0 1:0.7333333333333333 2:0.5 3:247.0 
1.0 1.0 0.0 0.0 0.0 1:0.13333333333333333 2:0.0 3:19.0 
1.0 1.0 1.0 0.0 0.0 1:0.13333333333333333 2:0.0 3:21.0 
1.0 1.0 1.0 0.0 0.0 1:0.13333333333333333 2:0.25 3:36.0 
1.0 1.0 0.0 0.0 0.0 1:0.06666666666666667 2:0.125 3:15.0 
1.0 1.0 0.6786492531548068 0.0 0.0 1:0.1875 2:0.25 3:48.0 
1.0 1.0 0.9069765073444742 0.03922346406592323 0.0 1:1.0 2:0.3333333333333333 3:46.0 
1.0 1.0 0.0 0.0 0.0 1:0.7142857142857143 2:1.0 3:106.0 
1.0 1.0 0.0 0.0 0.0 1:0.25 2:0.05263157894736842 3:22.0 
1.0 1.0 0.0 0.0 0.0 1:0.25 2:0.10526315789473684 3:28.0 
1.0 1.0 0.0 0.0 0.0 1:0.08333333333333333 2:0.21052631578947367 3:44.0 
1.0 1.0 1.0 0.0 0.0 1:0.5833333333333334 2:0.3684210526315789 3:109.0 
1.0 1.0 0.0 0.0 0.0 1:0.3333333333333333 2:0.05263157894736842 3:32.0 
1.0 1.0 1.0 0.0 0.0 1:1.375 2:0.6 3:87.0 
1.0 1.0 0.0 0.0 0.0 1:0.0 2:0.2 3:12.0 
1.0 1.0 0.5905534015464654 0.022469288555390654 0.0 1:3.0 2:9.0 3:236.0 
1.0 1.0 0.0 0.04473250623441836 0.0 1:0.14285714285714285 2:1.0 3:41.0 
1.0 1.0 1.0 0.04530264501369803 0.0 1:1.2857142857142858 2:2.0 3:174.0 
1.0 1.0 0.0 0.0 0.0 1:0.3333333333333333 2:0.18181818181818182 3:30.0 
1.0 1.0 0.3720544455984388 0.0 0.0 1:0.5625 2:0.5 3:89.0 
1.0 1.0 0.9342531514621523 0.003657556914556284 0.0 1:3.0 2:0.0 3:45.0 
1.0 1.0 1.0 0.0016635093278613657 0.0 1:2.0 2:1.0 3:36.0 
1.0 1.0 0.6338236637521758 0.003101770521974822 0.0 1:2.5 2:2.0 3:57.0 
1.0 1.0 0.0 0.0 0.0 1:0.5 2:1.0 3:13.0 
1.0 1.0 1.0 0.014540741556705039 0.0 1:0.0 2:0.0 3:19.0 
1.0 1.0 1.0 0.0 0.0 1:0.23076923076923078 2:0.5 3:70.0 
0.0 1.0 0.0 0.0 0.0 1:0.07692307692307693 2:0.0 3:4.0 
1.0 1.0 0.0 0.0 0.0 1:0.3076923076923077 2:0.5 3:77.0 
1.0 1.0 1.0 0.0 0.0 1:0.15384615384615385 2:0.625 3:67.0 
1.0 1.0 1.0 0.0 0.0 1:0.23076923076923078 2:0.5 3:82.0 
1.0 1.0 0.0 0.0 0.0 1:0.7692307692307693 2:0.25 3:87.0 
1.0 1.0 0.0 0.0 0.0 1:0.5263157894736842 2:0.07692307692307693 3:117.0 
1.0 1.0 0.3753729080552711 0.016438963449963595 0.0 1:1.3157894736842106 2:1.2307692307692308 3:343.0 
0.0 1.0 0.0 0.0 0.0 1:1.0526315789473684 2:0.15384615384615385 3:230.0 
0.0 0.45315831717016314 0.0 0.0 0.0 1:1.2105263157894737 2:0.23076923076923078 3:263.0 
1.0 1.0 0.0 0.0 0.0 1:0.21052631578947367 2:0.15384615384615385 3:37.0 
0.0 1.0 0.0 0.0 0.0 1:1.2105263157894737 2:0.23076923076923078 3:263.0 
0.12501781577130974 1.0 0.0 0.0 0.0 1:1.0526315789473684 2:0.15384615384615385 3:230.0 
0.0 1.0 0.3386365772045073 0.0 0.0 1:1.2105263157894737 2:0.23076923076923078 3:263.0 
1.0 1.0 0.0 0.0 0.0 1:1.0526315789473684 2:0.15384615384615385 3:230.0 
0.0 1.0 1.0 0.0 0.0 1:1.2105263157894737 2:0.23076923076923078 3:263.0 
1.0 1.0 0.0 0.0 0.0 1:1.0526315789473684 2:0.15384615384615385 3:230.0 
0.6140338629561618 1.0 1.0 0.0 0.0 1:1.2105263157894737 2:0.23076923076923078 3:263.0 
1.0 1.0 0.0 0.0 0.0 1:1.0526315789473684 2:0.15384615384615385 3:230.0 
0.9824132753857762 1.0 1.0 0.013415650325624973 0.0 1:1.2105263157894737 2:0.23076923076923078 3:263.0 
0.9591869289492471 1.0 0.6007072797264426 0.0 0.0 1:1.0526315789473684 2:0.15384615384615385 3:230.0 
1.0 1.0 0.0378987195465636 0.0 0.0 1:0.5555555555555556 2:0.125 3:128.0 
1.0 1.0 1.0 0.0 0.0 1:0.3333333333333333 2:0.75 3:91.0 
1.0 1.0 0.5526939166172185 0.004103292534396406 0.0 1:2.6 2:1.0 3:133.0 
1.0 1.0 0.0 0.0 0.0 1:0.4 2:0.0 3:22.0 
1.0 1.0 1.0 0.0 0.0 1:0.2 2:0.7142857142857143 3:58.0 
1.0 1.0 1.0 0.0 0.0 1:0.3333333333333333 2:0.2857142857142857 3:42.0 
1.0 1.0 0.0 0.0 0.0 1:0.26666666666666666 2:0.0 3:29.0 
1.0 1.0 0.7952288723702646 0.0 0.0 1:0.5333333333333333 2:1.0 3:103.0 
1.0 1.0 1.0 0.0 0.0 1:0.26666666666666666 2:0.2857142857142857 3:45.0 
1.0 1.0 0.13180839127793298 0.0 0.0 1:0.4 2:0.8571428571428571 3:97.0 
1.0 1.0 1.0 0.0 0.0 1:0.26666666666666666 2:0.0 3:20.0 
1.0 1.0 0.5587235764707449 0.0 0.0 1:0.4 2:0.5714285714285714 3:67.0 
1.0 1.0 1.0 0.0 0.0 1:0.26666666666666666 2:0.2857142857142857 3:47.0 
1.0 1.0 0.738073096495137 0.0 0.0 1:0.3333333333333333 2:0.14285714285714285 3:39.0 
1.0 1.0 1.0 0.0 0.0 1:1.75 2:0.3333333333333333 3:61.0 
0.4222311889260968 1.0 0.195004922748192 0.007470533698260274 0.0 1:2.227272727272727 2:2.625 3:580.0 
1.0 1.0 0.0 0.0 0.0 1:1.6666666666666667 2:1.0 3:83.0 
1.0 1.0 0.5902445622020059 0.022832770847571682 0.0 1:5.666666666666667 2:18.0 3:258.0 
0.6768897233125389 1.0 0.3682505229147113 0.011791402299573706 0.0 1:1.0 2:5.0 3:57.0 
1.0 1.0 0.5916401723060105 0.023291282661626833 0.0 1:2.0 2:9.0 3:106.0 
1.0 1.0 1.0 0.0 0.0 1:2.3333333333333335 2:2.0 3:54.0 
1.0 0.3183783463097643 0.0 0.0 0.0 1:0.6666666666666666 2:4.0 3:56.0 
1.0 1.0 0.0 0.0 0.0 1:0.3333333333333333 2:2.0 3:39.0 
0.8497319548061443 0.8211185077108218 0.04196679479464177 0.009824595153557047 0.0 1:2.6666666666666665 2:6.0 3:97.0 
1.0 1.0 0.0 0.0 0.0 1:1.0 2:1.0 3:33.0 
1.0 1.0 0.41172243346156306 0.0 0.0 1:2.6666666666666665 2:2.0 3:52.0 
1.0 1.0 1.0 0.0 0.0 1:2.6666666666666665 2:2.0 3:78.0 
1.0 1.0 0.5904583719534597 0.023311544385583527 0.0 1:5.333333333333333 2:18.0 3:237.0 
1.0 1.0 0.5848891699079777 0.02263970925315678 0.0 1:7.333333333333333 2:10.0 3:269.0 
1.0 1.0 0.0 0.0 0.0 1:1.0 2:2.0 3:47.0 
1.0 1.0 1.0 0.0 0.0 1:1.0 2:1.0 3:22.0 
1.0 1.0 0.08941034982937782 0.0 0.0 1:1.6666666666666667 2:2.0 3:55.0 
0.0 1.0 0.0 0.0 0.0 1:2.0 2:1.0 3:56.0 
1.0 1.0 0.2933318859997899 0.0 0.0 1:1.6666666666666667 2:3.0 3:56.0 
1.0 1.0 0.8249323881889942 0.0 0.0 1:4.0 2:2.0 3:98.0 
1.0 1.0 0.06534765926035759 0.0 0.0 1:0.5 2:0.4166666666666667 3:116.0 
0.0 1.0 1.0 0.0 0.0 1:0.625 2:0.4166666666666667 3:107.0 
1.0 1.0 0.0 0.0 0.0 1:0.2222222222222222 2:0.4 3:43.0 
1.0 1.0 1.0 0.6644279112890488 0.0 1:1.5 2:0.6666666666666666 3:233.0 
0.9476616322087783 1.0 0.4146769327105767 0.016664567082709802 0.0 1:1.4705882352941178 2:0.38461538461538464 3:383.0 
1.0 1.0 0.0 0.0 0.0 1:1.0 2:0.2222222222222222 3:118.0 
1.0 1.0 0.901871145209044 0.11986943615992923 0.0 1:1.0 2:0.2222222222222222 3:118.0 
1.0 1.0 0.6195307935161202 0.022935226204808368 0.0 1:3.857142857142857 2:4.5 3:766.0 
1.0 1.0 1.0 0.0 0.0 1:0.35714285714285715 2:0.0 3:44.0 
1.0 1.0 1.0 0.0 0.0 1:0.21428571428571427 2:0.5 3:26.0 
1.0 1.0 0.0 0.0 0.0 1:0.4444444444444444 2:0.6666666666666666 3:51.0 
1.0 1.0 1.0 0.005145078657680546 0.0 1:0.8666666666666667 2:1.75 3:135.0 
1.0 1.0 1.0 0.0 0.0 1:1.0 2:0.75 3:154.0 
1.0 1.0 1.0 0.0058566487814568375 0.0 1:0.8666666666666667 2:1.0 3:162.0 
1.0 1.0 0.0 0.0 0.0 1:0.75 2:1.0 3:69.0 
1.0 1.0 1.0 0.0 0.0 1:0.5555555555555556 2:0.3333333333333333 3:59.0 
1.0 1.0 0.7872038790666812 0.0 0.0 1:0.1111111111111111 2:0.0 3:18.0 
1.0 1.0 0.12556884640052024 0.0 0.0 1:0.23076923076923078 2:0.0 3:89.0 
1.0 1.0 1.0 0.0 0.0 1:0.5384615384615384 2:0.0 3:63.0 
1.0 1.0 0.0 0.0 0.0 1:1.6666666666666667 2:1.6666666666666667 3:104.0 
1.0 1.0 0.7298034885959784 0.0 0.0 1:1.6666666666666667 2:1.6666666666666667 3:104.0 
1.0 1.0 1.0 0.0 0.0 1:0.6 2:0.0 3:21.0 
1.0 1.0 0.0 0.0 0.0 1:0.6666666666666666 2:0.5 3:34.0 
1.0 1.0 0.3754082759995187 0.0 0.0 1:0.6666666666666666 2:0.5 3:52.0 
1.0 1.0 1.0 0.0 0.0 1:0.6666666666666666 2:1.5 3:70.0 
1.0 1.0 0.5819706937550215 0.02247495724771298 0.0 1:0.6666666666666666 2:1.0 3:364.0 
1.0 1.0 1.0 0.011208858969525282 0.0 1:2.3333333333333335 2:1.5 3:110.0 
1.0 1.0 0.0 0.0 0.0 1:0.5 2:0.5 3:32.0 
0.8402716469213195 1.0 0.0 0.0 0.0 1:0.18181818181818182 2:0.0 3:6.0 
1.0 1.0 1.0 0.0 0.0 1:0.5454545454545454 2:1.5 3:137.0 
1.0 1.0 1.0 0.0 0.0 1:0.2727272727272727 2:1.5 3:59.0 
0.9846533505545824 1.0 0.6309963192187658 0.0 0.0 1:1.0 2:1.0 3:34.0 
1.0 1.0 0.0 0.0 0.0 1:0.631578947368421 2:0.5 3:122.0 
1.0 1.0 1.0 0.020618329719936806 0.0 1:1.5 2:0.3333333333333333 3:46.0 
1.0 1.0 0.0 0.0 0.0 1:0.5 2:1.6666666666666667 3:44.0 
1.0 1.0 1.0 0.0 0.0 1:2.25 2:1.3333333333333333 3:76.0 
1.0 1.0 1.0 0.0 0.0 1:0.11764705882352941 2:0.1111111111111111 3:13.0 
1.0 1.0 0.0 0.0 0.0 1:0.6666666666666666 2:0.0 3:30.0 
1.0 1.0 0.5256525046283222 0.0 0.0 1:0.5833333333333334 2:0.25 3:50.0 
1.0 1.0 0.0 0.0 0.0 1:1.4166666666666667 2:0.0 3:121.0 
1.0 1.0 0.48581268454570103 0.0017551362246113757 0.0 1:0.6551724137931034 2:1.1818181818181819 3:271.0 
1.0 1.0 0.5764900677269348 0.022268758367434804 0.0 1:1.2758620689655173 2:2.3636363636363638 3:461.0 
1.0 1.0 0.0 0.0 0.0 1:1.0 2:1.5 3:89.0 
1.0 1.0 0.0 0.0 0.0 1:1.1428571428571428 2:0.5 3:97.0 
1.0 1.0 0.40408850571120936 0.0 0.0 1:0.5714285714285714 2:0.75 3:37.0 
1.0 1.0 0.0 0.0 0.0 1:0.23529411764705882 2:0.125 3:37.0 
1.0 1.0 1.0 0.0 0.0 1:0.4117647058823529 2:0.125 3:101.0 
1.0 1.0 1.0 0.010882891869464603 0.0 1:0.4117647058823529 2:1.25 3:150.0 
1.0 1.0 0.0 0.0 0.0 1:0.11764705882352941 2:0.25 3:26.0 
1.0 1.0 1.0 0.0 7.805470220488904E-4 1:0.42857142857142855 2:1.0 3:20.0 
1.0 1.0 1.0 0.008038419723511816 0.0 1:0.5 2:0.6363636363636364 3:124.0 
1.0 1.0 0.0 0.0 0.0 1:0.1111111111111111 2:0.18181818181818182 3:26.0 
1.0 1.0 0.0783722750455764 0.006656719919193643 0.0 1:1.4444444444444444 2:5.0 3:140.0 
1.0 1.0 0.0 0.0 0.0 1:0.7777777777777778 2:2.0 3:76.0 
1.0 1.0 0.0 0.0 0.0 1:0.7777777777777778 2:3.0 3:90.0 
1.0 1.0 1.0 0.0 0.0 1:2.0 2:0.6 3:84.0 
1.0 1.0 1.0 0.0 0.0 1:1.25 2:0.8 3:62.0 
1.0 1.0 1.0 0.0 0.0 1:0.5 2:0.0 3:21.0 
1.0 1.0 0.8902343119568771 0.003690908560352757 0.0 1:0.3333333333333333 2:0.21428571428571427 3:95.0 
1.0 1.0 1.0 0.0 0.0 1:0.7142857142857143 2:2.5 3:53.0 
1.0 1.0 0.15163263037524194 0.0 0.0 1:4.75 2:1.0 3:186.0 
1.0 1.0 0.9750480200615125 0.2696812720750129 0.0 1:4.75 2:1.0 3:186.0 
1.0 1.0 1.0 0.0 0.0 1:2.0 2:3.0 3:76.0 
0.5745440911335442 1.0 1.0 0.014057300437319654 0.0 1:3.0 2:3.0 3:298.0 
1.0 1.0 0.7642288105491528 0.0 0.0 1:1.0 2:1.0 3:30.0 
1.0 1.0 0.041776756901267025 0.002302871251297134 0.0 1:2.0 2:1.0 3:29.0 
1.0 1.0 0.9261021182529209 0.16086639826861507 0.0 1:1.2 2:0.0 3:67.0 
0.0 1.0 0.0 0.0 0.0 1:0.0 2:0.0 3:3.0 
1.0 1.0 0.0 0.0 0.0 1:0.2222222222222222 2:0.0 3:12.0 
1.0 1.0 0.0 0.0 0.0 1:1.5 2:0.0 3:71.0 
1.0 1.0 1.0 0.0 0.0 1:2.5 2:0.3333333333333333 3:124.0 
0.4470243374595815 1.0 0.9416038409932893 0.0212696136536647 0.0 1:1.0 2:0.0 3:106.0 
0.9200505568832315 1.0 1.0 0.011246994384496278 0.0 1:5.0 2:0.0 3:57.0 
0.7214624062624552 1.0 0.3647117772184891 0.013485303315192376 0.0 1:7.0 2:0.3333333333333333 3:94.0 
1.0 1.0 0.5365431255087885 0.0 0.0 1:4.0 2:1.0 3:102.0 
1.0 1.0 0.7297591504947254 0.0 0.0 1:1.3333333333333333 2:3.0 3:63.0 
1.0 1.0 0.0 0.0 0.0 1:1.1666666666666667 2:0.8 3:56.0 
1.0 1.0 1.0 0.0 0.0 1:0.5 2:0.5555555555555556 3:71.0 
1.0 1.0 0.0 0.0 0.0 1:0.625 2:0.5 3:39.0 
0.0 1.0 0.0 0.0 0.0 1:0.125 2:0.0 3:11.0 
1.0 1.0 0.0 0.0 0.0 1:0.05555555555555555 2:0.1 3:9.0 
1.0 1.0 1.0 0.0 0.0 1:0.2777777777777778 2:0.3 3:70.0 
1.0 1.0 0.0 0.0 0.0 1:0.16666666666666666 2:0.0 3:24.0 
1.0 1.0 0.0 0.0 0.0 1:0.14285714285714285 2:0.5 3:23.0 
1.0 1.0 0.4446424305572534 0.019223382207222806 0.0 1:1.3571428571428572 2:3.25 3:374.0 
1.0 1.0 1.0 0.0 0.0 1:0.35714285714285715 2:0.5 3:42.0 
1.0 1.0 0.0 0.0 0.0 1:0.5 2:0.2 3:22.0 
0.6745782649024753 1.0 1.0 0.0 0.0 1:1.75 2:1.0 3:107.0 
1.0 1.0 1.0 0.022507263078817508 0.0 1:5.25 2:1.6 3:289.0 
1.0 1.0 0.0 0.0 0.0 1:0.75 2:0.4 3:30.0 
0.5222212532767248 1.0 0.33280030118732096 0.011137023249040756 0.0 1:3.75 2:0.6 3:236.0 
1.0 1.0 1.0 0.12696072695099253 0.0 1:5.0 2:1.2 3:190.0 
1.0 1.0 1.0 0.0 0.0 1:1.0 2:0.0 3:29.0 
1.0 1.0 0.0 0.0 0.0 1:0.75 2:0.2 3:39.0 
1.0 1.0 0.0 0.0 0.0 1:0.5 2:0.2 3:23.0 
1.0 1.0 1.0 0.0 0.0 1:1.25 2:0.6 3:58.0 
1.0 1.0 0.0 0.0 0.0 1:0.5625 2:1.0 3:103.0 
1.0 1.0 0.5754763210361292 0.0 0.0 1:0.5 2:0.0 3:14.0 
1.0 1.0 1.0 1.0 0.0 1:1.0 2:0.0 3:56.0 
1.0 1.0 1.0 0.0 0.0 1:0.3181818181818182 2:0.3 3:90.0 
1.0 1.0 1.0 0.0 0.0 1:0.2727272727272727 2:0.4 3:116.0 
1.0 1.0 0.0 0.0 0.0 1:0.045454545454545456 2:0.1 3:12.0 
1.0 1.0 1.0 0.0 0.0 1:0.8636363636363636 2:0.5 3:176.0 
1.0 1.0 1.0 0.5710391780858207 0.0 1:0.22727272727272727 2:0.0 3:51.0 
1.0 1.0 0.0 0.0 0.0 1:0.13636363636363635 2:0.0 3:36.0 
1.0 1.0 1.0 0.0 0.0 1:0.45454545454545453 2:0.4 3:112.0 
0.0 1.0 0.0 0.0 0.0 1:2.5 2:0.0 3:56.0 
1.0 1.0 0.40088996443041885 0.015676334764890776 0.0 1:6.5 2:0.6666666666666666 3:199.0 
1.0 1.0 0.3365850509576785 0.018019200950152622 0.0 1:2.5 2:0.0 3:64.0 
0.1125296615859997 1.0 0.0 0.0 0.0 1:3.5 2:0.0 3:43.0 
1.0 1.0 0.0 0.0 0.0 1:1.6666666666666667 2:1.0 3:56.0 
1.0 1.0 1.0 0.0 0.0 1:0.1 2:0.15789473684210525 3:49.0 
1.0 1.0 1.0 0.0 0.0 1:0.2 2:0.2222222222222222 3:48.0 
1.0 1.0 0.0 0.0 0.0 1:0.15 2:0.2222222222222222 3:40.0 
1.0 1.0 0.0 0.0 0.0 1:0.5 2:0.0 3:13.0 
0.0 1.0 0.0 0.0 0.0 1:0.5 2:0.0 3:10.0 
1.0 1.0 1.0 0.0 0.0 1:0.5 2:2.0 3:49.0 
1.0 1.0 1.0 0.0 0.0 1:0.8333333333333334 2:1.0 3:66.0 
1.0 1.0 0.0 0.0 0.0 1:0.2222222222222222 2:0.0 3:19.0 
1.0 1.0 0.0 0.0 0.0 1:0.2222222222222222 2:0.4 3:32.0 
1.0 1.0 0.0 0.0 0.0 1:0.4444444444444444 2:0.0 3:31.0 
1.0 1.0 0.0 0.0 0.0 1:0.2222222222222222 2:0.0 3:15.0 
1.0 1.0 0.0 0.0 0.0 1:0.3333333333333333 2:0.8 3:58.0 
1.0 1.0 0.0 0.0 0.0 1:0.4444444444444444 2:0.07692307692307693 3:34.0 
1.0 1.0 0.711686515710281 0.0 0.0 1:0.0625 2:0.4 3:25.0 
1.0 1.0 1.0 0.0 0.0 1:0.4375 2:1.2 3:97.0 
0.0 1.0 0.0 0.0 0.0 1:0.125 2:0.0 3:9.0 
1.0 1.0 0.6177287290746302 0.02002030150623696 0.0 1:3.5 2:0.0 3:260.0 
1.0 1.0 1.0 0.0 0.0 1:0.2727272727272727 2:0.3333333333333333 3:41.0 
1.0 1.0 1.0 0.0 0.0 1:0.36363636363636365 2:0.2222222222222222 3:45.0 
1.0 1.0 0.4545838485548175 0.0 0.0 1:0.09090909090909091 2:0.2222222222222222 3:21.0 
1.0 1.0 1.0 0.7101054903654122 0.0 1:1.1818181818181819 2:0.1111111111111111 3:83.0 
1.0 1.0 1.0 0.0 0.0 1:0.5454545454545454 2:0.2222222222222222 3:64.0 
1.0 1.0 1.0 0.0 0.0 1:0.18181818181818182 2:0.4444444444444444 3:33.0 
1.0 1.0 0.0 0.0 0.0 1:0.14285714285714285 2:0.0 3:4.0 
1.0 1.0 1.0 0.0 0.0 1:0.06666666666666667 2:0.0 3:13.0 
1.0 1.0 1.0 0.0 0.0 1:0.5 2:0.75 3:66.0 
1.0 1.0 0.8932405459212029 0.0 0.0 1:0.25 2:0.25 3:224.0 
0.0 0.7982969788535377 0.0 0.0 0.0 1:5.0 2:0.0 3:54.0 
0.49845392741795413 0.987724344043144 0.0 0.0 0.0 1:5.0 2:0.0 3:54.0 
1.0 1.0 0.0 0.0 0.0 1:4.0 2:0.0 3:45.0 
1.0 1.0 1.0 0.0 0.0 1:1.0 2:0.0 3:78.0 
1.0 1.0 0.0 0.0 0.0 1:0.25 2:0.0 3:23.0 
1.0 1.0 0.0 0.0 0.0 1:0.25 2:0.0 3:10.0 
1.0 1.0 0.0 0.0 0.0 1:0.3333333333333333 2:0.125 3:22.0 
1.0 1.0 0.0 0.0 0.0 1:0.16666666666666666 2:0.125 3:15.0 
1.0 1.0 0.0 0.0 0.0 1:0.6666666666666666 2:0.125 3:26.0 
1.0 1.0 0.6042246697167556 0.019368279208006225 0.0 1:5.5 2:3.0 3:166.0 
1.0 1.0 0.5916683716082375 0.0 0.0 1:1.5 2:0.0 3:18.0 
0.0 1.0 0.0 0.0 0.0 1:6.5 2:1.0 3:125.0 
0.8707182304599829 1.0 0.5434506729875761 0.016868001589511298 0.0 1:6.5 2:1.0 3:125.0 
1.0 1.0 0.7521982603954676 0.0037579345898044432 0.0 1:1.5 2:1.0 3:40.0 
1.0 1.0 0.18907890390803536 0.010042279379433028 0.0 1:1.25 2:4.5 3:70.0 
1.0 1.0 0.31482982689199185 0.0 0.0 1:0.07142857142857142 2:0.0 3:10.0 
1.0 1.0 0.0 0.0 0.0 1:0.0 2:0.3333333333333333 3:9.0 
1.0 1.0 0.20306193170033254 0.0 0.0 1:0.15789473684210525 2:0.0 3:23.0 
1.0 1.0 0.34997150250760045 0.0 0.0 1:0.42105263157894735 2:0.42857142857142855 3:58.0 
1.0 1.0 0.4439756806008353 0.0 0.0 1:1.0 2:0.2 3:49.0 
1.0 1.0 1.0 0.0 0.0 1:0.4 2:0.0 3:38.0 
1.0 1.0 1.0 0.0 0.0 1:0.3333333333333333 2:0.42857142857142855 3:26.0 
1.0 1.0 0.6828377384429924 0.0 0.0 1:1.1111111111111112 2:1.0 3:136.0 
1.0 1.0 1.0 0.0 0.0 1:0.4444444444444444 2:0.2857142857142857 3:59.0 
1.0 1.0 1.0 0.0 0.0 1:0.3333333333333333 2:0.5714285714285714 3:56.0 
1.0 1.0 0.0 0.0 0.0 1:0.6666666666666666 2:1.0 3:105.0 
1.0 1.0 1.0 0.0 0.0 1:0.6666666666666666 2:0.42857142857142855 3:72.0 
1.0 1.0 0.6359921867892384 0.022898368033892114 0.0 1:5.333333333333333 2:3.142857142857143 3:648.0 
1.0 1.0 0.0 0.0 0.0 1:0.1111111111111111 2:0.14285714285714285 3:12.0 
1.0 1.0 0.83319639024265 0.0 0.0 1:2.3333333333333335 2:0.5714285714285714 3:210.0 
1.0 1.0 1.0 0.0 0.0 1:0.8888888888888888 2:0.42857142857142855 3:80.0 
1.0 1.0 1.0 0.0 0.0 1:0.4444444444444444 2:0.42857142857142855 3:49.0 
1.0 1.0 1.0 0.0 0.0 1:0.6 2:0.4166666666666667 3:103.0 
1.0 1.0 0.5905474871918187 0.02254656536176558 0.0 1:9.75 2:13.5 3:889.0 
1.0 1.0 0.0 0.0 0.0 1:0.375 2:0.5 3:47.0 
1.0 1.0 0.0 0.9140253612597279 0.0 1:0.375 2:0.5 3:46.0 
1.0 1.0 0.0 0.0 0.0 1:0.125 2:0.5 3:12.0 
1.0 1.0 0.0 0.0 0.0 1:0.375 2:2.0 3:56.0 
1.0 1.0 0.754258742819489 0.0 0.0 1:1.0 2:2.5 3:81.0 
1.0 1.0 1.0 0.007153746880513068 0.0 1:0.125 2:2.5 3:38.0 
1.0 1.0 0.8069666982024776 0.015605705039689638 0.0 1:2.090909090909091 2:1.1428571428571428 3:272.0 
1.0 1.0 1.0 0.0 0.0 1:1.0 2:0.8571428571428571 3:121.0 
1.0 1.0 1.0 0.0 0.0 1:1.0 2:1.0 3:40.0 
1.0 1.0 0.0 0.0 0.0 1:0.2 2:0.0 3:22.0 
0.834846988845563 1.0 0.470318542449639 0.018918198356689835 0.0 1:3.0 2:5.0 3:320.0 
1.0 1.0 0.0 0.0 0.0 1:0.2 2:0.0 3:4.0 
1.0 1.0 1.0 0.013249303990810438 0.0 1:0.6 2:0.0 3:46.0 
0.976863948619906 1.0 0.4877526370902897 0.01947199002733796 0.0 1:2.2 2:10.0 3:156.0 
0.9290794832115788 1.0 1.0 0.0 0.0 1:2.6 2:2.0 3:73.0 
1.0 1.0 1.0 0.014428755316623106 0.0 1:1.0 2:3.0 3:62.0 
1.0 1.0 1.0 0.0 0.0 1:0.9166666666666666 2:0.25 3:126.0 
1.0 1.0 1.0 0.0 0.0 1:0.6666666666666666 2:1.0 3:73.0 
1.0 1.0 0.2960871522194494 0.0 0.0 1:0.4444444444444444 2:0.6666666666666666 3:52.0 
1.0 1.0 1.0 0.0 0.0 1:1.0 2:1.1666666666666667 3:99.0 
1.0 1.0 0.0 0.0 0.0 1:1.2222222222222223 2:1.0 3:123.0 
1.0 1.0 0.0 0.0 0.0 1:0.0 2:0.3333333333333333 3:9.0 
1.0 1.0 1.0 0.0 0.006263258938837446 1:0.0 2:0.1 3:10.0 
1.0 1.0 1.0 0.0 0.0 1:0.35294117647058826 2:0.0 3:53.0 
1.0 1.0 0.0 0.0 0.0 1:0.5 2:0.0 3:24.0 
1.0 1.0 0.0 0.0 0.0 1:0.25 2:0.0 3:89.0 
1.0 1.0 0.0 0.0 0.0 1:0.2 2:0.2 3:20.0 
1.0 1.0 0.0 0.0 0.0 1:0.125 2:0.3333333333333333 3:10.0 
1.0 1.0 0.0 0.0 0.0 1:0.23076923076923078 2:0.3333333333333333 3:39.0 
1.0 1.0 1.0 0.733315602069502 0.0 1:0.6153846153846154 2:0.0 3:80.0 
1.0 1.0 0.0 0.0 0.0 1:0.6 2:0.0 3:35.0 
1.0 1.0 1.0 0.08088202377303831 0.0 1:2.4 2:0.6 3:119.0 
1.0 1.0 1.0 0.0 0.0 1:1.1818181818181819 2:0.3333333333333333 3:132.0 
0.0 1.0 0.3903164138768449 0.0 0.0 1:1.5 2:2.0 3:315.0 
1.0 1.0 0.0 0.0 0.0 1:0.14285714285714285 2:0.1111111111111111 3:17.0 
1.0 1.0 1.0 0.0 0.0 1:0.21428571428571427 2:0.3333333333333333 3:39.0 
1.0 1.0 0.5906451555210004 0.022652811251394234 0.0 1:2.0714285714285716 2:5.111111111111111 3:559.0 
1.0 1.0 1.0 0.0 0.0 1:0.42857142857142855 2:0.5555555555555556 3:129.0 
1.0 1.0 1.0 0.0036764027857170145 0.0 1:1.2857142857142858 2:2.2222222222222223 3:298.0 
1.0 1.0 1.0 0.0 0.0 1:0.21428571428571427 2:0.7777777777777778 3:75.0 
1.0 1.0 0.17355055537917655 8.89001745388529E-4 0.0 1:1.0 2:2.0 3:248.0 
1.0 1.0 1.0 0.0 0.0 1:0.26666666666666666 2:0.4 3:70.0 
1.0 1.0 0.5902624963091556 0.02313907111127339 0.0 1:3.0 2:8.5 3:432.0 
1.0 1.0 0.0 0.0 0.0 1:0.5714285714285714 2:0.0 3:30.0 
1.0 1.0 0.0 0.0 0.0 1:0.2857142857142857 2:1.0 3:29.0 
1.0 1.0 0.5957655205686851 0.021625181564194684 0.0 1:1.5714285714285714 2:6.0 3:294.0 
1.0 1.0 0.026439467395759683 0.0 0.0 1:1.5714285714285714 2:4.5 3:153.0 
1.0 1.0 0.35284348723713704 0.016805686312535408 0.0 1:1.1428571428571428 2:3.5 3:95.0 
0.2968699114550166 1.0 0.4026272897760622 0.01323343593096138 0.0 1:1.4285714285714286 2:3.0 3:252.0 
1.0 1.0 0.0 0.0018087493156937976 0.0 1:1.4285714285714286 2:2.5 3:127.0 
0.6153607796333409 1.0 1.0 0.0 0.0 1:1.7142857142857142 2:2.5 3:252.0 
1.0 1.0 1.0 0.0 0.0 1:0.7142857142857143 2:1.0 3:86.0 
1.0 1.0 0.08826458831873289 0.01326488658819458 0.0 1:1.2857142857142858 2:4.0 3:172.0 
1.0 1.0 0.25054566985813675 0.0 0.0 1:0.2857142857142857 2:2.0 3:50.0 
1.0 1.0 0.3108816843366901 0.0 0.0 1:0.14285714285714285 2:1.0 3:25.0 
1.0 1.0 1.0 8.387736740347651E-4 0.0 1:0.5714285714285714 2:2.0 3:63.0 
1.0 1.0 0.6727132697445207 0.023272313723125604 0.0 1:4.142857142857143 2:3.0 3:366.0 
1.0 1.0 1.0 0.0 0.0 1:0.42857142857142855 2:1.0 3:50.0 
1.0 1.0 0.0 0.0 0.0 1:0.0 2:0.16666666666666666 3:5.0 
1.0 1.0 0.8309440308667004 0.0 0.0 1:0.42857142857142855 2:0.0 3:40.0 
1.0 1.0 0.7949921846871433 0.0 0.0 1:1.0 2:0.75 3:49.0 
1.0 1.0 1.0 0.0 0.0 1:0.5555555555555556 2:0.5 3:45.0 
1.0 1.0 0.0 0.0 0.0 1:1.4285714285714286 2:1.5 3:96.0 
1.0 1.0 1.0 0.17247976560330608 0.0 1:2.142857142857143 2:1.25 3:153.0 
1.0 1.0 1.0 0.0 0.0 1:0.13333333333333333 2:0.4 3:33.0 
1.0 1.0 0.0 0.0 0.0 1:0.16666666666666666 2:0.14285714285714285 3:28.0 
1.0 1.0 1.0 0.005553686788630081 0.0 1:3.0 2:3.0 3:178.0 
1.0 1.0 0.33212368768749584 0.0 0.0 1:1.0 2:0.0 3:27.0 
1.0 1.0 0.0 0.0 0.0 1:0.18181818181818182 2:0.16666666666666666 3:28.0 
1.0 1.0 1.0 0.0 0.0 1:0.36363636363636365 2:1.1666666666666667 3:120.0 
1.0 1.0 1.0 0.0132645164439667 0.0 1:0.36363636363636365 2:0.5 3:288.0 
1.0 1.0 1.0 0.0 0.0 1:0.22727272727272727 2:0.16666666666666666 3:45.0 
1.0 1.0 0.1507095159660352 0.0 0.0 1:0.09090909090909091 2:0.5 3:69.0 
1.0 1.0 1.0 0.013698325124165966 0.0 1:0.3181818181818182 2:0.0 3:131.0 
1.0 1.0 1.0 0.0 0.0 1:0.5909090909090909 2:0.5 3:102.0 
1.0 1.0 0.7847106224440579 0.014852140790369268 0.0 1:0.2727272727272727 2:0.8333333333333334 3:137.0 
1.0 1.0 1.0 0.0 0.0 1:3.3333333333333335 2:1.0 3:82.0 
1.0 1.0 1.0 0.0 0.0 1:1.3333333333333333 2:2.5 3:60.0 
1.0 1.0 0.0 0.0 0.0 1:2.0 2:2.0 3:72.0 
1.0 1.0 0.5056037347774295 0.016988137034577522 0.0 1:4.333333333333333 2:2.5 3:175.0 
1.0 1.0 0.0 0.0 0.0 1:2.0 2:1.0 3:57.0 
1.0 1.0 0.0 0.0 0.0 1:1.3333333333333333 2:1.0 3:48.0 
1.0 1.0 0.0 0.0 0.0 1:1.3333333333333333 2:0.5 3:25.0 
0.41254510576415754 1.0 0.0 0.012278126757904143 0.0 1:4.0 2:0.5 3:104.0 
1.0 1.0 1.0 0.0 0.0 1:2.6666666666666665 2:1.5 3:78.0 
0.9205061132637925 1.0 1.0 0.04281721965226923 0.0 1:3.6666666666666665 2:1.5 3:86.0 
1.0 1.0 0.39380604883708553 0.022580396818381532 0.0 1:2.3333333333333335 2:3.0 3:87.0 
1.0 1.0 0.7073462464378308 0.020887380112958265 0.0 1:5.333333333333333 2:3.0 3:160.0 
1.0 1.0 0.0 0.0 0.0 1:1.0 2:1.0 3:38.0 
1.0 1.0 0.0 0.0 0.0 1:1.6666666666666667 2:2.0 3:63.0 
1.0 1.0 0.0 0.0 0.0 1:1.0 2:0.5 3:22.0 
1.0 1.0 1.0 0.0 0.0 1:0.6666666666666666 2:1.0 3:32.0 
1.0 1.0 0.831863868436032 0.01981699278026048 0.0 1:4.666666666666667 2:4.0 3:168.0 
1.0 1.0 1.0 0.025278824738275942 0.0 1:1.0 2:0.0 3:14.0 
1.0 1.0 0.0 0.0 0.0 1:2.3333333333333335 2:1.5 3:115.0 
1.0 1.0 0.0 0.0 0.0 1:0.3076923076923077 2:0.0 3:18.0 
1.0 1.0 0.8724560309985234 0.0 0.0 1:1.2307692307692308 2:1.7142857142857142 3:205.0 
1.0 1.0 1.0 0.0 0.6485211794847388 1:0.9230769230769231 2:0.8571428571428571 3:302.0 
1.0 1.0 0.0 0.0 0.0 1:0.38461538461538464 2:0.14285714285714285 3:40.0 
1.0 1.0 1.0 0.01082917747529046 0.0 1:1.4615384615384615 2:0.7142857142857143 3:223.0 
0.41649262710487733 1.0 0.0 0.3738680743900348 0.0 1:0.8461538461538461 2:0.8571428571428571 3:315.0 
1.0 1.0 1.0 0.0 0.0 1:0.2727272727272727 2:0.16666666666666666 3:64.0 
1.0 1.0 1.0 0.0 0.0 1:0.8461538461538461 2:1.75 3:187.0 
1.0 1.0 1.0 0.0 0.0 1:0.5384615384615384 2:1.5 3:106.0 
1.0 1.0 0.4988563999010159 0.0 0.0 1:0.5 2:0.5 3:28.0 
0.0 1.0 1.0 0.0 0.0 1:0.75 2:2.5 3:47.0 
1.0 1.0 0.0 0.0 0.0 1:0.75 2:1.0 3:25.0 
0.0 1.0 0.0 0.0 0.0 1:0.25 2:0.0 3:6.0 
0.0 1.0 0.0 0.0 0.0 1:0.5 2:0.0 3:10.0 
1.0 1.0 0.0 0.0 0.0 1:0.09090909090909091 2:0.2 3:14.0 
1.0 1.0 0.0 0.0 0.0 1:0.36363636363636365 2:0.2 3:29.0 
1.0 1.0 0.0 0.0 0.0 1:0.09090909090909091 2:0.0 3:6.0 
1.0 1.0 0.0 0.0 0.0 1:0.3333333333333333 2:0.5 3:50.0 
1.0 1.0 0.0 0.0 0.0 1:0.3333333333333333 2:0.0 3:28.0 
1.0 1.0 0.0 0.0 0.0 1:0.5555555555555556 2:1.0 3:57.0 
1.0 1.0 0.0 0.0 0.0 1:0.2727272727272727 2:0.0 3:13.0 
1.0 1.0 0.0 0.0 0.0 1:0.3333333333333333 2:1.0 3:14.0 
1.0 1.0 0.0 0.0 0.0 1:1.5 2:2.0 3:88.0 
1.0 1.0 1.0 0.0 0.0 1:0.5 2:1.0 3:33.0 
1.0 1.0 0.0 0.005856272427932389 0.0 1:1.0 2:2.0 3:46.0 
1.0 1.0 0.0 0.0 0.0 1:0.3333333333333333 2:0.0 3:18.0 
1.0 1.0 0.981765979490826 0.0 0.0 1:1.1666666666666667 2:0.0 3:65.0 
1.0 1.0 1.0 0.0 0.0 1:0.6666666666666666 2:0.0 3:48.0 
1.0 1.0 0.6156303944044466 0.0 0.0 1:0.3333333333333333 2:1.0 3:17.0 
1.0 1.0 0.0 0.0 0.0 1:0.16666666666666666 2:1.0 3:18.0 
1.0 1.0 1.0 0.0 0.0 1:0.5 2:2.0 3:35.0 
0.0 1.0 0.0 0.0 0.0 1:0.125 2:0.0 3:8.0 
1.0 1.0 0.0 0.0 0.0 1:0.15384615384615385 2:0.2857142857142857 3:32.0 
1.0 1.0 0.0 0.0 0.0 1:0.46153846153846156 2:0.7142857142857143 3:90.0 
1.0 1.0 1.0 0.0 0.0 1:0.38461538461538464 2:0.42857142857142855 3:56.0 
1.0 1.0 0.0 0.0 0.0 1:0.15384615384615385 2:0.14285714285714285 3:13.0 
1.0 1.0 0.12010500124302828 0.0035140241901522318 0.0 1:1.6153846153846154 2:3.0 3:323.0 
1.0 1.0 1.0 0.0 0.0 1:0.38461538461538464 2:0.0 3:55.0 
1.0 1.0 0.5721139437115547 0.024502905757201154 0.0 1:0.38461538461538464 2:0.0 3:240.0 
1.0 1.0 1.0 0.0 0.0 1:0.25 2:0.0 3:20.0 
1.0 1.0 1.0 0.0 0.0 1:0.5384615384615384 2:0.5 3:127.0 
1.0 1.0 1.0 0.0 0.0 1:0.1 2:0.0 3:13.0 
1.0 1.0 0.0 0.0 0.0 1:0.4166666666666667 2:0.5 3:44.0 
1.0 1.0 1.0 0.0 0.0 1:0.5 2:0.25 3:51.0 
1.0 1.0 0.0 0.0 0.0 1:0.16666666666666666 2:0.25 3:21.0 
1.0 1.0 1.0 0.766943135260641 0.0 1:1.0833333333333333 2:0.5 3:91.0 
1.0 1.0 0.38187420527848204 0.0 0.0 1:1.2222222222222223 2:0.0 3:259.0 
1.0 1.0 0.9111117522792149 0.0 0.0 1:0.5454545454545454 2:1.1 3:188.0 
1.0 1.0 1.0 0.0 0.0 1:0.05555555555555555 2:0.0 3:7.0 
1.0 1.0 0.8850688853899629 0.0 0.0 1:1.6666666666666667 2:1.5 3:48.0 
0.46374282278157614 1.0 0.26671171748751016 0.008431673903686836 0.0 1:3.0 2:1.0 3:284.0 
0.0 1.0 0.1303420813747869 0.0 0.0 1:0.6666666666666666 2:0.0 3:8.0 
1.0 1.0 1.0 0.0 0.0 1:0.9166666666666666 2:1.25 3:165.0 
1.0 1.0 0.0 0.0 0.0 1:1.0 2:0.5 3:134.0 
1.0 1.0 0.0 0.0 0.0 1:0.6666666666666666 2:0.6666666666666666 3:39.0 
1.0 1.0 0.3119265130407751 0.0 0.0 1:2.5 2:3.0 3:154.0 
1.0 1.0 0.0 0.0 0.0 1:0.13333333333333333 2:0.125 3:30.0 
1.0 1.0 0.0 0.0 0.0 1:0.3333333333333333 2:0.25 3:68.0 
1.0 1.0 1.0 0.0 0.0 1:0.26666666666666666 2:0.125 3:41.0 
1.0 1.0 1.0 0.0 0.0 1:0.9090909090909091 2:0.25 3:73.0 
1.0 1.0 0.0 0.0 0.0 1:0.45454545454545453 2:0.0 3:22.0 
1.0 1.0 1.0 0.0 0.0 1:0.0 2:0.5 3:28.0 
1.0 1.0 1.0 0.0 0.0 1:0.9090909090909091 2:1.0 3:73.0 
1.0 1.0 0.0 0.0 0.0 1:1.3333333333333333 2:0.8 3:122.0 
1.0 1.0 0.4419538031302606 0.0 0.0 1:0.6 2:0.0 3:25.0 
1.0 1.0 0.0 0.0 0.0 1:0.1111111111111111 2:0.6666666666666666 3:14.0 
1.0 1.0 0.3908297330193985 0.0 0.0 1:0.45454545454545453 2:0.8 3:59.0 
1.0 1.0 1.0 0.0 0.0 1:0.8181818181818182 2:0.4 3:90.0 
1.0 1.0 0.0 0.0 0.0 1:0.36363636363636365 2:0.4 3:33.0 
1.0 1.0 0.0 0.0 0.0 1:0.2727272727272727 2:1.2 3:60.0 
1.0 1.0 0.0 0.0 0.0 1:0.45454545454545453 2:0.2 3:37.0 
1.0 1.0 0.0 0.0 0.0 1:0.18181818181818182 2:0.2 3:19.0 
1.0 1.0 1.0 0.0 0.0 1:0.09090909090909091 2:0.4 3:31.0 
1.0 1.0 1.0 0.0 0.0 1:0.6363636363636364 2:2.0 3:126.0 
1.0 1.0 1.0 0.0 0.0 1:0.2727272727272727 2:0.6 3:60.0 
1.0 1.0 0.0 0.0 0.0 1:0.45454545454545453 2:0.0 3:32.0 
1.0 1.0 0.0 0.0 0.0 1:0.18181818181818182 2:0.8 3:30.0 
1.0 1.0 0.594650705362701 0.02307723163229819 0.0 1:1.9090909090909092 2:0.4 3:495.0 
1.0 1.0 0.0 0.0 0.0 1:1.0 2:1.2 3:151.0 
1.0 1.0 1.0 0.0 0.0 1:0.45454545454545453 2:0.4 3:106.0 
1.0 1.0 0.0 0.0 0.0 1:0.36363636363636365 2:0.2 3:40.0 
1.0 1.0 1.0 0.0 0.0 1:0.18181818181818182 2:1.0 3:44.0 
1.0 1.0 0.0 0.0 0.0 1:1.1818181818181819 2:0.2 3:65.0 
1.0 1.0 0.28582961014512576 0.0 0.0 1:0.09090909090909091 2:0.4 3:29.0 
0.0 1.0 0.0 0.0 0.0 1:0.45454545454545453 2:0.0 3:10.0 
1.0 1.0 1.0 0.0 0.0 1:0.9090909090909091 2:1.6 3:145.0 
1.0 1.0 0.06498759593892318 0.0 0.0 1:0.18181818181818182 2:0.2 3:22.0 
1.0 1.0 1.0 0.0 0.0 1:0.5454545454545454 2:0.8 3:73.0 
1.0 1.0 0.0 0.0 0.0 1:0.8181818181818182 2:1.6 3:152.0 
1.0 1.0 0.0 0.0 0.0 1:0.18181818181818182 2:0.0 3:10.0 
1.0 1.0 1.0 0.0 0.0 1:0.18181818181818182 2:0.4 3:34.0 
1.0 1.0 1.0 0.0 0.0 1:0.8181818181818182 2:0.6 3:91.0 
1.0 1.0 0.4503050414079772 0.0 0.0 1:0.09090909090909091 2:0.2 3:24.0 
1.0 1.0 0.0 0.0 0.0 1:0.125 2:0.0 3:6.0 
1.0 1.0 1.0 0.0 0.0 1:1.3333333333333333 2:2.5 3:133.0 
1.0 1.0 0.0 0.0 0.0 1:0.5555555555555556 2:0.5 3:40.0 
1.0 1.0 1.0 0.0 0.0 1:0.4444444444444444 2:0.5 3:112.0 
1.0 1.0 0.7966294190842118 0.016341629049577044 0.0 1:0.7777777777777778 2:5.5 3:121.0 
1.0 1.0 0.0 0.0 0.0 1:0.2222222222222222 2:0.0 3:16.0 
1.0 1.0 0.8789371888295335 0.0 0.0 1:0.3333333333333333 2:0.0 3:52.0 
1.0 1.0 1.0 0.052629026722218995 0.0 1:0.7777777777777778 2:0.0 3:57.0 
1.0 1.0 1.0 0.05284255794584129 0.0 1:0.6363636363636364 2:0.3333333333333333 3:81.0 
1.0 1.0 0.0 0.0 0.0 1:0.375 2:0.5 3:44.0 
1.0 1.0 0.11224226572065767 0.0 0.0 1:0.3 2:0.2 3:71.0 
1.0 1.0 1.0 0.0 0.0 1:0.4 2:0.3 3:93.0 
1.0 1.0 1.0 0.0 0.0 1:0.1 2:0.0 3:20.0 
1.0 1.0 0.0 0.0 0.0 1:0.05 2:0.1 3:15.0 
1.0 1.0 1.0 0.0 0.0 1:0.2 2:0.2 3:41.0 
1.0 1.0 1.0 0.0 0.0 1:0.05 2:0.1 3:21.0 
1.0 1.0 0.0 0.0 0.0 1:0.1 2:0.1 3:14.0 
1.0 1.0 1.0 0.0 0.0 1:0.1 2:0.2 3:29.0 
1.0 1.0 1.0 0.4049630493550188 0.0 1:0.35 2:0.3 3:81.0 
1.0 1.0 1.0 0.0 0.0 1:0.45 2:0.0 3:79.0 
1.0 1.0 1.0 0.0 0.0 1:0.2 2:0.3 3:65.0 
1.0 1.0 1.0 0.0 0.0 1:0.4 2:0.4 3:77.0 
1.0 1.0 0.0 0.0 0.0 1:0.5 2:1.0 3:44.0 
1.0 1.0 1.0 0.08711368392787232 0.0 1:0.8333333333333334 2:0.2 3:114.0 
1.0 1.0 0.433406173706522 0.01610859546829258 0.0 1:0.18181818181818182 2:0.125 3:269.0 
1.0 1.0 0.0 0.0 0.0 1:0.1 2:0.14285714285714285 3:12.0 
1.0 1.0 0.0 0.0 0.0 1:0.4 2:0.14285714285714285 3:40.0 
1.0 1.0 1.0 0.0 0.0 1:0.375 2:0.1 3:44.0 
0.0 1.0 0.0 0.0 0.0 1:0.0 2:0.0 3:140.0 
0.8513508387734386 1.0 0.30771779411998584 0.0 0.0 1:0.0 2:0.0 3:140.0 
1.0 1.0 1.0 0.0 0.0 1:0.0 2:0.0 3:140.0 
1.0 1.0 1.0 0.009265849146362148 0.0 1:0.5714285714285714 2:2.5 3:110.0 
1.0 1.0 1.0 0.005885910775516642 0.0 1:0.4 2:1.0 3:15.0 
1.0 1.0 0.0 0.0 0.0 1:0.35294117647058826 2:0.29411764705882354 3:69.0 
1.0 1.0 0.0 0.0 0.0 1:0.125 2:0.0 3:20.0 
1.0 1.0 0.0 0.0 0.0 1:0.16666666666666666 2:0.4 3:65.0 
1.0 1.0 1.0 0.00794465960569871 0.0 1:0.75 2:1.4 3:254.0 
1.0 1.0 1.0 0.0 0.0 1:0.4166666666666667 2:0.5 3:139.0 
1.0 1.0 0.0 0.0 0.0 1:0.0 2:0.1 3:17.0 
1.0 1.0 1.0 0.0 0.0 1:0.3333333333333333 2:0.0 3:58.0 
1.0 1.0 1.0 0.625979157197461 0.0 1:0.2916666666666667 2:0.5 3:60.0 
1.0 1.0 0.0 0.0 0.0 1:0.25 2:0.3 3:67.0 
1.0 1.0 1.0 0.0 0.0 1:0.041666666666666664 2:0.4 3:36.0 
1.0 1.0 1.0 0.0 0.0 1:0.125 2:0.5 3:47.0 
1.0 1.0 0.0 0.0 0.0 1:0.25 2:0.4 3:69.0 
1.0 1.0 0.0 0.0 0.0 1:0.125 2:0.1 3:21.0 
1.0 1.0 1.0 0.0 0.0 1:0.25 2:0.4 3:93.0 
1.0 1.0 1.0 0.0 0.0 1:0.20833333333333334 2:0.6 3:66.0 
1.0 1.0 0.2773371789385096 9.757211654321529E-4 0.0 1:0.5 2:1.3 3:204.0 
1.0 1.0 0.0 0.0 0.0 1:0.20833333333333334 2:0.1 3:42.0 
1.0 1.0 1.0 0.0 0.0 1:0.125 2:0.6 3:80.0 
1.0 1.0 1.0 0.0 0.0 1:0.16666666666666666 2:0.0 3:32.0 
1.0 1.0 0.559243653248525 0.0 0.0 1:0.375 2:0.2 3:66.0 
1.0 1.0 1.0 0.0 0.0 1:0.25 2:0.3 3:85.0 
1.0 1.0 1.0 0.0 0.0 1:0.625 2:0.6 3:156.0 
1.0 1.0 0.0 0.0 0.0 1:0.2857142857142857 2:1.0 3:19.0 
1.0 1.0 1.0 8.306351532085809E-4 0.0 1:2.6666666666666665 2:2.0 3:216.0 
1.0 1.0 0.0 0.0 0.0 1:0.375 2:0.3333333333333333 3:25.0 
1.0 1.0 0.0 0.0 0.0 1:0.125 2:0.3333333333333333 3:10.0 
1.0 1.0 1.0 0.0094594470287937 0.0 1:0.625 2:2.0 3:128.0 
1.0 1.0 0.0 0.0 0.0 1:0.4 2:0.16666666666666666 3:30.0 
1.0 1.0 0.0 0.0 0.0 1:1.5 2:0.5 3:122.0 
1.0 1.0 1.0 0.0 0.0 1:0.5555555555555556 2:0.4 3:108.0 
1.0 1.0 1.0 0.0 0.0 1:0.3333333333333333 2:0.0 3:43.0 
1.0 1.0 1.0 0.0 0.0 1:0.5 2:0.2 3:85.0 
1.0 1.0 1.0 0.5262960959423016 0.0 1:1.125 2:0.0 3:68.0 
1.0 1.0 1.0 0.0 0.0 1:0.3 2:0.1 3:66.0 
1.0 1.0 1.0 0.0 0.0 1:1.75 2:1.3333333333333333 3:90.0 
1.0 1.0 0.0 0.0 0.0 1:0.8 2:2.0 3:46.0 
1.0 1.0 0.0 0.0 0.0 1:0.6 2:0.0 3:22.0 
1.0 1.0 0.4562471322593994 0.0 0.0 1:2.4 2:3.0 3:117.0 
1.0 1.0 0.0 0.0 0.0 1:0.4 2:0.0 3:23.0 
1.0 1.0 0.0 0.0 0.0 1:0.4 2:1.0 3:25.0 
1.0 1.0 0.0 0.0 0.0 1:0.8 2:1.0 3:43.0 
1.0 1.0 0.6547583624788866 0.0 0.0 1:0.4 2:1.0 3:23.0 
1.0 1.0 0.3339375583801289 0.010774876897107637 0.0 1:0.0 2:2.0 3:18.0 
1.0 1.0 0.0 0.0 0.0 1:0.4 2:0.0 3:22.0 
1.0 1.0 0.2024981323334773 0.0030535875245813163 0.0 1:1.0 2:0.0 3:29.0 
1.0 1.0 1.0 0.0 0.0 1:0.75 2:0.5 3:52.0 
1.0 1.0 1.0 0.0 0.0 1:0.5 2:0.5 3:42.0 
1.0 1.0 0.0 0.0 0.0 1:0.5 2:0.3333333333333333 3:37.0 
1.0 1.0 0.9834940807331809 0.0 0.0 1:0.07142857142857142 2:0.0 3:10.0 
1.0 1.0 1.0 0.0 0.0 1:0.14285714285714285 2:0.3333333333333333 3:33.0 
1.0 1.0 0.0 0.0 0.0 1:0.17857142857142858 2:0.16666666666666666 3:32.0 
1.0 1.0 1.0 0.0 0.0 1:0.10714285714285714 2:0.6666666666666666 3:37.0 
1.0 1.0 1.0 0.0 0.0 1:0.07142857142857142 2:0.3333333333333333 3:34.0 
1.0 1.0 0.0 0.0 0.0 1:0.4642857142857143 2:0.16666666666666666 3:117.0 
1.0 1.0 1.0 0.0 0.0 1:0.07142857142857142 2:0.0 3:25.0 
1.0 1.0 1.0 0.0 0.0 1:0.25 2:1.1666666666666667 3:81.0 
1.0 1.0 1.0 0.0 0.0 1:0.5357142857142857 2:0.6666666666666666 3:115.0 
1.0 1.0 1.0 0.0 0.0 1:0.07142857142857142 2:0.3333333333333333 3:33.0 
1.0 1.0 1.0 0.0 0.0 1:0.2857142857142857 2:0.5 3:63.0 
1.0 1.0 1.0 0.0 0.0 1:0.2857142857142857 2:0.16666666666666666 3:46.0 
1.0 1.0 1.0 0.0 0.0 1:0.07142857142857142 2:0.6666666666666666 3:43.0 
1.0 1.0 1.0 0.0 0.0 1:0.17857142857142858 2:1.0 3:61.0 
1.0 1.0 1.0 0.0 0.0 1:0.03571428571428571 2:0.6666666666666666 3:31.0 
1.0 1.0 1.0 0.0 0.0 1:0.3333333333333333 2:0.2727272727272727 3:53.0 
1.0 1.0 0.0 0.0 0.0 1:0.0967741935483871 2:0.6 3:46.0 
1.0 1.0 0.9829485318367914 0.03910240598321505 0.0 1:0.75 2:0.0 3:16.0 
1.0 1.0 0.5179195027170991 0.018059912247837887 0.0 1:4.5 2:0.0 3:238.0 
1.0 1.0 1.0 0.0 0.0 1:1.6923076923076923 2:1.75 3:215.0 
1.0 1.0 0.0 0.0 0.0 1:0.5555555555555556 2:0.42857142857142855 3:65.0 
1.0 1.0 0.0 0.0 0.0 1:0.0 2:0.25 3:14.0 
1.0 1.0 0.0 0.0 0.0 1:0.3333333333333333 2:0.3333333333333333 3:52.0 
1.0 1.0 1.0 0.0 0.0 1:0.06666666666666667 2:0.4 3:35.0 
1.0 1.0 1.0 0.0 0.0 1:0.6 2:0.8 3:92.0 
1.0 1.0 0.0 0.0 0.0 1:0.23076923076923078 2:0.16666666666666666 3:16.0 
1.0 1.0 1.0 0.0 0.0 1:0.23076923076923078 2:0.25 3:38.0 
1.0 1.0 0.0 0.0 0.0 1:0.3333333333333333 2:0.75 3:45.0 
1.0 1.0 0.0 0.0 0.0 1:0.4 2:0.0 3:21.0 
1.0 1.0 1.0 0.0 0.0 1:2.0 2:0.6666666666666666 3:62.0 
1.0 1.0 1.0 0.0 0.0 1:0.8333333333333334 2:0.4 3:57.0 
1.0 1.0 0.0 0.0 0.0 1:0.5 2:0.4 3:39.0 
1.0 1.0 1.0 0.0 0.0 1:0.3333333333333333 2:0.6 3:36.0 
1.0 1.0 0.0 0.0 0.0 1:0.18181818181818182 2:0.14285714285714285 3:44.0 
1.0 1.0 0.0 0.0 0.0 1:0.36363636363636365 2:0.42857142857142855 3:59.0 
1.0 1.0 0.7134143692895107 0.0 0.0 1:1.4545454545454546 2:1.0 3:173.0 
1.0 1.0 0.0 0.0 0.0 1:0.4 2:0.2 3:36.0 
1.0 1.0 1.0 0.0 0.0 1:0.4 2:0.0 3:19.0 
0.8907513897890598 1.0 0.33731296528781085 0.012015445719664106 0.0 1:0.0 2:1.0 3:3.0 
1.0 1.0 0.0 0.0 0.0 1:0.36363636363636365 2:2.0 3:46.0 
0.0 0.6559657693393834 0.0 0.009857152607105735 0.0 1:1.0909090909090908 2:5.0 3:142.0 
0.0 1.0 1.0 0.0 0.0 1:1.1818181818181819 2:3.0 3:118.0 
1.0 1.0 0.36395824332734406 0.012890185466084529 0.0 1:1.4545454545454546 2:5.0 3:177.0 
1.0 1.0 0.9723275843629059 0.0 0.0 1:0.5454545454545454 2:1.0 3:42.0 
0.39368931865351386 1.0 0.3967396006781276 0.0 0.0 1:1.5454545454545454 2:4.0 3:172.0 
1.0 1.0 0.0 0.0 0.0 1:0.19230769230769232 2:0.8 3:63.0 
1.0 1.0 0.0 0.0 0.0 1:0.375 2:0.0 3:23.0 
0.5167264374824145 1.0 0.9608757767305781 0.006793157714522753 0.0 1:1.625 2:3.0 3:305.0 
1.0 1.0 0.0 0.0 0.0 1:0.09090909090909091 2:0.0 3:7.0 
1.0 1.0 0.0 0.0 0.0 1:0.16666666666666666 2:0.5 3:11.0 
1.0 1.0 0.1482544629614932 0.0 0.0 1:0.1 2:0.3333333333333333 3:35.0 
1.0 1.0 0.4477262167453471 0.0 0.0 1:0.16666666666666666 2:0.2 3:49.0 
1.0 1.0 0.2724459380201324 0.0 0.0 1:0.16666666666666666 2:0.4 3:41.0 
1.0 1.0 1.0 0.0 0.0 1:0.4444444444444444 2:0.8 3:92.0 
1.0 1.0 1.0 0.015094733098378277 0.0 1:1.0 2:1.0 3:226.0 
1.0 1.0 0.8927533464380007 0.004236100014452287 0.0 1:0.8333333333333334 2:1.4 3:194.0 
1.0 1.0 1.0 0.0 0.0 1:0.2222222222222222 2:0.2 3:56.0 
1.0 1.0 0.29026772480071683 0.0 0.0 1:0.6666666666666666 2:1.4 3:152.0 
0.13791827632270562 1.0 0.0 0.0 0.0 1:0.18181818181818182 2:0.0 3:7.0 
0.0 1.0 0.0 0.0 0.0 1:0.18181818181818182 2:0.0 3:7.0 
1.0 1.0 0.18853281820634374 0.0 0.0 1:3.0 2:0.0 3:41.0 
1.0 1.0 1.0 0.017941021972243454 0.0 1:0.07692307692307693 2:3.0 3:35.0 
1.0 1.0 1.0 0.0 0.0 1:0.3076923076923077 2:1.0 3:37.0 
1.0 1.0 1.0 0.003068307080443115 0.0 1:0.3333333333333333 2:0.8 3:123.0 
1.0 1.0 0.0 0.0 0.0 1:0.14285714285714285 2:0.0 3:27.0 
1.0 1.0 0.5652032791053103 0.0 0.0 1:0.5 2:1.5 3:44.0 
0.0 1.0 0.0 0.0 0.0 1:0.16666666666666666 2:0.0 3:9.0 
1.0 1.0 0.8009877172589135 0.0 0.0 1:1.2727272727272727 2:0.6666666666666666 3:257.0 
1.0 1.0 0.0 0.0 0.0 1:0.9090909090909091 2:1.6666666666666667 3:134.0 
0.6419389653280874 0.7725170113800607 0.6395496029082829 0.0 0.0 1:0.6363636363636364 2:5.0 3:143.0 
1.0 1.0 0.4954311068896387 0.0 0.0 1:0.45454545454545453 2:1.0 3:187.0 
1.0 1.0 0.0 0.004777660756026668 0.0 1:0.7 2:0.23076923076923078 3:311.0 
1.0 1.0 0.21391394675961897 0.3197128019587883 0.0 1:0.3 2:0.0 3:68.0 
1.0 1.0 0.0 0.0 0.0 1:0.2 2:0.23076923076923078 3:33.0 
1.0 1.0 1.0 0.0 0.0 1:1.0 2:0.6923076923076923 3:167.0 
1.0 1.0 0.0 0.0 0.0 1:0.2 2:0.07692307692307693 3:20.0 
1.0 1.0 0.0 0.0 0.0 1:0.5 2:0.07692307692307693 3:29.0 
0.0 1.0 0.6435455759050164 0.0 0.0 1:0.1 2:0.0 3:9.0 
1.0 1.0 1.0 0.0 0.0 1:0.6 2:0.38461538461538464 3:101.0 
1.0 1.0 0.0 0.0 0.0 1:1.7 2:1.2307692307692308 3:278.0 
1.0 1.0 0.5899885589178542 0.022532864736590774 0.0 1:2.9 2:2.1538461538461537 3:472.0 
1.0 1.0 0.0 0.7075920168956931 0.0 1:0.7 2:0.07692307692307693 3:70.0 
1.0 1.0 0.0 0.0 0.0 1:0.2 2:0.07692307692307693 3:14.0 
1.0 1.0 0.8818669220934827 0.01604759151787838 0.0 1:3.3 2:0.6153846153846154 3:312.0 
1.0 1.0 0.7930687690357476 0.0 0.0 1:1.2 2:0.6923076923076923 3:165.0 
1.0 1.0 0.0 0.0 0.0 1:0.4 2:0.07692307692307693 3:35.0 
1.0 1.0 0.46256297431874005 0.0 0.0 1:0.9 2:0.07692307692307693 3:88.0 
1.0 1.0 1.0 0.0 0.0 1:0.5 2:0.3076923076923077 3:88.0 
1.0 1.0 1.0 0.0 0.0 1:1.0 2:0.23076923076923078 3:103.0 
1.0 1.0 0.0 0.0 0.0 1:0.3 2:0.15384615384615385 3:42.0 
0.0 1.0 0.0 0.0 0.0 1:1.1 2:0.0 3:108.0 
0.7161326357796799 1.0 1.0 0.0047750073943330085 0.0 1:1.6 2:1.8461538461538463 3:299.0 
1.0 1.0 1.0 0.0 0.0 1:0.8 2:0.07692307692307693 3:74.0 
1.0 1.0 0.0 0.0 0.0 1:0.5 2:0.07692307692307693 3:52.0 
1.0 1.0 0.2015936612711942 0.015195607248714079 0.0 1:2.7 2:0.7692307692307693 3:256.0 
1.0 1.0 1.0 0.0 0.0 1:0.8 2:0.23076923076923078 3:92.0 
1.0 1.0 0.0 0.004016326448693083 0.0 1:0.4 2:0.3076923076923077 3:111.0 
0.5290830370036355 1.0 1.0 0.0018976041695141547 0.0 1:0.8 2:0.07692307692307693 3:109.0 
1.0 1.0 1.0 0.0 0.0 1:0.6 2:0.07692307692307693 3:48.0 
1.0 1.0 1.0 0.0 0.0 1:0.8 2:0.15384615384615385 3:76.0 
1.0 1.0 0.0 0.0 0.0 1:1.0 2:0.38461538461538464 3:117.0 
1.0 1.0 0.0 0.0 0.0 1:0.7 2:0.46153846153846156 3:137.0 
1.0 1.0 1.0 0.0 0.0 1:0.7 2:0.38461538461538464 3:120.0 
1.0 1.0 0.49876444973558237 0.01922220526760434 0.0 1:2.5 2:1.4615384615384615 3:361.0 
1.0 1.0 1.0 0.0 0.0 1:1.1 2:1.0769230769230769 3:196.0 
1.0 1.0 0.4685530315765064 0.009710094019699656 0.0 1:2.2 2:0.6923076923076923 3:285.0 
0.037908045698820655 1.0 0.4626756248073237 0.010726645061636836 0.0 1:2.1 2:1.0 3:307.0 
1.0 1.0 1.0 0.0 0.0 1:0.3076923076923077 2:0.14285714285714285 3:44.0 
1.0 1.0 0.385773314833858 0.01649314946070779 0.0 1:2.5 2:0.0 3:136.0 
1.0 1.0 1.0 0.0 0.0 1:0.09090909090909091 2:0.0 3:15.0 
1.0 1.0 0.0 0.0 0.0 1:0.13636363636363635 2:0.0 3:15.0 
1.0 1.0 1.0 0.0 0.0 1:0.2727272727272727 2:0.0 3:41.0 
1.0 1.0 1.0 0.0 0.0 1:0.18181818181818182 2:0.1 3:51.0 
1.0 1.0 0.0 0.0 0.0 1:0.22727272727272727 2:0.0 3:29.0 
1.0 1.0 1.0 0.0 0.0 1:0.5 2:0.3 3:95.0 
1.0 1.0 0.0 0.0 0.0 1:0.13636363636363635 2:0.0 3:15.0 
0.0 0.6734730864181796 0.0 0.0145058953117162 0.0 1:0.3181818181818182 2:0.0 3:309.0 
1.0 1.0 0.0 0.04599844854068334 0.0 1:0.45454545454545453 2:0.1 3:68.0 
1.0 1.0 1.0 0.0 0.0 1:0.22727272727272727 2:0.5 3:74.0 
1.0 1.0 0.23544212155049515 0.0 0.0 1:0.22727272727272727 2:0.3 3:65.0 
1.0 1.0 1.0 0.02697015279188067 0.0 1:0.3181818181818182 2:0.2 3:57.0 
0.6457087136749975 1.0 1.0 0.011654086945460987 0.0 1:0.45454545454545453 2:0.3 3:161.0 
1.0 1.0 0.4486625714786755 0.007680732286355335 0.0 1:0.6363636363636364 2:0.4 3:206.0 
1.0 1.0 1.0 0.0 0.0 1:0.8181818181818182 2:0.2 3:131.0 
1.0 1.0 1.0 0.0 0.0 1:0.6363636363636364 2:0.2 3:89.0 
1.0 1.0 1.0 0.0 0.0 1:0.4090909090909091 2:0.3 3:73.0 
1.0 1.0 0.0 0.0 0.0 1:0.36363636363636365 2:0.1 3:66.0 
0.0 1.0 0.0 0.0 0.0 1:1.2272727272727273 2:0.7 3:282.0 
1.0 1.0 0.0 0.0 0.0 1:0.2727272727272727 2:0.0 3:36.0 
1.0 1.0 0.0 0.0 0.0 1:0.13636363636363635 2:0.1 3:32.0 
1.0 1.0 0.0 0.0 0.0 1:0.25 2:0.16666666666666666 3:33.0 
1.0 1.0 0.4932425945898333 0.0 0.0 1:0.25 2:0.16666666666666666 3:34.0 
1.0 1.0 1.0 0.02315872851908407 0.0 1:0.0 2:0.0 3:396.0 
1.0 1.0 1.0 0.0 0.0 1:1.25 2:1.0 3:88.0 
1.0 1.0 1.0 0.0 0.0 1:0.5 2:0.0 3:37.0 
1.0 1.0 0.0 0.9653990831929562 0.0 1:0.7 2:0.0 3:39.0 
1.0 1.0 0.643847677461957 0.0 0.0 1:0.25 2:0.0 3:33.0 
1.0 1.0 1.0 0.0 0.0 1:0.625 2:0.0 3:65.0 
1.0 1.0 1.0 0.0 0.0 1:0.4375 2:0.0 3:42.0 
1.0 1.0 0.0 0.0 0.0 1:0.125 2:0.0 3:12.0 
1.0 1.0 0.0 0.0 0.0 1:0.25 2:0.3333333333333333 3:30.0 
1.0 1.0 0.0 0.0 0.0 1:0.625 2:1.3333333333333333 3:77.0 
1.0 1.0 0.0 0.0 0.0 1:0.375 2:0.3333333333333333 3:39.0 
1.0 1.0 0.0 0.0 0.0 1:0.125 2:0.0 3:12.0 
1.0 1.0 0.0 0.0 0.0 1:0.125 2:0.0 3:15.0 
1.0 1.0 0.0 0.0 0.0 1:0.3333333333333333 2:0.0 3:13.0 
1.0 1.0 1.0 0.2715109747381374 0.0 1:0.6666666666666666 2:0.0 3:34.0 
1.0 1.0 1.0 0.0 0.0 1:0.6666666666666666 2:0.16666666666666666 3:44.0 
1.0 1.0 0.0 0.0 0.0 1:0.8888888888888888 2:0.5 3:82.0 
1.0 1.0 0.2766361302152917 0.0 0.0 1:0.7777777777777778 2:0.0 3:39.0 
1.0 1.0 1.0 0.0 0.0 1:1.2857142857142858 2:1.0 3:178.0 
1.0 1.0 0.5001761868997976 0.059230070740077634 0.0 1:0.0 2:0.0 3:41.0 
1.0 1.0 1.0 0.0 0.0 1:1.2 2:0.0 3:52.0 
1.0 1.0 0.0 0.0 0.0 1:0.6 2:0.0 3:17.0 
1.0 1.0 0.0 0.0 0.0 1:0.14285714285714285 2:0.42857142857142855 3:43.0 
1.0 1.0 1.0 0.0 0.0 1:0.8 2:0.5 3:52.0 
1.0 1.0 1.0 0.0 0.0 1:0.46153846153846156 2:1.0 3:110.0 
1.0 1.0 1.0 0.005065808250400175 0.0 1:0.5769230769230769 2:0.8333333333333334 3:172.0 
0.0 1.0 0.0 0.0018408321582622758 0.0 1:1.0769230769230769 2:1.3333333333333333 3:252.0 
1.0 1.0 1.0 0.4484584053206088 0.0 1:0.8 2:0.25 3:79.0 
1.0 1.0 0.3804332598195426 0.013766842436750693 0.0 1:0.4 2:0.25 3:278.0 
1.0 1.0 0.8099046744606958 0.0 0.0 1:0.0 2:1.0 3:14.0 
1.0 1.0 0.0 0.0 0.0 1:1.0 2:2.0 3:48.0 
1.0 1.0 1.0 0.0 0.0 1:2.0 2:1.0 3:70.0 
1.0 1.0 1.0 0.0 0.0 1:1.3333333333333333 2:1.0 3:106.0 
1.0 1.0 0.846244377442098 0.02212442837369938 0.0 1:5.666666666666667 2:3.0 3:134.0 
1.0 1.0 0.43148337851569774 0.03597891757728622 0.0 1:3.6666666666666665 2:3.0 3:113.0 
1.0 1.0 0.0 0.0 0.0 1:1.6666666666666667 2:1.5 3:82.0 
1.0 1.0 1.0 0.0 0.0 1:0.3333333333333333 2:1.0 3:27.0 
1.0 1.0 1.0 0.0 0.0 1:0.42857142857142855 2:0.25 3:41.0 
1.0 1.0 0.0 0.0 0.0 1:0.21428571428571427 2:0.5 3:43.0 
1.0 1.0 0.7552375266331999 0.0 0.0 1:1.0 2:0.75 3:123.0 
1.0 1.0 1.0 0.0 0.0 1:0.42857142857142855 2:1.0 3:102.0 
1.0 1.0 1.0 0.0 0.0 1:0.2857142857142857 2:0.25 3:23.0 
1.0 1.0 1.0 0.0 0.0 1:0.6428571428571429 2:0.5 3:80.0 
1.0 1.0 0.0 0.0 0.0 1:0.5 2:0.75 3:72.0 
1.0 1.0 0.0 0.0 0.0 1:0.35714285714285715 2:1.0 3:79.0 
1.0 1.0 0.0 0.0 0.0 1:0.2857142857142857 2:0.5 3:52.0 
1.0 1.0 1.0 0.0 0.0 1:0.21428571428571427 2:1.0 3:60.0 
1.0 1.0 0.0 0.0 0.0 1:0.42857142857142855 2:0.25 3:70.0 
1.0 1.0 0.31397437206260287 0.0 0.0 1:0.14285714285714285 2:0.0 3:13.0 
1.0 1.0 0.0 0.0 0.0 1:0.5 2:1.25 3:90.0 
1.0 1.0 1.0 0.003237967528656349 0.0 1:0.0 2:0.0 3:27.0 
1.0 1.0 1.0 0.0 0.0 1:0.42857142857142855 2:0.0 3:46.0 
1.0 1.0 1.0 0.0 0.0 1:0.42857142857142855 2:1.0 3:65.0 
1.0 1.0 1.0 0.0 0.0 1:0.07142857142857142 2:0.5 3:16.0 
1.0 1.0 0.0 0.0 0.0 1:0.2857142857142857 2:0.5 3:43.0 
1.0 1.0 0.0 0.0 0.0 1:0.21428571428571427 2:0.25 3:28.0 
1.0 1.0 0.0 0.0 0.0 1:0.35714285714285715 2:0.5 3:69.0 
1.0 1.0 0.9836885844569399 0.0 0.0 1:0.7142857142857143 2:1.5 3:316.0 
1.0 1.0 1.0 0.0 0.0 1:0.42857142857142855 2:1.5 3:80.0 
1.0 1.0 1.0 0.0 0.0 1:0.6428571428571429 2:0.5 3:87.0 
1.0 1.0 0.0 0.0 0.0 1:0.2857142857142857 2:1.75 3:60.0 
1.0 1.0 1.0 0.0 0.0 1:0.6428571428571429 2:0.5 3:56.0 
1.0 1.0 0.0 0.0 0.0 1:0.6428571428571429 2:1.25 3:111.0 
1.0 1.0 0.6066207431194222 0.0 0.0 1:0.3333333333333333 2:0.0 3:89.0 
1.0 1.0 0.0 0.0 0.0 1:0.2 2:0.0 3:18.0 
1.0 1.0 0.0 0.0 0.0 1:0.13333333333333333 2:0.0 3:12.0 
0.0 1.0 0.0 0.0 0.0 1:0.1 2:0.0 3:5.0 
1.0 1.0 0.0 0.0 0.0 1:0.3333333333333333 2:0.0 3:16.0 
0.9074589463462928 1.0 0.8098338063778558 0.0 0.0 1:1.6666666666666667 2:0.0 3:25.0 
1.0 1.0 1.0 0.0 0.0 1:2.6666666666666665 2:0.3333333333333333 3:81.0 
1.0 1.0 0.5038606442514987 0.0 0.0 1:2.6666666666666665 2:1.3333333333333333 3:95.0 
1.0 1.0 0.5885876435312876 0.022861464701842082 0.0 1:8.0 2:4.0 3:360.0 
0.7098462484113071 1.0 0.7783945987748667 0.008509557337660512 0.0 1:4.0 2:1.3333333333333333 3:105.0 
1.0 1.0 0.0 0.0 0.0 1:0.09523809523809523 2:0.0 3:10.0 
1.0 1.0 0.0 0.0 0.0 1:0.09523809523809523 2:0.0 3:8.0 
1.0 1.0 0.15571134966130337 0.0 0.0 1:0.09523809523809523 2:0.0 3:12.0 
1.0 1.0 1.0 0.0 0.0 1:1.1111111111111112 2:1.6666666666666667 3:103.0 
1.0 1.0 1.0 0.0 0.0 1:0.7777777777777778 2:0.6666666666666666 3:59.0 
1.0 1.0 1.0 0.9421546311580092 0.0 1:0.4444444444444444 2:0.0 3:26.0 
1.0 1.0 1.0 0.0 0.0 1:0.5555555555555556 2:0.0 3:33.0 
1.0 1.0 0.0 0.0 0.0 1:0.4444444444444444 2:0.3333333333333333 3:28.0 
1.0 1.0 1.0 0.06276229880339912 0.0 1:0.3333333333333333 2:0.0 3:34.0 
1.0 1.0 0.30047380563675286 0.0 0.0 1:0.3333333333333333 2:0.3333333333333333 3:16.0 
1.0 1.0 1.0 0.0 0.0 1:0.5555555555555556 2:1.3333333333333333 3:50.0 
1.0 1.0 1.0 0.0 0.0 1:1.0 2:0.0 3:57.0 
1.0 1.0 1.0 0.0 0.0 1:0.7777777777777778 2:0.0 3:74.0 
1.0 1.0 0.4027190502651467 0.0 0.0 1:0.4444444444444444 2:0.6666666666666666 3:40.0 
1.0 1.0 0.0 0.0 0.0 1:0.2222222222222222 2:1.0 3:24.0 
1.0 1.0 0.0 0.0 0.0 1:0.3333333333333333 2:0.0 3:22.0 
1.0 1.0 0.8425689880279963 0.0 0.0 1:0.5555555555555556 2:1.6666666666666667 3:51.0 
1.0 1.0 0.0 0.0 0.0 1:0.4444444444444444 2:0.6666666666666666 3:45.0 
1.0 1.0 1.0 0.0 0.0 1:1.0 2:1.0 3:98.0 
1.0 1.0 0.7204176623666927 0.0 0.0 1:0.5555555555555556 2:2.3333333333333335 3:85.0 
1.0 1.0 0.0 0.0 0.0 1:0.2222222222222222 2:0.0 3:12.0 
1.0 1.0 1.0 0.0 0.0 1:0.4444444444444444 2:1.0 3:49.0 
1.0 1.0 1.0 0.0 0.0 1:1.1111111111111112 2:1.3333333333333333 3:93.0 
1.0 1.0 1.0 0.0 0.0 1:0.5555555555555556 2:0.4 3:38.0 
1.0 1.0 1.0 0.0 0.0 1:0.6 2:2.5 3:70.0 
1.0 1.0 1.0 0.0 0.0 1:0.47619047619047616 2:0.14285714285714285 3:56.0 
1.0 1.0 0.3727465277113809 5.788113603371059E-4 0.0 1:1.2857142857142858 2:3.0 3:209.0 
1.0 1.0 0.4746463967645018 0.0 0.0 1:0.42857142857142855 2:0.5 3:38.0 
1.0 1.0 0.5903564585761307 0.022652987067421082 0.0 1:6.0 2:6.0 3:469.0 
1.0 1.0 1.0 0.0 0.0 1:0.5714285714285714 2:1.0 3:97.0 
1.0 1.0 0.0 0.9192578155124668 0.0 1:0.3 2:0.0 3:29.0 
0.0 1.0 1.0 0.0 0.0 1:0.0 2:0.0 3:3.0 
1.0 1.0 1.0 0.0 0.0 1:0.5 2:0.25 3:42.0 
1.0 1.0 0.0 0.0 0.0 1:0.2 2:1.5 3:46.0 
1.0 1.0 0.0 0.0 0.0 1:0.6666666666666666 2:0.3333333333333333 3:26.0 
1.0 1.0 1.0 0.12008579515276921 0.0 1:0.0 2:0.0 3:14.0 
1.0 1.0 0.7413304810648309 0.0 0.0 1:0.0 2:3.0 3:55.0 
1.0 1.0 1.0 0.001318614851055759 0.0 1:0.0 2:1.0 3:16.0 
1.0 1.0 0.8533056844946448 0.0 0.0 1:0.0 2:3.0 3:60.0 
1.0 1.0 0.0 0.004394313048013673 0.0 1:0.0 2:3.0 3:50.0 
1.0 1.0 0.6513430761837273 0.01853116297378099 0.0 1:0.0 2:3.0 3:25.0 
0.4457010818949351 1.0 0.14311463618170386 0.009099571198165193 0.0 1:0.0 2:5.0 3:57.0 
1.0 1.0 0.9563607973125933 0.0 0.0 1:0.0 2:2.0 3:32.0 
1.0 1.0 1.0 0.0 0.0 1:0.0 2:1.0 3:40.0 
1.0 1.0 1.0 0.0 0.0 1:0.0 2:0.0 3:24.0 
1.0 1.0 0.4704123107277571 0.014044122718543689 0.0 1:0.0 2:2.0 3:23.0 
1.0 1.0 1.0 0.0 0.0 1:0.0 2:0.0 3:16.0 
1.0 1.0 1.0 0.13536096193532368 0.0 1:0.0 2:0.0 3:25.0 
1.0 1.0 1.0 0.018791928244126677 0.0 1:0.0 2:5.0 3:74.0 
1.0 1.0 0.0 0.007571258467327313 0.0 1:0.0 2:4.0 3:88.0 
1.0 1.0 0.0 0.0 0.0 1:0.0 2:2.0 3:101.0 
1.0 1.0 0.9884168807986917 0.20475524698859354 0.0 1:0.0 2:0.0 3:17.0 
1.0 1.0 0.41486643646723914 0.019179826995232907 0.0 1:0.0 2:6.0 3:78.0 
0.0839095271166271 1.0 0.34036021916601644 0.011541088453609544 0.0 1:0.0 2:3.0 3:44.0 
1.0 1.0 1.0 0.0 0.0 1:0.0 2:0.0 3:24.0 
1.0 1.0 0.20261453414254701 0.011004294686996586 0.0 1:0.0 2:3.0 3:42.0 
1.0 1.0 1.0 0.029795639017649995 0.0 1:0.0 2:1.0 3:30.0 
1.0 1.0 1.0 0.0 0.0 1:0.0 2:1.0 3:25.0 
1.0 1.0 0.3956499753226653 0.01866377616259407 0.0 1:0.0 2:7.0 3:75.0 
1.0 1.0 0.0762365782664794 0.0023738363230046537 0.0 1:0.0 2:1.0 3:29.0 
1.0 1.0 1.0 0.0 0.0 1:0.0 2:1.0 3:50.0 
1.0 1.0 0.0 0.0 0.0 1:0.0 2:1.0 3:53.0 
1.0 1.0 1.0 0.0 0.0 1:0.0 2:0.0 3:12.0 
1.0 1.0 0.33109787989462147 0.014929695410884403 0.0 1:0.0 2:4.0 3:111.0 
1.0 1.0 0.0 0.0038053240705778627 0.0 1:0.0 2:1.0 3:42.0 
1.0 1.0 0.017655370438399237 0.005696256951845058 0.0 1:0.0 2:3.0 3:57.0 
1.0 1.0 0.6300610069393175 0.008629629289516506 0.0 1:0.0 2:3.0 3:52.0 
1.0 1.0 0.9543290687048235 0.0 0.0 1:0.0 2:2.0 3:80.0 
1.0 1.0 0.47154357003081615 0.01805035393625195 0.0 1:2.0 2:6.0 3:163.0 
1.0 1.0 0.0 0.0 0.0 1:0.2777777777777778 2:0.1111111111111111 3:49.0 
1.0 1.0 0.9495822838738615 0.0 0.0 1:0.2222222222222222 2:0.0 3:24.0 
1.0 1.0 0.0 0.0 0.0 1:0.1 2:0.5 3:22.0 
1.0 1.0 1.0 0.0 0.0 1:0.35294117647058826 2:0.2222222222222222 3:73.0 
1.0 1.0 0.0 0.0 0.0 1:0.8181818181818182 2:1.0 3:95.0 
1.0 1.0 0.8387527990647838 0.01684583091542896 0.0 1:0.6363636363636364 2:4.5 3:92.0 
1.0 1.0 0.0 0.5076344064578752 0.0 1:0.4 2:0.0 3:52.0 
1.0 1.0 0.0 0.0 0.0 1:0.5 2:0.0 3:24.0 
1.0 1.0 0.4847726752709767 0.0 0.0 1:0.4 2:0.2 3:36.0 
1.0 1.0 1.0 0.03685975925704091 0.0 1:1.5 2:1.0 3:157.0 
1.0 1.0 1.0 0.0 0.0 1:0.6 2:0.0 3:58.0 
1.0 1.0 0.0 0.0 0.0 1:0.7 2:0.4 3:49.0 
1.0 1.0 1.0 0.0 0.0 1:0.5 2:0.2 3:36.0 
1.0 1.0 0.158692027381875 0.0 0.0 1:0.3 2:0.4 3:28.0 
1.0 1.0 0.0 0.0 0.0 1:0.2 2:0.4 3:32.0 
1.0 1.0 0.0 0.0 0.0 1:0.2 2:0.2 3:40.0 
1.0 1.0 1.0 0.0 0.0 1:0.2222222222222222 2:1.5 3:75.0 
1.0 1.0 1.0 0.0 0.0 1:0.2777777777777778 2:0.75 3:54.0 
1.0 1.0 0.0 0.0 0.0 1:0.5 2:0.75 3:111.0 
0.0 1.0 0.7339900603274979 0.0 0.0 1:0.07142857142857142 2:0.0 3:5.0 
1.0 1.0 1.0 0.0 0.0 1:0.3333333333333333 2:0.16666666666666666 3:41.0 
1.0 1.0 0.0 0.0 0.0 1:0.06666666666666667 2:0.16666666666666666 3:17.0 
1.0 1.0 1.0 0.0 0.0 1:1.125 2:0.16666666666666666 3:169.0 
0.0 1.0 0.0 0.0 0.0 1:0.25 2:0.0 3:8.0 
1.0 1.0 1.0 0.0 0.0 1:0.25 2:0.16666666666666666 3:94.0 
1.0 1.0 0.0 0.0 0.0 1:0.625 2:0.08333333333333333 3:33.0 
1.0 1.0 0.0 0.0 0.0 1:0.25 2:0.08333333333333333 3:33.0 
1.0 1.0 1.0 0.0 0.0 1:0.0 2:0.6666666666666666 3:47.0 
1.0 1.0 0.0 0.0 0.0 1:0.125 2:0.16666666666666666 3:26.0 
1.0 1.0 0.0 0.0 0.0 1:0.3076923076923077 2:0.0 3:28.0 
1.0 1.0 1.0 0.0 0.0 1:0.23076923076923078 2:0.2857142857142857 3:34.0 
1.0 1.0 0.0 0.0 0.0 1:0.3076923076923077 2:0.0 3:35.0 
1.0 1.0 1.0 0.0 0.0 1:0.23076923076923078 2:0.2857142857142857 3:45.0 
1.0 1.0 0.39055660036730433 0.0 0.0 1:2.0 2:0.0 3:41.0 
0.8287489737476278 1.0 0.9678905216959491 0.0 0.0 1:0.3333333333333333 2:0.0 3:3.0 
1.0 1.0 0.0 0.0 0.0 1:2.5 2:0.0 3:42.0 
1.0 1.0 1.0 0.41311701348311974 0.0 1:2.5 2:0.75 3:74.0 
1.0 1.0 1.0 0.006237877273518322 0.0 1:4.0 2:2.75 3:123.0 
1.0 1.0 1.0 0.0 0.0 1:0.5 2:0.5 3:24.0 
1.0 1.0 0.8477977696703805 0.014549160654104273 0.0 1:1.5 2:0.25 3:30.0 
1.0 1.0 0.37064731050990196 0.0 0.0 1:1.0 2:0.25 3:21.0 
1.0 1.0 1.0 0.21870255048685155 0.0 1:0.10714285714285714 2:0.0 3:23.0 
1.0 1.0 0.0 0.0 0.0 1:0.2 2:1.0 3:29.0 
1.0 1.0 1.0 0.0 0.0 1:1.7 2:0.6 3:179.0 
1.0 1.0 1.0 0.005227056220553472 0.0 1:2.2 2:1.0 3:208.0 
1.0 1.0 1.0 0.0 0.0 1:0.6 2:0.2 3:54.0 
1.0 1.0 0.0 0.0 0.0 1:0.2 2:0.2 3:24.0 
1.0 1.0 1.0 0.0 0.0 1:1.0 2:0.2 3:66.0 
1.0 1.0 0.0 0.0 0.0 1:2.3 2:1.2 3:255.0 
1.0 1.0 0.0 0.0 0.0 1:0.15384615384615385 2:0.5 3:24.0 
1.0 1.0 0.36974920278288154 0.20691135677488415 0.0 1:2.1666666666666665 2:1.0 3:211.0 
1.0 1.0 0.0 0.0 0.0 1:0.5 2:0.14285714285714285 3:43.0 
1.0 1.0 0.0 0.0 0.0 1:0.25 2:0.0 3:31.0 
1.0 1.0 1.0 0.0 0.0 1:0.3125 2:0.0 3:48.0 
1.0 1.0 1.0 0.0 0.0 1:0.375 2:0.14285714285714285 3:55.0 
1.0 1.0 1.0 0.0 0.0 1:0.375 2:0.7142857142857143 3:197.0 
1.0 1.0 1.0 0.0 0.0 1:0.25 2:0.2857142857142857 3:53.0 
1.0 1.0 0.0 0.0 0.0 1:0.25 2:0.42857142857142855 3:50.0 
1.0 1.0 0.0 0.0 0.0 1:0.2 2:0.0 3:12.0 
1.0 1.0 1.0 0.0 0.0 1:0.22727272727272727 2:0.125 3:69.0 
1.0 1.0 0.5638212025333582 0.02112791814185727 0.0 1:3.75 2:2.0 3:352.0 
1.0 1.0 0.8532565521754445 0.009540462996710049 0.0 1:2.0 2:4.0 3:105.0 
1.0 1.0 0.4772658209697914 0.018921220988683096 0.0 1:6.0 2:4.0 3:265.0 
1.0 1.0 1.0 0.0 0.0 1:0.2857142857142857 2:0.2 3:88.0 
1.0 1.0 0.11874333858048018 0.0 0.0 1:0.08 2:0.2222222222222222 3:42.0 
1.0 1.0 1.0 0.0 0.0 1:0.2 2:0.42857142857142855 3:56.0 
1.0 1.0 1.0 0.0 0.0 1:0.2 2:0.0 3:31.0 
1.0 1.0 0.0 0.0 0.0 1:0.05 2:0.14285714285714285 3:9.0 
1.0 1.0 0.0 0.0 0.0 1:0.15 2:0.0 3:12.0 
1.0 1.0 0.926343367305244 0.0 0.0 1:0.25 2:0.8571428571428571 3:110.0 
1.0 1.0 1.0 0.0 0.0 1:0.35 2:0.5714285714285714 3:87.0 
1.0 1.0 0.0 0.0 0.0 1:0.25 2:0.42857142857142855 3:50.0 
1.0 1.0 0.0 0.0 0.0 1:0.18181818181818182 2:0.16666666666666666 3:30.0 
1.0 1.0 0.0 0.0 0.0 1:0.16666666666666666 2:0.1111111111111111 3:19.0 
1.0 1.0 0.0 0.0 0.0 1:0.6666666666666666 2:0.3333333333333333 3:29.0 
1.0 1.0 0.0 0.0 0.0 1:0.3333333333333333 2:0.0 3:21.0 
1.0 1.0 0.0 0.0 0.0 1:1.0 2:0.6666666666666666 3:48.0 
1.0 1.0 1.0 0.3792844613956952 0.0 1:0.5 2:0.23076923076923078 3:97.0 
0.9384861589067314 1.0 0.47684687843936235 0.018539117223038082 0.0 1:6.25 2:4.5 3:267.0 
1.0 1.0 1.0 0.1562991575741725 0.0 1:3.0 2:2.0 3:155.0 
1.0 1.0 1.0 0.0 0.0 1:0.5714285714285714 2:0.75 3:54.0 
1.0 1.0 1.0 0.0 0.0 1:0.8571428571428571 2:0.5 3:61.0 
1.0 1.0 0.22323427911309807 0.0 0.0 1:1.5714285714285714 2:0.75 3:127.0 
1.0 1.0 0.0 0.0 0.0 1:1.1428571428571428 2:1.0 3:82.0 
1.0 1.0 0.0 0.0 0.0 1:0.2857142857142857 2:0.0 3:16.0 
1.0 1.0 1.0 0.0 0.0 1:0.08333333333333333 2:0.0 3:16.0 
1.0 1.0 1.0 0.0 0.0 1:0.8571428571428571 2:0.3333333333333333 3:55.0 
1.0 1.0 0.0 0.0 0.0 1:0.13333333333333333 2:0.0 3:24.0 
1.0 1.0 0.7081296107148146 0.0 0.0 1:0.125 2:1.0 3:17.0 
1.0 1.0 1.0 0.0 0.0 1:0.375 2:0.5 3:24.0 
1.0 1.0 0.6231798641630477 0.76835507533439 0.0 1:0.5 2:0.0 3:17.0 
1.0 1.0 1.0 0.0 0.0 1:1.25 2:1.25 3:108.0 
0.0 1.0 0.0 0.0 0.0 1:0.2222222222222222 2:0.0 3:11.0 
1.0 1.0 1.0 0.0 0.0 1:0.3333333333333333 2:0.6 3:36.0 
1.0 1.0 0.723965578267138 0.0 0.0 1:0.4 2:0.2222222222222222 3:27.0 
1.0 1.0 0.8836530387122892 0.0 0.0 1:1.6 2:0.5555555555555556 3:117.0 
1.0 1.0 1.0 0.0 0.0 1:1.0 2:1.0 3:78.0 
1.0 1.0 1.0 0.0 0.0 1:1.0 2:1.0 3:167.0 
1.0 1.0 1.0 0.012564803476660695 0.0 1:0.7333333333333333 2:0.8 3:245.0 
1.0 1.0 0.21372637194592822 0.0 0.0 1:0.4 2:3.0 3:102.0 
1.0 1.0 0.0 0.0 0.0 1:0.2 2:0.0 3:20.0 
1.0 1.0 1.0 0.0 0.0 1:0.4 2:0.5 3:54.0 
1.0 1.0 1.0 0.014258081480384351 0.0 1:0.0 2:0.0 3:180.0 
1.0 1.0 1.0 0.06538659252925774 0.0 1:0.13636363636363635 2:0.0 3:26.0 
0.25653577221137247 1.0 1.0 0.011729992675468977 0.0 1:1.2727272727272727 2:1.5555555555555556 3:387.0 
1.0 1.0 0.5868370976235243 0.02279376143125983 0.0 1:2.0 2:2.6666666666666665 3:628.0 
0.6259704196961458 1.0 1.0 0.0 0.0 1:1.0909090909090908 2:0.3333333333333333 3:310.0 
1.0 1.0 1.0 0.05033432854012919 0.0 1:0.2727272727272727 2:0.0 3:39.0 
1.0 1.0 1.0 0.0 0.0 1:0.5 2:0.0 3:14.0 
1.0 1.0 1.0 0.0 0.0 1:0.625 2:0.5 3:68.0 
1.0 1.0 0.49711416289624666 0.0 0.0 1:1.0 2:0.5 3:65.0 
1.0 1.0 1.0 0.0 0.0 1:0.125 2:1.0 3:32.0 
1.0 1.0 0.7568631869683538 0.0 0.0 1:1.625 2:1.0 3:137.0 
1.0 1.0 0.828383638763117 0.022288651970393203 0.0 1:9.0 2:0.0 3:166.0 
1.0 1.0 1.0 0.0 0.0 1:1.6666666666666667 2:1.0 3:42.0 
0.0 0.8538381210961132 0.6883379313966378 0.0054515778805020974 0.0 1:2.6666666666666665 2:3.0 3:72.0 
1.0 1.0 1.0 0.0 0.0 1:2.6666666666666665 2:0.0 3:179.0 
1.0 1.0 0.5903457892419899 0.02253952694144329 0.0 1:25.0 2:37.0 3:965.0 
1.0 1.0 0.5945513548272648 0.022822798000639744 0.0 1:6.666666666666667 2:5.0 3:244.0 
1.0 1.0 0.8396311352210976 0.0 0.0 1:0.6666666666666666 2:2.0 3:50.0 
1.0 1.0 0.6976915434818828 0.0230293467515178 0.0 1:14.666666666666666 2:0.0 3:145.0 
1.0 1.0 0.5902906930437515 0.022886599226660087 0.0 1:12.333333333333334 2:1.0 3:93.0 
1.0 1.0 0.7555530041068197 0.0 0.0 1:0.2222222222222222 2:0.0 3:12.0 
1.0 1.0 0.10839425523372903 0.0 0.0 1:0.13333333333333333 2:0.3333333333333333 3:32.0 
0.4920649606273967 1.0 0.3312697246073346 0.012078015453784285 0.0 1:0.6 2:4.666666666666667 3:207.0 
1.0 1.0 0.250716098669709 0.0 0.0 1:0.06666666666666667 2:0.3333333333333333 3:12.0 
1.0 1.0 0.0 0.0 0.0 1:0.26666666666666666 2:0.6666666666666666 3:51.0 
1.0 1.0 1.0 0.0 0.0 1:0.26666666666666666 2:0.0 3:33.0 
1.0 1.0 0.0 0.0 0.0 1:0.26666666666666666 2:0.3333333333333333 3:37.0 
1.0 1.0 1.0 0.0 0.0 1:1.0 2:1.0 3:41.0 
1.0 1.0 0.8914618289058858 0.0 0.0 1:0.5 2:2.0 3:25.0 
1.0 1.0 0.5317108713954223 0.018802525103219173 0.0 1:0.5 2:3.0 3:28.0 
1.0 1.0 1.0 0.0 0.0 1:2.75 2:1.0 3:96.0 
1.0 1.0 1.0 0.0 0.0 1:0.4 2:0.5 3:15.0 
1.0 1.0 0.6357432721112561 0.49653770705184463 0.0 1:3.6 2:4.0 3:183.0 
1.0 1.0 0.0 0.0 0.0 1:2.6 2:3.0 3:177.0 
1.0 1.0 1.0 0.007450216857515013 0.0 1:2.4 2:2.5 3:171.0 
1.0 1.0 1.0 0.011921475391453717 0.0 1:1.2 2:3.0 3:124.0 
1.0 1.0 1.0 0.0 0.0 1:0.5833333333333334 2:0.6666666666666666 3:84.0 
1.0 1.0 1.0 0.017572074675938573 0.0 1:1.0 2:0.0 3:12.0 
0.0 1.0 0.0 0.0 0.0 1:0.3333333333333333 2:0.0 3:7.0 
1.0 1.0 0.0 0.0 0.0 1:0.16666666666666666 2:0.3333333333333333 3:24.0 
1.0 1.0 0.0 0.0 0.0 1:0.3333333333333333 2:0.3333333333333333 3:30.0 
1.0 1.0 1.0 0.0 0.0 1:0.6428571428571429 2:0.21428571428571427 3:139.0 
1.0 1.0 0.0 0.0 0.0 1:0.058823529411764705 2:0.1 3:11.0 
1.0 1.0 1.0 0.0 0.0 1:0.05 2:0.5 3:15.0 
1.0 1.0 1.0 0.0 0.0 1:0.3 2:0.25 3:45.0 
1.0 1.0 1.0 0.0 0.0 1:0.55 2:0.75 3:100.0 
1.0 1.0 0.01222653636001425 0.0 0.0 1:0.1 2:0.1111111111111111 3:30.0 
1.0 1.0 1.0 0.0 0.0 1:0.15 2:0.1111111111111111 3:43.0 
1.0 1.0 1.0 0.07779315965224093 0.0 1:0.35 2:0.1111111111111111 3:69.0 
1.0 1.0 0.5019227581830897 0.1658723535715601 0.0 1:0.3333333333333333 2:0.0 3:231.0 
1.0 1.0 1.0 0.0 0.0 1:1.3 2:2.0 3:184.0 
1.0 1.0 0.0 0.0 0.0 1:0.4 2:0.3333333333333333 3:46.0 
1.0 1.0 0.0 0.0 0.0 1:0.06666666666666667 2:0.09090909090909091 3:15.0 
1.0 1.0 1.0 0.0 0.0 1:0.3333333333333333 2:0.0 3:15.0 
1.0 1.0 1.0 0.0 0.0 1:0.16666666666666666 2:0.75 3:27.0 
1.0 1.0 1.0 0.0 0.0 1:0.8181818181818182 2:0.25 3:83.0 
1.0 1.0 1.0 0.0 0.0 1:0.2727272727272727 2:0.5 3:34.0 
1.0 1.0 0.18023121206911644 0.0 0.0 1:2.0 2:1.0 3:234.0 
1.0 1.0 0.5903997498753997 0.022488602030280525 0.0 1:5.909090909090909 2:1.5 3:735.0 
1.0 1.0 0.0 0.0 0.0 1:2.3333333333333335 2:0.6666666666666666 3:82.0 
1.0 1.0 1.0 0.0 0.0 1:0.8333333333333334 2:2.0 3:74.0 
1.0 1.0 0.8910681722026186 0.0 0.0 1:2.0 2:2.5 3:99.0 
1.0 1.0 0.0 0.0 0.0 1:1.0 2:1.0 3:39.0 
1.0 1.0 0.0 0.0 0.0 1:0.3333333333333333 2:0.0 3:5.0 
1.0 1.0 0.0 0.0 0.0 1:0.8333333333333334 2:0.5 3:137.0 
1.0 1.0 1.0 0.0 0.0 1:1.5833333333333333 2:0.9285714285714286 3:264.0 
1.0 1.0 0.0 0.0 0.0 1:0.07692307692307693 2:0.0 3:6.0 
0.0 1.0 0.00757785107303496 0.0 0.0 1:0.3333333333333333 2:0.0 3:9.0 
0.7824835683724637 0.992865291265543 0.4745958014236567 6.602303652935462E-4 0.0 1:2.0 2:0.0 3:7.0 
1.0 1.0 1.0 0.0 0.0 1:0.18181818181818182 2:0.0 3:27.0 
1.0 1.0 1.0 0.005928961610872171 0.0 1:0.2727272727272727 2:0.0 3:44.0 
1.0 1.0 1.0 0.6119790837334574 0.0 1:0.6818181818181818 2:0.75 3:145.0 
1.0 1.0 1.0 0.0 0.0 1:0.2727272727272727 2:0.0 3:27.0 
1.0 1.0 1.0 0.010355139160395611 0.0 1:0.3181818181818182 2:0.0 3:47.0 
1.0 1.0 1.0 0.0 0.0 1:0.5454545454545454 2:0.25 3:90.0 
1.0 1.0 1.0 0.0 0.0 1:0.36363636363636365 2:0.125 3:63.0 
1.0 1.0 1.0 0.0 0.0 1:0.09090909090909091 2:0.0 3:20.0 
1.0 1.0 0.45242330805124675 0.0 0.0 1:0.6818181818181818 2:0.5 3:133.0 
1.0 1.0 0.0 0.0 0.0 1:0.09090909090909091 2:0.25 3:45.0 
1.0 1.0 1.0 0.0 0.0 1:0.09090909090909091 2:0.0 3:18.0 
1.0 1.0 0.0 0.0 0.0 1:0.09090909090909091 2:0.125 3:28.0 
1.0 1.0 0.0 0.0 0.0 1:0.13636363636363635 2:0.125 3:26.0 
1.0 1.0 0.0 0.0 0.0 1:0.18181818181818182 2:0.125 3:37.0 
1.0 1.0 1.0 0.0 0.0 1:0.2727272727272727 2:0.25 3:47.0 
1.0 1.0 0.0 0.0 0.0 1:0.2727272727272727 2:0.5 3:30.0 
1.0 1.0 1.0 0.02078641868407516 0.0 1:5.285714285714286 2:2.5 3:388.0 
1.0 1.0 0.7906321818329867 0.0 0.0 1:1.1428571428571428 2:3.0 3:115.0 
1.0 1.0 0.6086128171249225 0.021602998267769347 0.0 1:6.5 2:4.5 3:280.0 
1.0 1.0 1.0 0.017705747519457193 0.0 1:3.75 2:1.5 3:132.0 
1.0 1.0 0.8905381234104744 0.0 0.0 1:1.25 2:0.0 3:56.0 
1.0 1.0 0.7560483662640053 0.01780079478290214 0.0 1:1.25 2:4.5 3:117.0 
1.0 1.0 0.0 0.0026033679559596228 0.0 1:0.5 2:0.0 3:35.0 
1.0 1.0 0.539252183978413 0.0 0.0 1:0.25 2:0.0 3:22.0 
1.0 1.0 0.0 0.0 0.0 1:0.25 2:0.0 3:28.0 
1.0 1.0 1.0 0.0 0.0 1:0.125 2:0.5 3:33.0 
0.45760385596986464 1.0 0.0 0.0 0.0 1:0.3684210526315789 2:0.2222222222222222 3:273.0 
1.0 1.0 0.0 0.0 0.0 1:0.3333333333333333 2:0.2 3:24.0 
1.0 1.0 0.0 0.0 0.0 1:0.0 2:0.2 3:8.0 
1.0 1.0 0.0 0.0 0.0 1:0.6666666666666666 2:0.4 3:52.0 
1.0 1.0 1.0 0.002817230541051389 0.0 1:1.5 2:1.4 3:137.0 
1.0 1.0 0.0 0.0 0.0 1:0.6666666666666666 2:0.2 3:30.0 
0.0 1.0 1.0 0.600097132387629 0.0 1:1.8 2:0.0 3:97.0 
1.0 1.0 1.0 0.0 0.0 1:0.7142857142857143 2:0.8333333333333334 3:161.0 
1.0 1.0 0.0 0.0 0.0 1:1.5 2:1.25 3:111.0 
1.0 1.0 0.0 0.0 0.0 1:0.375 2:0.5 3:30.0 
1.0 1.0 0.0 0.0 0.0 1:0.375 2:0.25 3:19.0 
1.0 1.0 1.0 0.0 0.0 1:0.05555555555555555 2:0.4 3:37.0 
1.0 1.0 1.0 0.0 0.0 1:0.36 2:0.25 3:97.0 
1.0 1.0 1.0 0.0 0.0 1:0.26666666666666666 2:1.0 3:99.0 
1.0 1.0 0.0 0.0 0.0 1:2.0 2:1.0 3:27.0 
1.0 1.0 0.0 0.0 0.0 1:0.25 2:0.0 3:19.0 
1.0 1.0 0.0 0.0 0.0 1:0.25 2:0.0 3:10.0 
1.0 1.0 0.03002137221876923 0.0 0.0 1:0.36363636363636365 2:0.0 3:32.0 
1.0 1.0 0.0 0.0 0.0 1:0.058823529411764705 2:0.5 3:23.0 
1.0 1.0 0.9632242332963225 0.0 0.0 1:0.11764705882352941 2:0.25 3:18.0 
1.0 1.0 1.0 0.0 0.0 1:1.0 2:0.0 3:52.0 
1.0 1.0 0.0 0.36268335754177417 0.0 1:1.25 2:0.0 3:82.0 
1.0 1.0 1.0 0.11065186779736659 0.0 1:1.0 2:0.0 3:78.0 
1.0 1.0 1.0 0.2402758585173646 0.0 1:3.0 2:0.0 3:54.0 
1.0 1.0 0.5909253265063106 0.022437340589681998 0.0 1:2.6 2:0.0 3:483.0 
1.0 1.0 1.0 0.0 0.0 1:0.14285714285714285 2:0.42857142857142855 3:38.0 
1.0 1.0 0.0 0.0 0.0 1:0.2727272727272727 2:1.5 3:81.0 
1.0 1.0 0.17459188317929858 0.0 0.0 1:0.0 2:0.0 3:36.0 
1.0 1.0 1.0 0.015818803950904625 0.0 1:0.7727272727272727 2:2.5 3:164.0 
0.7600223259333433 1.0 0.0 0.0 0.0 1:0.46153846153846156 2:0.0 3:274.0 
1.0 1.0 0.12318421210404067 0.0 0.0 1:0.46153846153846156 2:0.0 3:274.0 
1.0 1.0 0.9790664756096896 0.013307235226186908 0.0 1:0.46153846153846156 2:0.0 3:274.0 
1.0 1.0 1.0 0.0 0.0 1:0.42857142857142855 2:1.0 3:27.0 
1.0 1.0 0.0 0.0 0.0 1:0.3 2:0.0 3:32.0 
0.3228055599063335 1.0 0.0 0.0 0.0 1:1.8571428571428572 2:0.8 3:97.0 
1.0 1.0 0.0 0.0 0.0 1:0.3333333333333333 2:0.0 3:16.0 
1.0 1.0 0.0 0.0 0.0 1:0.55 2:0.11764705882352941 3:121.0 
1.0 1.0 1.0 0.006474769446112809 0.0 1:0.5 2:0.29411764705882354 3:78.0 
1.0 1.0 1.0 0.005833842483922586 0.0 1:0.85 2:0.23529411764705882 3:198.0 
1.0 1.0 1.0 0.0 0.0 1:0.1 2:0.11764705882352941 3:68.0 
1.0 1.0 1.0 0.0 0.0 1:0.8 2:0.47058823529411764 3:197.0 
1.0 1.0 1.0 0.0 0.0 1:0.4 2:0.11764705882352941 3:82.0 
0.5020624570875526 1.0 0.8043231265192344 0.0 0.0 1:0.4 2:0.23529411764705882 3:309.0 
1.0 1.0 0.0 0.06594301037008711 0.0 1:0.55 2:0.0 3:67.0 
1.0 1.0 0.0 0.016911151377483342 0.0 1:0.1 2:0.11764705882352941 3:31.0 
1.0 1.0 1.0 0.010654805040453186 0.0 1:0.65 2:0.17647058823529413 3:126.0 
1.0 1.0 0.7408978510436242 0.0 0.0 1:0.5 2:0.11764705882352941 3:98.0 
1.0 1.0 1.0 0.0 0.0 1:0.35 2:0.17647058823529413 3:72.0 
0.8731900862475946 1.0 0.15215499804085791 0.0042849495824490245 0.0 1:1.35 2:0.4117647058823529 3:308.0 
0.893990936292668 1.0 0.0 0.0 0.0 1:0.1 2:0.0 3:8.0 
1.0 1.0 1.0 0.0 0.0 1:0.1 2:0.17647058823529413 3:34.0 
1.0 1.0 1.0 0.0 0.0 1:0.75 2:0.058823529411764705 3:93.0 
1.0 1.0 1.0 0.021936638183180424 0.0 1:1.8 2:0.6470588235294118 3:403.0 
0.16394945833797694 1.0 0.0 0.0 0.0 1:0.1 2:0.0 3:8.0 
1.0 1.0 1.0 0.0 0.0 1:0.05 2:0.0 3:14.0 
0.9908625361385277 1.0 0.4776416969804038 0.01841791413019334 0.0 1:1.25 2:0.23529411764705882 3:453.0 
1.0 1.0 1.0 0.005927080252674688 0.0 1:0.55 2:0.11764705882352941 3:149.0 
1.0 1.0 1.0 0.008604803157091676 0.23815393648458624 1:0.55 2:0.17647058823529413 3:301.0 
1.0 1.0 1.0 0.014531456831872727 0.0 1:0.6 2:0.11764705882352941 3:300.0 
0.0 1.0 0.0 0.0 0.0 1:0.65 2:0.29411764705882354 3:273.0 
1.0 1.0 0.0 0.0032905214120632713 0.0 1:0.2 2:0.0 3:26.0 
1.0 1.0 1.0 0.0 0.0 1:0.2 2:0.058823529411764705 3:34.0 
1.0 1.0 0.8427883769370125 0.0 0.0 1:0.45 2:0.29411764705882354 3:168.0 
0.0 1.0 0.08233557693612639 0.0 0.0 1:0.75 2:0.058823529411764705 3:107.0 
1.0 1.0 0.0 0.0 0.0 1:0.0 2:1.0 3:12.0 
1.0 1.0 0.5872016439028765 0.0 0.0 1:1.0 2:0.0 3:175.0 
1.0 1.0 1.0 0.0 0.0 1:0.08 2:0.16666666666666666 3:23.0 
1.0 1.0 0.0 0.0 0.0 1:0.2413793103448276 2:0.7 3:90.0 
1.0 1.0 1.0 0.0 0.0 1:0.55 2:1.2 3:101.0 
1.0 1.0 1.0 0.0 0.0 1:0.75 2:0.8 3:164.0 
1.0 1.0 1.0 0.002628541304089016 0.0 1:0.5 2:1.8 3:126.0 
1.0 1.0 1.0 0.0 0.0 1:0.2 2:0.8 3:59.0 
1.0 1.0 1.0 0.0 0.0 1:0.25 2:0.4 3:51.0 
1.0 1.0 0.0664875630609155 0.0 0.0 1:0.5 2:2.0 3:152.0 
1.0 1.0 1.0 0.0 0.0 1:0.45 2:0.6 3:87.0 
1.0 1.0 1.0 0.17840258721142335 0.0 1:0.5833333333333334 2:0.75 3:70.0 
1.0 1.0 1.0 0.0 0.0 1:0.5 2:0.5 3:49.0 
0.0 1.0 1.0 0.0 0.0 1:0.05 2:0.0 3:5.0 
1.0 1.0 0.0 0.0 0.0 1:1.0 2:0.5 3:28.0 
1.0 1.0 0.0 0.0 0.0 1:1.5 2:0.25 3:32.0 
1.0 1.0 0.9503353876336453 0.0 0.0 1:0.19047619047619047 2:0.5 3:39.0 
1.0 1.0 0.0 0.0 0.0 1:0.16666666666666666 2:0.0 3:21.0 
1.0 1.0 1.0 0.0 0.0 1:0.2727272727272727 2:0.0 3:20.0 
1.0 1.0 0.2827244189976148 0.0 0.0 1:1.2727272727272727 2:0.4444444444444444 3:137.0 
1.0 1.0 0.0 0.0 0.0 1:0.36363636363636365 2:0.4444444444444444 3:59.0 
1.0 1.0 1.0 0.0 0.0 1:1.1818181818181819 2:1.0 3:187.0 
1.0 1.0 0.5875376699351214 0.0 0.0 1:0.18181818181818182 2:0.0 3:23.0 
1.0 1.0 0.09476219152311678 0.0 0.0 1:0.7272727272727273 2:0.4444444444444444 3:239.0 
1.0 1.0 0.0 0.0 0.0 1:0.07692307692307693 2:1.5 3:23.0 
1.0 1.0 0.3615416004014911 0.0 0.0 1:0.46153846153846156 2:3.0 3:113.0 
1.0 1.0 0.46028809421397465 0.012278467815730554 0.0 1:0.6923076923076923 2:5.0 3:176.0 
0.855867730219471 1.0 0.7036793881443303 0.012546210993118367 0.0 1:0.9230769230769231 2:4.0 3:208.0 
1.0 1.0 0.6259331289583032 0.0 0.0 1:0.23076923076923078 2:3.5 3:100.0 
1.0 1.0 0.5461496233690999 0.02183826452962756 0.0 1:2.076923076923077 2:6.5 3:327.0 
1.0 1.0 0.5189017247706136 0.016492732195897204 0.0 1:0.46153846153846156 2:5.5 3:132.0 
0.009201945559341992 1.0 0.6190166988923119 0.0 0.0 1:0.15384615384615385 2:1.0 3:43.0 
1.0 1.0 0.09208190015672266 0.0 0.0 1:0.3076923076923077 2:0.0 3:30.0 
1.0 1.0 0.0 0.0 0.0 1:0.07692307692307693 2:2.5 3:50.0 
1.0 1.0 1.0 0.0 0.0 1:0.15384615384615385 2:1.5 3:48.0 
1.0 1.0 0.0 0.0 0.0 1:0.6153846153846154 2:0.5 3:72.0 
0.9866500351784642 1.0 0.5203819008060682 0.02040429334203847 0.0 1:2.076923076923077 2:4.5 3:399.0 
1.0 1.0 0.5940641715652754 0.022466836622048514 0.0 1:1.2307692307692308 2:6.5 3:219.0 
1.0 1.0 0.5904549369154184 0.02251536200129267 0.0 1:4.3076923076923075 2:23.0 3:790.0 
0.9523960008055069 1.0 0.702632125953578 0.019042004025690562 0.0 1:0.9230769230769231 2:6.5 3:156.0 
1.0 1.0 1.0 0.01458628144015667 0.0 1:2.0 2:1.0 3:174.0 
1.0 1.0 0.0 0.0 0.0 1:0.38461538461538464 2:1.0 3:60.0 
1.0 1.0 0.9138444017387589 0.0 0.0 1:0.23076923076923078 2:2.5 3:116.0 
1.0 1.0 0.25831657527737795 0.012211401069344565 0.0 1:0.9230769230769231 2:4.0 3:136.0 
1.0 1.0 1.0 0.017906046175257935 0.0 1:1.4615384615384615 2:3.0 3:203.0 
1.0 1.0 1.0 0.006672397571379925 0.0 1:0.38461538461538464 2:0.5 3:108.0 
1.0 1.0 0.04536863989488748 0.0 0.0 1:0.23076923076923078 2:0.0 3:31.0 
1.0 1.0 1.0 0.0 0.0 1:0.6153846153846154 2:1.5 3:117.0 
1.0 1.0 0.3100149512349567 0.010475753334163507 0.0 1:0.5384615384615384 2:5.0 3:145.0 
1.0 1.0 0.01783737421774152 0.0 0.0 1:0.07692307692307693 2:0.0 3:8.0 
1.0 1.0 1.0 0.0 0.0 1:0.7692307692307693 2:1.5 3:109.0 
1.0 1.0 1.0 0.0 0.0 1:0.6153846153846154 2:1.0 3:65.0 
0.7701061913732187 1.0 0.2928934971367545 0.014189658858377585 0.0 1:0.6153846153846154 2:6.5 3:169.0 
1.0 1.0 1.0 0.0 0.0 1:0.38461538461538464 2:1.0 3:30.0 
1.0 1.0 0.5903665227599063 0.022524733112628426 0.0 1:2.0 2:11.0 3:406.0 
1.0 1.0 0.13310683754826977 0.0 0.0 1:0.23076923076923078 2:0.0 3:24.0 
1.0 1.0 0.0 0.0 0.0 1:0.23076923076923078 2:1.0 3:46.0 
1.0 1.0 1.0 0.013063217467393085 0.0 1:0.46153846153846156 2:3.5 3:107.0 
1.0 1.0 0.0 0.0 0.0 1:0.6153846153846154 2:1.5 3:136.0 
1.0 1.0 0.0 0.0 0.0 1:0.15384615384615385 2:0.5 3:29.0 
1.0 1.0 0.6177934289612326 0.0 0.0 1:0.38461538461538464 2:1.5 3:57.0 
1.0 1.0 1.0 0.0 0.0 1:0.6153846153846154 2:1.0 3:144.0 
1.0 1.0 0.3838776864750519 0.0 0.0 1:0.23076923076923078 2:3.0 3:83.0 
1.0 1.0 1.0 0.07768604350549325 0.0 1:1.3076923076923077 2:2.0 3:182.0 
1.0 1.0 1.0 0.007321651023042219 0.0 1:1.4615384615384615 2:3.5 3:212.0 
1.0 1.0 0.0 0.0 0.0 1:0.23076923076923078 2:0.5 3:22.0 
1.0 1.0 1.0 0.0 0.0 1:0.23076923076923078 2:0.5 3:28.0 
1.0 1.0 0.0 0.0 0.0 1:0.23076923076923078 2:2.0 3:68.0 
1.0 1.0 1.0 0.02148360215278977 0.0 1:1.3846153846153846 2:4.0 3:196.0 
1.0 1.0 1.0 0.019469110911062182 0.0 1:0.7692307692307693 2:4.5 3:149.0 
0.2469060773797162 1.0 0.0 0.0 0.0 1:1.0 2:3.0 3:400.0 
1.0 1.0 1.0 0.005130498876151259 0.0 1:0.5384615384615384 2:2.5 3:104.0 
1.0 1.0 1.0 0.0 0.0 1:1.3076923076923077 2:2.5 3:177.0 
1.0 1.0 1.0 0.0 0.0 1:0.3076923076923077 2:1.5 3:96.0 
1.0 1.0 1.0 0.0 0.0 1:0.6923076923076923 2:1.5 3:99.0 
1.0 1.0 0.0 0.0 0.0 1:0.3076923076923077 2:0.0 3:22.0 
1.0 1.0 0.6849230938422264 0.0 0.0 1:0.15384615384615385 2:2.0 3:39.0 
1.0 1.0 0.0 0.0 0.0 1:0.6153846153846154 2:1.5 3:76.0 
1.0 1.0 0.0 0.0 0.0 1:0.6153846153846154 2:1.5 3:76.0 
1.0 1.0 0.0 0.0 0.0 1:0.3076923076923077 2:2.0 3:81.0 
1.0 1.0 0.0 0.0 0.0 1:0.38461538461538464 2:1.5 3:61.0 
1.0 1.0 0.0 0.0 0.0 1:0.46153846153846156 2:2.0 3:57.0 
1.0 1.0 1.0 0.0 0.0 1:0.46153846153846156 2:1.5 3:104.0 
1.0 1.0 1.0 0.0 0.0 1:0.5384615384615384 2:0.5 3:66.0 
1.0 1.0 0.6049037476530263 0.017704505023391857 0.0 1:0.1111111111111111 2:5.0 3:49.0 
0.8599967614316323 1.0 0.0 0.0 0.0 1:0.1111111111111111 2:2.0 3:24.0 
1.0 1.0 0.8316125259358419 0.012141713318738239 0.0 1:2.3846153846153846 2:1.2 3:269.0 
1.0 1.0 0.0 0.0 0.0 1:0.25 2:0.0 3:4.0 
1.0 1.0 0.0 0.0 0.0 1:0.2857142857142857 2:0.5555555555555556 3:77.0 
1.0 1.0 1.0 0.9778562018107424 0.0 1:0.6666666666666666 2:0.5 3:175.0 
1.0 1.0 0.4905542258444058 0.01859414175022195 0.0 1:3.272727272727273 2:2.2857142857142856 3:423.0 
1.0 1.0 0.15588746651889063 0.0 0.0 1:1.7272727272727273 2:1.1428571428571428 3:232.0 
1.0 1.0 0.0 0.0 0.0 1:0.2727272727272727 2:0.0 3:10.0 
1.0 1.0 1.0 0.0 0.0 1:0.5 2:0.4 3:76.0 
1.0 1.0 0.0 0.0 0.0 1:0.25 2:0.0 3:10.0 
1.0 1.0 1.0 0.0 0.0 1:1.5 2:1.0 3:45.0 
0.0 1.0 0.16663456672980717 0.0 0.0 1:0.5 2:0.0 3:9.0 
0.0 1.0 1.0 0.0026812088575633554 0.0 1:0.5 2:0.0 3:11.0 
1.0 1.0 0.0 0.0 0.0 1:1.5 2:2.0 3:55.0 
0.0 1.0 0.0 0.0 0.0 1:0.25 2:0.0 3:9.0 
0.0 1.0 0.08451060747669727 0.003782579594512288 0.0 1:1.0 2:2.5 3:47.0 
1.0 1.0 0.0 0.0 0.0 1:1.4285714285714286 2:1.0 3:111.0 
1.0 1.0 0.1588084231985171 0.0 0.0 1:0.5 2:0.5 3:19.0 
1.0 1.0 0.0 0.0 0.0 1:0.1 2:0.2 3:22.0 
1.0 1.0 1.0 0.0 0.0 1:0.06666666666666667 2:0.0 3:7.0 
1.0 1.0 0.4771220304694807 0.0 0.0 1:0.13333333333333333 2:0.4 3:43.0 
1.0 1.0 0.0 6.229150170930551E-4 0.0 1:0.23333333333333334 2:0.0 3:33.0 
1.0 1.0 0.8827001673551994 0.0 0.0 1:0.13333333333333333 2:0.0 3:28.0 
1.0 1.0 0.0 0.0 0.0 1:0.1 2:0.2 3:28.0 
1.0 1.0 1.0 0.0 0.0 1:0.1 2:0.0 3:48.0 
1.0 1.0 1.0 0.0 0.0 1:0.3 2:0.2 3:72.0 
1.0 1.0 0.0 0.0 0.0 1:0.13333333333333333 2:0.4 3:41.0 
1.0 1.0 1.0 0.011507468347121297 0.0 1:0.3333333333333333 2:1.8 3:130.0 
1.0 1.0 1.0 0.0 0.0 1:0.13333333333333333 2:0.2 3:56.0 
1.0 1.0 0.0 0.0 0.0 1:1.0 2:0.5 3:25.0 
1.0 1.0 1.0 0.9223090830217204 0.0 1:0.5 2:0.3333333333333333 3:167.0 
1.0 1.0 1.0 0.0 0.0 1:0.8181818181818182 2:0.75 3:94.0 
1.0 1.0 0.0 0.0 0.0 1:0.2 2:0.0 3:17.0 
1.0 1.0 0.0 0.0 0.0 1:0.3125 2:0.2857142857142857 3:69.0 
1.0 1.0 1.0 0.0 0.0 1:0.375 2:0.14285714285714285 3:55.0 
1.0 1.0 0.0 0.0 0.0 1:0.1875 2:0.2857142857142857 3:50.0 
1.0 1.0 1.0 0.0 0.0 1:1.0909090909090908 2:1.75 3:155.0 
1.0 1.0 0.08678156399695844 0.05293101953490423 0.0 1:1.2727272727272727 2:2.0 3:176.0 
1.0 1.0 0.271775754034826 0.0 0.0 1:0.8181818181818182 2:1.0 3:81.0 
1.0 1.0 0.0 0.0 0.0 1:0.2727272727272727 2:0.0 3:21.0 
1.0 1.0 1.0 0.0 0.0 1:1.2727272727272727 2:1.0 3:114.0 
1.0 1.0 0.0 0.0 0.0 1:0.2727272727272727 2:0.0 3:19.0 
1.0 1.0 1.0 0.0 0.0 1:0.2727272727272727 2:0.5 3:41.0 
1.0 1.0 1.0 0.0 0.0 1:1.0909090909090908 2:1.75 3:147.0 
1.0 1.0 1.0 0.0 0.0 1:0.18181818181818182 2:0.75 3:49.0 
1.0 1.0 0.9735847321739024 0.0 0.0 1:0.18181818181818182 2:0.25 3:23.0 
1.0 1.0 0.0 0.0 0.0 1:0.09090909090909091 2:0.25 3:17.0 
1.0 1.0 0.4179187372438566 0.0 0.0 1:0.09090909090909091 2:0.25 3:22.0 
1.0 1.0 0.0 0.0 0.0 1:0.14285714285714285 2:0.25 3:13.0 
1.0 1.0 1.0 0.7786646966233306 0.0 1:1.0 2:0.5 3:119.0 
1.0 1.0 1.0 0.0 0.0 1:0.42857142857142855 2:1.75 3:74.0 
1.0 1.0 0.0 0.0 0.0 1:0.14285714285714285 2:0.25 3:13.0 
1.0 1.0 0.8970590666416938 0.0175838286284703 0.0 1:3.3 2:0.4444444444444444 3:355.0 
1.0 1.0 0.0 0.0 0.0 1:0.10526315789473684 2:0.0 3:19.0 
0.0 1.0 1.0 0.0 0.0 1:0.2631578947368421 2:0.14285714285714285 3:70.0 
1.0 1.0 1.0 0.0 0.0 1:0.3684210526315789 2:0.14285714285714285 3:62.0 
1.0 1.0 1.0 0.0 0.0 1:0.043478260869565216 2:0.07142857142857142 3:72.0 
1.0 1.0 1.0 0.0 0.0 1:0.043478260869565216 2:0.07142857142857142 3:72.0 
1.0 1.0 0.0 0.0 0.0 1:0.13333333333333333 2:0.08333333333333333 3:20.0 
1.0 1.0 1.0 0.0 0.0 1:1.0 2:0.6666666666666666 3:161.0 
1.0 1.0 0.0 0.0 0.0 1:0.21428571428571427 2:0.2222222222222222 3:30.0 
1.0 1.0 1.0 0.007098269912986907 0.0 1:0.8571428571428571 2:0.6666666666666666 3:156.0 
1.0 1.0 0.0 0.0 0.0 1:0.25 2:0.125 3:26.0 
1.0 1.0 0.5902475780247065 0.022935396408033215 0.0 1:13.5 2:3.0 3:700.0 
1.0 1.0 1.0 0.0 0.0 1:0.0 2:0.0 3:140.0 
1.0 1.0 1.0 0.008922687153920916 0.0 1:0.36363636363636365 2:1.8 3:123.0 
1.0 1.0 0.0 0.0 0.0 1:0.26666666666666666 2:0.25 3:31.0 
1.0 1.0 1.0 0.004702800400797527 0.0 1:0.75 2:0.0 3:41.0 
1.0 1.0 1.0 0.0 0.0 1:1.5 2:2.0 3:87.0 
1.0 1.0 0.0 0.0 0.0 1:0.25 2:1.0 3:24.0 
1.0 1.0 0.0 0.0 0.0 1:0.5 2:0.5 3:21.0 
1.0 1.0 1.0 0.007748197529583023 0.0 1:1.75 2:3.5 3:104.0 
1.0 1.0 1.0 0.0 0.0 1:1.4 2:1.6666666666666667 3:90.0 
0.0 1.0 1.0 0.0014926639365102547 0.0 1:0.375 2:2.0 3:40.0 
1.0 1.0 0.0 0.0 0.0 1:0.5 2:0.2222222222222222 3:34.0 
1.0 1.0 0.0 0.0 0.0 1:0.5 2:0.3333333333333333 3:48.0 
1.0 1.0 0.4744581259070462 0.018238754004852233 0.0 1:4.125 2:2.6666666666666665 3:360.0 
1.0 1.0 0.2411681056201329 0.01595654343939623 0.0 1:5.0 2:3.0 3:123.0 
1.0 1.0 1.0 0.0 0.0 1:1.0 2:1.0 3:31.0 
1.0 1.0 1.0 0.0 0.0 1:0.6666666666666666 2:1.3333333333333333 3:184.0 
1.0 1.0 1.0 0.0 0.0 1:0.6666666666666666 2:1.3333333333333333 3:184.0 
1.0 1.0 1.0 0.0 0.0 1:0.2727272727272727 2:0.0 3:26.0 
0.026602714272934064 1.0 1.0 0.0 0.0 1:0.6666666666666666 2:0.0 3:8.0 
1.0 1.0 0.7851687969343204 0.0 0.0 1:1.2222222222222223 2:0.3333333333333333 3:88.0 
1.0 1.0 0.0 0.0 0.0 1:0.4166666666666667 2:0.0 3:29.0 
1.0 1.0 0.0 0.0 0.0 1:0.3333333333333333 2:0.4 3:69.0 
1.0 1.0 0.0 0.0 0.0 1:1.3333333333333333 2:1.0 3:76.0 
1.0 1.0 1.0 0.0 0.0 1:2.3333333333333335 2:0.0 3:62.0 
