svm_type c_svc
kernel_type rbf
gamma 0.5
nr_class 6
total_sv 14566
rho -0.03720286301741081 0.94092382394323 -0.5510483423413459 -1.0214515490170248 -1.007639724507699 0.9129916252609869 -0.44793639002657704 -0.9883474229741133 -1.006563441865217 -0.9436795865979578 -1.0099379540854894 -1.00692276112865 -1.0160308573918901 -1.0034382080368742 -1.002817838910705
label 2 4 1 3 6 5
nr_sv 2981 3755 6094 1659 74 3
SV
1.0 1.0 1.0 0.0 0.0 1:1.3333333333333333 2:2.0 
1.0 1.0 1.0 0.0 0.0 1:4.0 2:3.0 
1.0 1.0 1.0 0.0 0.0 1:1.3333333333333333 2:2.0 
1.0 1.0 1.0 0.0 0.0 1:1.3636363636363635 2:1.375 
1.0 1.0 0.49613981405067364 0.0 0.0 1:7.4 2:23.0 
1.0 1.0 1.0 0.0 0.0 1:4.2 2:12.0 
1.0 1.0 1.0 0.0 0.0 1:3.0 2:2.0 
1.0 1.0 1.0 0.0 0.0 1:3.0 2:2.0 
1.0 1.0 0.0 0.0 0.0 1:0.0 2:0.0 
1.0 1.0 0.0 0.0 0.0 1:0.14285714285714285 2:0.0 
1.0 1.0 1.0 0.0 0.0 1:0.375 2:0.08333333333333333 
0.7434282293401515 1.0 1.0 0.0 0.0 1:5.428571428571429 2:1.6666666666666667 
1.0 1.0 0.0 0.0 0.0 1:2.0 2:1.0 
1.0 1.0 1.0 0.0 0.0 1:1.2857142857142858 2:0.6666666666666666 
1.0 1.0 1.0 0.0 0.0 1:0.14285714285714285 2:1.0 
1.0 1.0 1.0 0.0 0.0 1:2.4444444444444446 2:3.0 
1.0 1.0 0.0 0.0 0.0 1:0.2222222222222222 2:2.0 
1.0 1.0 0.0 0.0 0.0 1:0.4444444444444444 2:1.0 
1.0 1.0 1.0 0.0 0.0 1:0.4444444444444444 2:2.0 
1.0 1.0 0.0 0.0 0.0 1:0.1111111111111111 2:2.0 
1.0 1.0 1.0 0.0 0.0 1:3.6666666666666665 2:11.0 
1.0 1.0 1.0 0.0 0.0 1:1.3333333333333333 2:2.0 
1.0 1.0 1.0 0.0 0.0 1:2.8333333333333335 2:1.5 
1.0 1.0 1.0 0.0 0.0 1:1.5 2:4.0 
1.0 1.0 1.0 0.0 0.0 1:0.25 2:0.6666666666666666 
1.0 1.0 1.0 0.0 0.0 1:1.5 2:1.0 
1.0 1.0 1.0 0.0 0.0 1:0.5 2:1.6 
1.0 1.0 0.9870213342426498 0.0 0.0 1:0.16666666666666666 2:0.16666666666666666 
1.0 1.0 0.0 0.0 0.0 1:0.3333333333333333 2:0.8 
1.0 1.0 1.0 0.0 0.0 1:2.6666666666666665 2:1.8 
1.0 1.0 1.0 0.0 0.0 1:0.5555555555555556 2:0.2 
1.0 1.0 0.0 0.0 0.0 1:0.1111111111111111 2:1.4 
1.0 1.0 0.0 0.0 0.0 1:2.7777777777777777 2:2.4 
1.0 1.0 0.0 0.0 0.0 1:0.3333333333333333 2:0.4 
1.0 1.0 0.0 0.0 0.0 1:0.1111111111111111 2:0.6 
1.0 1.0 0.0 0.0 0.0 1:0.5555555555555556 2:0.4 
1.0 1.0 0.0 0.0 0.0 1:0.5555555555555556 2:1.0 
1.0 1.0 0.0 0.0 0.0 1:0.3333333333333333 2:0.8 
1.0 1.0 0.0 0.0 0.0 1:0.3333333333333333 2:0.6 
1.0 1.0 1.0 0.01099037922467725 0.0 1:0.6666666666666666 2:0.8 
1.0 1.0 1.0 0.0 0.0 1:0.4444444444444444 2:0.6 
1.0 1.0 1.0 0.0 0.0 1:0.3333333333333333 2:1.2 
1.0 1.0 0.0 0.0 0.0 1:0.1111111111111111 2:0.0 
1.0 1.0 0.0 0.0 0.0 1:0.2727272727272727 2:1.3333333333333333 
1.0 1.0 0.0 0.0 0.0 1:0.08333333333333333 2:0.09090909090909091 
1.0 1.0 0.9333515235728213 0.0 0.0 1:0.7857142857142857 2:1.2 
1.0 1.0 1.0 0.0 0.0 1:1.4285714285714286 2:3.6 
1.0 1.0 1.0 0.0 0.0 1:0.6 2:2.3333333333333335 
1.0 1.0 1.0 0.0 0.0 1:0.6 2:0.3333333333333333 
1.0 1.0 1.0 0.0 0.0 1:2.5 2:0.3333333333333333 
1.0 1.0 1.0 0.0 0.0 1:1.6666666666666667 2:2.0 
0.0 1.0 0.9058026596465713 0.0 0.0 1:4.5 2:0.0 
1.0 1.0 0.0 0.0 0.0 1:0.0 2:0.3333333333333333 
1.0 1.0 0.0 0.0 0.0 1:0.375 2:0.5 
1.0 1.0 0.0 0.0 0.0 1:2.3333333333333335 2:2.0 
1.0 1.0 1.0 0.0 0.0 1:2.0 2:6.0 
1.0 1.0 1.0 0.0 0.0 1:0.4 2:2.0 
1.0 1.0 0.0 0.0 0.0 1:0.0 2:1.0 
1.0 1.0 0.0 0.0 0.0 1:1.0 2:1.5 
1.0 1.0 0.0 0.0 0.0 1:0.25 2:0.0 
1.0 1.0 0.0 0.0 0.0 1:0.5 2:1.0 
1.0 1.0 0.0 0.0 0.0 1:0.18181818181818182 2:0.0 
1.0 1.0 1.0 0.0 0.0 1:1.3846153846153846 2:1.625 
1.0 1.0 0.9800204706300127 0.0 0.0 1:0.23076923076923078 2:0.125 
1.0 1.0 0.0 0.0 0.0 1:0.46153846153846156 2:0.0 
1.0 1.0 1.0 0.0 0.0 1:0.7692307692307693 2:0.5625 
1.0 1.0 1.0 0.0 0.0 1:1.0769230769230769 2:0.4375 
1.0 1.0 0.0 0.0 0.0 1:0.3076923076923077 2:0.125 
1.0 1.0 0.0 0.0 0.0 1:0.6923076923076923 2:0.1875 
1.0 1.0 0.7890602693889686 0.0 0.0 1:1.9230769230769231 2:1.375 
1.0 1.0 0.0 0.0 0.0 1:0.3076923076923077 2:0.0625 
1.0 1.0 0.0 0.0 0.0 1:0.46153846153846156 2:0.0625 
1.0 1.0 0.0 0.0 0.0 1:0.3076923076923077 2:0.125 
1.0 1.0 0.0 0.0 0.0 1:0.15384615384615385 2:0.0 
1.0 1.0 0.0 0.0 0.0 1:0.3076923076923077 2:0.125 
1.0 1.0 0.0 0.0 0.0 1:0.15384615384615385 2:0.375 
1.0 1.0 0.0 0.0 0.0 1:0.23076923076923078 2:0.0625 
1.0 1.0 0.0 0.0 0.0 1:0.3076923076923077 2:0.1875 
1.0 1.0 0.0 0.0 0.0 1:0.23076923076923078 2:0.1875 
1.0 1.0 1.0 0.0 0.0 1:0.23076923076923078 2:0.1875 
1.0 1.0 0.9649331927971281 0.0 0.0 1:0.15384615384615385 2:0.125 
1.0 1.0 0.0 0.0 0.0 1:0.07692307692307693 2:0.25 
1.0 1.0 1.0 0.0 0.0 1:0.38461538461538464 2:0.0625 
1.0 1.0 0.0 0.0 0.0 1:0.23076923076923078 2:0.0625 
1.0 1.0 0.0 0.0 0.0 1:2.0 2:1.0 
1.0 1.0 1.0 0.0 0.0 1:1.0 2:2.0 
1.0 1.0 0.0 0.0 0.0 1:0.5 2:0.0 
1.0 1.0 0.0 0.0 0.0 1:1.0 2:0.0 
1.0 1.0 1.0 0.0 0.0 1:1.5 2:2.0 
1.0 1.0 1.0 0.0 0.0 1:0.75 2:1.0 
1.0 1.0 1.0 0.0 0.0 1:0.0 2:0.6666666666666666 
1.0 1.0 1.0 0.0 0.0 1:0.13333333333333333 2:0.8 
1.0 1.0 0.0 0.0 0.0 1:0.3333333333333333 2:0.4 
1.0 1.0 0.0 0.0 0.0 1:1.0555555555555556 2:2.1666666666666665 
1.0 1.0 1.0 0.0 0.0 1:0.2777777777777778 2:0.0 
1.0 1.0 0.04727939468680437 0.0 0.0 1:1.1428571428571428 2:0.5 
1.0 1.0 0.0 0.0 0.0 1:0.14285714285714285 2:0.0 
1.0 1.0 1.0 0.0 0.0 1:0.7307692307692307 2:0.2727272727272727 
1.0 1.0 0.0 0.0 0.0 1:0.5714285714285714 2:0.2 
1.0 1.0 1.0 0.0 0.0 1:1.8181818181818181 2:3.6666666666666665 
1.0 1.0 0.0 0.0 0.0 1:0.5 2:2.5 
1.0 1.0 1.0 0.0 0.0 1:1.5 2:4.5 
1.0 1.0 0.0 0.0 0.0 1:4.0 2:4.0 
1.0 1.0 1.0 0.0 0.0 1:0.4375 2:1.4 
1.0 1.0 0.07928869175914267 0.0 0.0 1:0.375 2:0.4 
1.0 1.0 1.0 0.0 0.0 1:0.4166666666666667 2:0.6666666666666666 
1.0 1.0 0.0 0.0 0.0 1:0.2222222222222222 2:0.0 
1.0 1.0 0.0 0.0 0.0 1:0.5555555555555556 2:1.0 
1.0 1.0 0.0 0.0 0.0 1:2.111111111111111 2:2.0 
1.0 1.0 0.0 0.0 0.0 1:0.2222222222222222 2:0.25 
1.0 1.0 0.0 0.0 0.0 1:0.6666666666666666 2:0.75 
1.0 1.0 0.0 0.0 0.0 1:0.4375 2:0.5 
1.0 1.0 0.0 0.0 0.0 1:1.0 2:4.0 
1.0 1.0 1.0 0.0 0.0 1:0.75 2:1.5 
1.0 1.0 0.0 0.0 0.0 1:1.0625 2:4.0 
1.0 1.0 0.0 0.0 0.0 1:0.15789473684210525 2:0.2 
1.0 1.0 1.0 0.0 0.0 1:0.3157894736842105 2:0.6 
1.0 1.0 0.0 0.0 0.0 1:0.21052631578947367 2:0.4 
1.0 1.0 0.0 0.0 0.0 1:0.18181818181818182 2:0.0 
1.0 1.0 1.0 0.9288579680687798 0.0 1:1.75 2:0.5 
1.0 1.0 1.0 0.0 0.0 1:3.0 2:0.5 
1.0 1.0 0.0 0.0 0.0 1:0.1875 2:0.0 
1.0 1.0 0.0 0.0 0.0 1:0.15384615384615385 2:0.0 
1.0 1.0 0.0 0.0 0.0 1:1.25 2:0.0 
1.0 1.0 0.0 0.0 0.0 1:0.3 2:0.3 
1.0 1.0 1.0 0.0 0.0 1:0.0 2:0.5 
1.0 1.0 0.8887371413228127 0.890401727112054 0.0 1:5.2 2:0.0 
1.0 1.0 1.0 0.0 0.0 1:1.4 2:0.0 
1.0 1.0 1.0 0.04687423467257289 0.0 1:1.8 2:0.0 
1.0 1.0 0.0 0.0 0.0 1:0.6 2:0.0 
1.0 1.0 0.0 0.0 0.0 1:0.7 2:1.0 
1.0 1.0 0.0 0.0 0.0 1:0.0 2:0.16666666666666666 
1.0 1.0 0.0 0.0 0.0 1:0.0 2:0.07692307692307693 
1.0 1.0 0.0 0.0 0.0 1:0.0 2:0.1111111111111111 
1.0 1.0 0.0 0.0 0.0 1:0.4444444444444444 2:0.1111111111111111 
1.0 1.0 0.0 0.0 0.0 1:0.4444444444444444 2:1.0 
1.0 1.0 0.0 0.0 0.0 1:0.6666666666666666 2:0.16666666666666666 
1.0 1.0 1.0 0.0 0.0 1:0.13333333333333333 2:0.16666666666666666 
1.0 1.0 0.08160050801130765 0.0035902150566107056 0.0 1:0.45 2:0.5714285714285714 
1.0 1.0 0.0 0.0 0.0 1:0.25 2:0.0 
1.0 1.0 0.9820705369463412 0.0037338636055043494 0.0 1:0.2 2:0.14285714285714285 
1.0 1.0 0.01687202118391091 0.0 0.0 1:1.1 2:1.2857142857142858 
1.0 1.0 0.0 0.0 0.0 1:0.3 2:0.14285714285714285 
1.0 1.0 0.0 0.0 0.0 1:0.1 2:0.0 
1.0 1.0 1.0 0.0 0.0 1:3.5 2:2.0 
1.0 1.0 0.0 0.0 0.0 1:0.75 2:0.0 
1.0 1.0 0.0 0.0 0.0 1:0.0625 2:0.0 
1.0 1.0 1.0 0.0 0.0 1:0.3181818181818182 2:1.5 
1.0 1.0 1.0 0.0 0.0 1:0.4090909090909091 2:1.5 
1.0 1.0 0.7230145157609336 0.0 0.0 1:0.045454545454545456 2:1.5 
1.0 1.0 0.0 0.0 0.0 1:0.09090909090909091 2:1.5 
1.0 1.0 0.0 0.0 0.0 1:0.2727272727272727 2:0.0 
1.0 1.0 0.0 0.0 0.0 1:0.4090909090909091 2:3.0 
1.0 1.0 1.0 0.0 0.0 1:0.22727272727272727 2:0.5 
1.0 1.0 0.0 0.0 0.0 1:0.09090909090909091 2:2.0 
1.0 1.0 0.0 0.0 0.0 1:0.22727272727272727 2:1.5 
1.0 1.0 0.11309739236172946 0.0 0.0 1:0.3181818181818182 2:0.5 
1.0 1.0 0.0 0.0 0.0 1:0.09090909090909091 2:0.0 
1.0 1.0 1.0 0.0 0.0 1:0.18181818181818182 2:0.5 
1.0 1.0 1.0 0.0 0.0 1:1.5714285714285714 2:0.3333333333333333 
1.0 1.0 0.0 0.0 0.0 1:1.8571428571428572 2:1.0 
1.0 1.0 0.0 0.0 0.0 1:3.6666666666666665 2:8.0 
1.0 1.0 0.22893933192123106 0.0 0.0 1:0.3333333333333333 2:4.5 
1.0 1.0 0.0 0.0 0.0 1:0.5 2:1.0 
1.0 1.0 1.0 0.0 0.0 1:0.08333333333333333 2:0.5 
1.0 1.0 0.0 0.0 0.0 1:2.0833333333333335 2:5.0 
1.0 1.0 0.0 0.0 0.0 1:0.4166666666666667 2:0.5 
1.0 1.0 1.0 0.0 0.0 1:0.75 2:1.0 
1.0 1.0 0.0 0.0 0.0 1:0.0 2:5.0 
1.0 1.0 0.0 0.0 0.0 1:0.25 2:0.5 
1.0 1.0 0.054567872271223054 0.0 0.0 1:0.2 2:3.5 
1.0 1.0 0.0 0.0 0.0 1:0.26666666666666666 2:0.1 
1.0 1.0 0.0 0.0 0.0 1:0.25 2:0.4 
1.0 1.0 0.7944994539606114 0.0 0.0 1:1.1428571428571428 2:1.6 
1.0 1.0 0.0 0.0 0.0 1:1.0 2:0.0 
1.0 1.0 0.0 0.0 0.0 1:1.4 2:3.0 
1.0 1.0 1.0 0.0 0.0 1:0.875 2:1.0 
1.0 1.0 0.0 0.0 0.0 1:0.375 2:0.6666666666666666 
1.0 1.0 0.0 0.8677149549881453 0.0 1:1.8333333333333333 2:0.2857142857142857 
1.0 1.0 1.0 0.0 0.0 1:0.5 2:0.14285714285714285 
1.0 1.0 0.0 0.0 0.0 1:0.3333333333333333 2:0.14285714285714285 
1.0 1.0 1.0 0.0 0.0 1:0.6666666666666666 2:1.4285714285714286 
1.0 1.0 1.0 0.0 0.0 1:0.5 2:0.2857142857142857 
1.0 1.0 1.0 0.0 0.0 1:0.8333333333333334 2:0.0 
1.0 1.0 0.0 0.0 0.0 1:0.8333333333333334 2:0.5714285714285714 
1.0 1.0 0.0 0.0 0.0 1:1.8333333333333333 2:0.8571428571428571 
1.0 1.0 1.0 0.0 0.0 1:0.16666666666666666 2:0.14285714285714285 
1.0 1.0 1.0 0.0 0.0 1:0.3333333333333333 2:0.14285714285714285 
1.0 1.0 1.0 0.0 0.0 1:0.3333333333333333 2:0.14285714285714285 
1.0 1.0 1.0 0.0 0.0 1:1.0 2:0.2857142857142857 
1.0 1.0 1.0 0.0 0.0 1:0.16666666666666666 2:0.2857142857142857 
1.0 1.0 1.0 0.0 0.0 1:2.0 2:0.7142857142857143 
1.0 1.0 1.0 0.0 0.0 1:1.0 2:0.8571428571428571 
1.0 1.0 0.03964404464251176 0.0 0.0 1:0.5384615384615384 2:1.0 
1.0 1.0 0.0 0.0 0.0 1:0.5384615384615384 2:0.2 
1.0 1.0 0.0 0.0 0.0 1:0.15384615384615385 2:0.0 
1.0 1.0 1.0 0.0 0.0 1:0.46153846153846156 2:0.6 
1.0 1.0 0.0 0.0 0.0 1:0.15384615384615385 2:0.2 
1.0 1.0 1.0 0.0 0.0 1:0.46153846153846156 2:0.2 
1.0 1.0 1.0 0.0 0.0 1:1.0 2:0.8 
1.0 1.0 1.0 0.0 0.0 1:0.8461538461538461 2:0.4 
1.0 1.0 0.12093981735445618 0.0 0.0 1:0.0 2:0.4 
1.0 1.0 0.0 0.0 0.0 1:0.2727272727272727 2:0.0 
1.0 1.0 1.0 0.0 0.0 1:0.18181818181818182 2:0.3333333333333333 
1.0 1.0 1.0 0.0 0.0 1:0.26666666666666666 2:0.5 
1.0 1.0 0.9666415221129954 0.0 0.0 1:1.2333333333333334 2:3.5 
1.0 1.0 1.0 0.0 0.0 1:1.1 2:3.0 
1.0 1.0 0.0 0.0 0.0 1:0.5666666666666667 2:2.5 
1.0 1.0 0.0 0.0 0.0 1:0.13333333333333333 2:0.75 
1.0 1.0 0.0 0.0 0.0 1:0.4 2:0.75 
1.0 1.0 1.0 0.0 0.0 1:0.43333333333333335 2:1.25 
1.0 1.0 0.0 0.0 0.0 1:0.4 2:0.25 
1.0 1.0 0.0 0.0 0.0 1:0.2 2:1.25 
1.0 1.0 0.0 0.0 0.0 1:1.0666666666666667 2:5.25 
1.0 1.0 0.0 0.0 0.0 1:0.2 2:0.25 
1.0 1.0 1.0 0.0 0.0 1:0.6333333333333333 2:1.25 
1.0 1.0 1.0 0.0 0.0 1:0.3 2:0.5 
1.0 1.0 1.0 0.0 0.0 1:0.03333333333333333 2:0.5 
1.0 1.0 0.0 0.0 0.0 1:0.0 2:0.0 
1.0 1.0 0.0 0.0 0.0 1:0.06666666666666667 2:0.0 
1.0 1.0 0.0 0.0 0.0 1:1.2333333333333334 2:3.75 
1.0 1.0 1.0 0.0 0.0 1:1.5 2:6.75 
1.0 1.0 1.0 0.0 0.0 1:0.5333333333333333 2:2.25 
1.0 1.0 0.0 0.8724807777726065 0.0 1:0.06666666666666667 2:0.25 
1.0 1.0 0.0 0.0 0.0 1:0.13333333333333333 2:0.5 
1.0 1.0 0.0 0.0 0.0 1:0.8333333333333334 2:3.75 
1.0 1.0 1.0 0.0 0.0 1:0.625 2:1.2 
1.0 1.0 0.0 0.0 0.0 1:0.05 2:0.0 
1.0 1.0 1.0 0.0 0.0 1:0.23076923076923078 2:0.0 
1.0 1.0 1.0 0.0 0.0 1:0.68 2:1.6 
1.0 1.0 1.0 0.0 0.0 1:0.6666666666666666 2:2.0 
1.0 1.0 0.0 0.0 0.0 1:0.4 2:0.0 
1.0 1.0 0.14534840602077473 0.0 0.0 1:1.2 2:0.2 
1.0 1.0 1.0 0.0 0.0 1:2.2 2:1.4 
1.0 1.0 1.0 0.0 0.0 1:1.6 2:0.4 
1.0 1.0 1.0 0.0 0.0 1:1.6 2:0.4 
1.0 1.0 0.0 0.0 0.0 1:0.058823529411764705 2:0.16666666666666666 
1.0 1.0 0.0 0.0 0.0 1:0.058823529411764705 2:0.16666666666666666 
1.0 1.0 0.0 0.0 0.0 1:0.11764705882352941 2:0.16666666666666666 
1.0 1.0 1.0 0.0 0.0 1:0.23529411764705882 2:0.6666666666666666 
1.0 1.0 0.0 0.0 0.0 1:0.11764705882352941 2:0.0 
1.0 1.0 1.0 0.0 0.0 1:0.5294117647058824 2:0.8333333333333334 
1.0 1.0 0.922228584606531 0.001981249343291368 0.0 1:1.0 2:0.8333333333333334 
1.0 1.0 0.193934650580713 0.0 0.0 1:0.29411764705882354 2:0.5 
1.0 1.0 1.0 0.0 0.0 1:0.23529411764705882 2:0.3333333333333333 
1.0 1.0 1.0 0.0 0.0 1:0.17647058823529413 2:0.6666666666666666 
1.0 1.0 0.0 0.0 0.0 1:0.058823529411764705 2:0.3333333333333333 
1.0 1.0 1.0 0.0 0.0 1:0.5882352941176471 2:1.0 
1.0 1.0 0.0 0.0 0.0 1:0.23529411764705882 2:0.5 
1.0 1.0 1.0 0.0 0.0 1:0.29411764705882354 2:0.5 
1.0 1.0 1.0 0.0 0.0 1:0.5882352941176471 2:0.6666666666666666 
1.0 1.0 0.0 0.0 0.0 1:0.058823529411764705 2:0.16666666666666666 
1.0 1.0 0.0 0.0 0.0 1:0.058823529411764705 2:0.16666666666666666 
1.0 1.0 0.9865677158693842 0.0 0.0 1:0.11764705882352941 2:0.16666666666666666 
1.0 1.0 1.0 0.0 0.0 1:0.23529411764705882 2:0.3333333333333333 
1.0 1.0 1.0 0.0 0.0 1:0.35294117647058826 2:0.8333333333333334 
1.0 1.0 1.0 0.0 0.0 1:0.23529411764705882 2:0.16666666666666666 
1.0 1.0 0.0 0.0 0.0 1:0.23529411764705882 2:0.5 
1.0 1.0 1.0 0.0 0.0 1:0.17647058823529413 2:0.16666666666666666 
1.0 1.0 0.0 0.0 0.0 1:0.29411764705882354 2:0.8333333333333334 
1.0 1.0 1.0 0.0 0.0 1:0.875 2:0.3333333333333333 
1.0 1.0 1.0 0.0 0.0 1:0.25 2:0.3333333333333333 
1.0 1.0 0.20853539083980813 0.0 0.0 1:0.4 2:0.5555555555555556 
1.0 1.0 1.0 0.0 0.0 1:0.8 2:1.8888888888888888 
1.0 1.0 0.0 0.0 0.0 1:0.4 2:0.2222222222222222 
1.0 1.0 0.9034212380659685 0.0 0.0 1:1.1 2:0.8888888888888888 
1.0 1.0 1.0 0.0 0.0 1:1.0 2:0.3333333333333333 
1.0 1.0 1.0 0.0 0.0 1:0.3 2:0.2222222222222222 
1.0 1.0 0.0 0.0 0.0 1:0.38461538461538464 2:0.125 
1.0 1.0 1.0 0.0 0.0 1:0.38461538461538464 2:0.375 
1.0 1.0 1.0 0.7752448177150726 0.0 1:1.6153846153846154 2:0.0 
1.0 1.0 0.0 0.0 0.0 1:0.07692307692307693 2:0.0 
1.0 1.0 0.0 0.0 0.0 1:0.15384615384615385 2:0.0 
1.0 1.0 1.0 0.0 0.0 1:0.6153846153846154 2:0.375 
1.0 1.0 1.0 0.0 0.0 1:0.7692307692307693 2:0.25 
1.0 1.0 1.0 0.0 0.0 1:0.6153846153846154 2:0.375 
1.0 1.0 0.0 0.0 0.0 1:0.15384615384615385 2:0.0 
1.0 1.0 1.0 0.0 0.0 1:0.38461538461538464 2:0.25 
1.0 1.0 1.0 0.0 0.0 1:0.6923076923076923 2:0.625 
1.0 1.0 0.0 0.0 0.0 1:0.75 2:0.0 
1.0 1.0 0.0 0.0 0.0 1:0.3125 2:2.0 
1.0 1.0 1.0 0.0 0.0 1:0.5555555555555556 2:0.14285714285714285 
1.0 1.0 1.0 0.0 0.0 1:0.1111111111111111 2:0.14285714285714285 
1.0 1.0 0.0 0.0 0.0 1:0.18181818181818182 2:0.0 
1.0 1.0 1.0 0.0 0.0 1:0.6363636363636364 2:0.5 
1.0 1.0 0.0 0.0 0.0 1:1.8181818181818181 2:1.0 
1.0 1.0 1.0 0.0 0.0 1:0.7272727272727273 2:1.3333333333333333 
1.0 1.0 0.0 0.0 0.0 1:0.1111111111111111 2:1.0 
1.0 1.0 0.0 0.0 0.0 1:0.5555555555555556 2:0.25 
1.0 1.0 1.0 0.0 0.0 1:1.6666666666666667 2:1.7272727272727273 
1.0 1.0 1.0 0.0 0.0 1:0.19047619047619047 2:0.09090909090909091 
1.0 1.0 1.0 0.0 0.0 1:1.619047619047619 2:1.3636363636363635 
1.0 1.0 0.0 0.0 0.0 1:0.14285714285714285 2:0.09090909090909091 
1.0 1.0 1.0 0.0 0.0 1:0.6190476190476191 2:0.36363636363636365 
1.0 1.0 1.0 1.0 0.0 1:5.666666666666667 2:0.0 
1.0 1.0 0.0 0.0 0.0 1:2.45 2:2.1538461538461537 
1.0 1.0 0.0 0.0 0.0 1:0.9166666666666666 2:1.6666666666666667 
1.0 1.0 0.0 0.0 0.0 1:0.16 2:0.1111111111111111 
1.0 1.0 0.0 0.0 0.0 1:0.16 2:0.1111111111111111 
1.0 1.0 1.0 0.0 0.0 1:0.2 2:1.0 
1.0 1.0 0.0 0.0 0.0 1:0.0 2:0.1111111111111111 
1.0 1.0 1.0 0.0 0.0 1:0.72 2:0.6666666666666666 
1.0 1.0 0.0 0.0 0.0 1:0.5 2:1.0 
1.0 1.0 0.10995370172894603 0.0 0.0 1:1.6 2:3.5 
1.0 1.0 1.0 0.0 0.0 1:0.4090909090909091 2:0.3333333333333333 
1.0 1.0 0.0 0.0 0.0 1:0.047619047619047616 2:0.125 
1.0 1.0 0.0 0.0 0.0 1:0.09090909090909091 2:0.0 
1.0 1.0 1.0 0.0 0.0 1:0.5555555555555556 2:1.5 
1.0 1.0 0.0 0.0 0.0 1:1.0 2:1.0 
1.0 1.0 1.0 0.0 0.0 1:2.25 2:3.0 
1.0 1.0 0.4490134504645129 0.0 0.0 1:10.5 2:18.5 
1.0 1.0 0.07502242730550616 0.0 0.0 1:2.0 2:5.0 
1.0 1.0 0.0 0.0 0.0 1:0.75 2:0.0 
1.0 1.0 1.0 0.0 0.0 1:0.75 2:1.5 
1.0 1.0 0.0 0.0 0.0 1:0.25 2:0.0 
1.0 1.0 1.0 0.0 0.0 1:2.0 2:2.0 
1.0 1.0 0.0 0.0 0.0 1:0.625 2:4.0 
1.0 1.0 0.8556989187012881 0.0 0.0 1:0.875 2:1.0 
1.0 1.0 0.0 0.0 0.0 1:0.25 2:2.0 
1.0 1.0 1.0 0.0 0.0 1:1.25 2:0.6666666666666666 
1.0 1.0 0.012855851009972651 0.0 0.0 1:1.6666666666666667 2:0.25 
1.0 1.0 0.0 0.0 0.0 1:0.5384615384615384 2:0.42857142857142855 
1.0 1.0 1.0 0.0 0.0 1:0.23076923076923078 2:0.0 
1.0 1.0 1.0 0.0 0.0 1:1.8571428571428572 2:1.6666666666666667 
1.0 1.0 1.0 0.0 0.0 1:2.2857142857142856 2:1.3333333333333333 
1.0 1.0 1.0 0.0876834284805318 0.0 1:3.142857142857143 2:2.3333333333333335 
1.0 1.0 0.0 0.0 0.0 1:1.0 2:0.0 
1.0 1.0 0.0 0.0 0.0 1:0.6666666666666666 2:0.0 
1.0 1.0 1.0 0.0 0.0 1:2.0 2:0.0 
1.0 1.0 0.0 0.0 0.0 1:2.3333333333333335 2:5.0 
1.0 1.0 1.0 0.0 0.0 1:0.4 2:1.5 
1.0 1.0 1.0 0.0 0.0 1:2.0 2:0.0 
1.0 1.0 0.3049876263684344 0.0 0.0 1:5.0 2:2.5 
1.0 1.0 1.0 0.0408651587190094 0.0 1:2.2 2:0.0 
1.0 1.0 0.0 0.0 0.0 1:0.4 2:0.0 
1.0 1.0 0.0 0.0 0.0 1:0.3125 2:1.0 
1.0 1.0 1.0 0.0 0.0 1:0.1111111111111111 2:0.6666666666666666 
1.0 1.0 1.0 0.0 0.0 1:0.8333333333333334 2:2.0 
1.0 1.0 0.0 0.0 0.0 1:2.0 2:3.5 
1.0 1.0 0.0 0.0 0.0 1:0.3888888888888889 2:0.6666666666666666 
1.0 1.0 0.0 0.0 0.0 1:0.25 2:0.0 
1.0 1.0 0.0 0.0 0.0 1:0.5 2:0.0 
1.0 1.0 0.0 0.0 0.0 1:0.0 2:0.0 
1.0 1.0 0.0 0.0 0.0 1:0.36363636363636365 2:0.0 
1.0 1.0 0.0 0.0 0.0 1:0.047619047619047616 2:0.3333333333333333 
1.0 1.0 0.006940574785157923 1.0 0.01959895488758124 1:0.6428571428571429 2:0.0 
1.0 1.0 0.0 0.0 0.0 1:0.14285714285714285 2:0.0 
1.0 1.0 0.0 0.0 0.0 1:0.8333333333333334 2:0.8333333333333334 
1.0 1.0 0.0 0.0 0.0 1:0.0 2:1.0 
1.0 1.0 0.0 0.0 0.0 1:0.3333333333333333 2:0.25 
1.0 1.0 0.0 0.0 0.0 1:0.6666666666666666 2:0.5 
1.0 1.0 0.0 0.0 0.0 1:0.5 2:0.0 
1.0 1.0 0.0 0.0 0.0 1:0.3333333333333333 2:0.0 
1.0 1.0 1.0 0.0 0.0 1:2.0 2:0.75 
1.0 1.0 0.0 0.0 0.0 1:0.6666666666666666 2:0.5 
1.0 1.0 0.0 0.0 0.0 1:0.3333333333333333 2:0.0 
1.0 1.0 0.10601160902658845 0.0 0.0 1:0.6666666666666666 2:0.0 
1.0 1.0 0.007366922011226856 0.0 0.0 1:0.3157894736842105 2:0.7142857142857143 
1.0 1.0 0.0 0.0 0.0 1:0.15789473684210525 2:0.5714285714285714 
1.0 1.0 1.0 0.0 0.0 1:0.3684210526315789 2:0.2857142857142857 
1.0 1.0 0.0 0.0 0.0 1:0.21052631578947367 2:0.14285714285714285 
1.0 1.0 0.0 0.0 0.0 1:0.6666666666666666 2:0.5 
1.0 1.0 0.0 0.0 0.0 1:0.2222222222222222 2:0.25 
1.0 1.0 0.0 0.0 0.0 1:0.5 2:0.0 
1.0 1.0 0.0 0.0 0.0 1:0.5 2:0.0 
1.0 1.0 0.0 0.0 0.0 1:0.5 2:0.0 
1.0 1.0 1.0 0.0 0.0 1:1.5 2:0.0 
1.0 1.0 1.0 0.0 0.0 1:0.5 2:0.6666666666666666 
1.0 1.0 0.0 0.0 0.0 1:0.25 2:1.0 
1.0 1.0 0.0 0.0 0.0 1:0.5 2:0.3333333333333333 
1.0 1.0 1.0 0.0 0.0 1:0.75 2:1.0 
1.0 1.0 0.0 0.0 0.0 1:0.0 2:1.0 
1.0 1.0 1.0 0.0 0.0 1:0.3333333333333333 2:0.8 
1.0 1.0 1.0 0.0 0.0 1:1.7333333333333334 2:0.75 
1.0 1.0 0.0 0.0 0.0 1:0.06666666666666667 2:0.125 
0.0 1.0 1.0 0.0 0.0 1:3.8666666666666667 2:2.5 
1.0 1.0 1.0 0.0 0.0 1:0.4666666666666667 2:0.5 
1.0 1.0 0.0 0.0 0.0 1:0.26666666666666666 2:0.125 
1.0 1.0 0.008939083842175068 0.0 0.0 1:0.8 2:0.75 
1.0 1.0 0.0 0.0 0.0 1:0.6666666666666666 2:1.5 
1.0 1.0 0.0 0.0 0.0 1:0.13333333333333333 2:0.125 
1.0 1.0 1.0 0.0 0.0 1:3.2666666666666666 2:2.0 
1.0 1.0 0.15213188016383758 0.0 0.0 1:0.3333333333333333 2:0.375 
1.0 1.0 1.0 0.0 0.0 1:0.4666666666666667 2:0.75 
1.0 1.0 1.0 0.0 0.0 1:0.7333333333333333 2:0.5 
1.0 1.0 0.0 0.0 0.0 1:0.13333333333333333 2:0.0 
1.0 1.0 1.0 0.0 0.0 1:0.13333333333333333 2:0.0 
1.0 1.0 0.0 0.0 0.0 1:0.13333333333333333 2:0.25 
1.0 1.0 0.0 0.0 0.0 1:0.06666666666666667 2:0.125 
1.0 1.0 1.0 0.0 0.0 1:0.1875 2:0.25 
1.0 1.0 1.0 0.0 0.0 1:1.0 2:0.3333333333333333 
1.0 1.0 0.0 0.0 0.0 1:0.7142857142857143 2:1.0 
1.0 1.0 0.0 0.0 0.0 1:0.25 2:0.05263157894736842 
1.0 1.0 0.0 0.0 0.0 1:0.25 2:0.10526315789473684 
1.0 1.0 0.0 0.0 0.0 1:0.08333333333333333 2:0.21052631578947367 
1.0 1.0 1.0 0.0 0.0 1:0.5833333333333334 2:0.3684210526315789 
1.0 1.0 1.0 0.0 0.0 1:0.3333333333333333 2:0.05263157894736842 
1.0 1.0 1.0 0.0 0.0 1:1.375 2:0.6 
1.0 1.0 0.0 0.0 0.0 1:0.0 2:0.2 
0.869795794010977 1.0 0.587842622539627 0.0 0.0 1:3.0 2:9.0 
1.0 1.0 0.3735628056800061 0.0 0.0 1:0.14285714285714285 2:1.0 
1.0 1.0 0.2742204705617152 0.0 0.0 1:1.2857142857142858 2:2.0 
1.0 1.0 1.0 0.0 0.0 1:0.3333333333333333 2:0.18181818181818182 
1.0 1.0 0.03926902225964678 0.0 0.0 1:0.5625 2:0.5 
1.0 1.0 0.0 0.0 0.0 1:3.0 2:0.0 
1.0 1.0 0.0 0.0 0.0 1:2.0 2:1.0 
1.0 1.0 0.0 0.0 0.0 1:2.5 2:2.0 
1.0 1.0 0.0 0.0 0.0 1:0.5 2:1.0 
1.0 1.0 0.0 0.0 0.0 1:0.0 2:0.0 
1.0 1.0 0.0 0.0 0.0 1:0.23076923076923078 2:0.5 
1.0 1.0 0.0 0.0 0.0 1:0.07692307692307693 2:0.0 
1.0 1.0 0.0 0.0 0.0 1:0.3076923076923077 2:0.5 
1.0 1.0 1.0 0.0 0.0 1:0.15384615384615385 2:0.625 
1.0 1.0 0.0 0.0 0.0 1:0.23076923076923078 2:0.5 
1.0 1.0 1.0 0.0 0.059026195722106475 1:0.7692307692307693 2:0.25 
1.0 1.0 0.0 0.0 0.0 1:0.5263157894736842 2:0.07692307692307693 
1.0 1.0 1.0 0.0 0.0 1:1.3157894736842106 2:1.2307692307692308 
1.0 1.0 0.0 0.0 0.0 1:1.2105263157894737 2:0.23076923076923078 
1.0 1.0 0.0 0.0 0.0 1:1.0526315789473684 2:0.15384615384615385 
1.0 1.0 0.0 0.0 0.0 1:1.2105263157894737 2:0.23076923076923078 
1.0 1.0 1.0 0.0 0.0 1:0.21052631578947367 2:0.15384615384615385 
1.0 1.0 0.0 0.0 0.0 1:1.2105263157894737 2:0.23076923076923078 
1.0 1.0 0.0 0.0 0.0 1:1.0526315789473684 2:0.15384615384615385 
1.0 1.0 1.0 0.0 0.0 1:1.2105263157894737 2:0.23076923076923078 
1.0 1.0 0.0 0.0 0.0 1:1.0526315789473684 2:0.15384615384615385 
1.0 1.0 1.0 0.0 0.0 1:1.2105263157894737 2:0.23076923076923078 
1.0 1.0 0.0 0.0 0.0 1:1.0526315789473684 2:0.15384615384615385 
1.0 1.0 1.0 0.0 0.0 1:1.2105263157894737 2:0.23076923076923078 
1.0 1.0 0.0 0.0 0.0 1:1.0526315789473684 2:0.15384615384615385 
1.0 1.0 1.0 0.0 0.0 1:1.2105263157894737 2:0.23076923076923078 
1.0 1.0 0.7664001126314113 0.0 0.06040523491009632 1:1.0526315789473684 2:0.15384615384615385 
1.0 1.0 1.0 0.0 0.0 1:0.5555555555555556 2:0.125 
1.0 1.0 0.0 0.0 0.0 1:0.3333333333333333 2:0.75 
1.0 1.0 1.0 0.0 0.0 1:2.6 2:1.0 
1.0 1.0 0.010626988661261633 0.0 0.0 1:0.4 2:0.0 
1.0 1.0 1.0 0.0 0.0 1:0.2 2:0.7142857142857143 
1.0 1.0 0.0 0.0 0.0 1:0.3333333333333333 2:0.2857142857142857 
1.0 1.0 0.0 0.0 0.0 1:0.26666666666666666 2:0.0 
1.0 1.0 1.0 0.0 0.0 1:0.5333333333333333 2:1.0 
1.0 1.0 0.0 0.0 0.0 1:0.26666666666666666 2:0.2857142857142857 
1.0 1.0 1.0 0.0 0.0 1:0.4 2:0.8571428571428571 
1.0 1.0 0.0 0.0 0.0 1:0.26666666666666666 2:0.0 
1.0 1.0 0.19061255319883033 0.0 0.0 1:0.4 2:0.5714285714285714 
1.0 1.0 0.0 0.0 0.0 1:0.26666666666666666 2:0.2857142857142857 
1.0 1.0 0.96076135468809 0.0 0.0 1:0.3333333333333333 2:0.14285714285714285 
1.0 1.0 0.0 0.0 0.0 1:1.75 2:0.3333333333333333 
1.0 1.0 0.0 0.0 0.0 1:2.227272727272727 2:2.625 
1.0 1.0 1.0 0.0 0.0 1:1.6666666666666667 2:1.0 
0.7207017614082638 1.0 0.0 0.0 0.0 1:5.666666666666667 2:18.0 
1.0 1.0 0.4507212815065096 0.0 0.0 1:1.0 2:5.0 
1.0 1.0 1.0 0.0 0.0 1:2.0 2:9.0 
1.0 1.0 0.0 0.0 0.0 1:2.3333333333333335 2:2.0 
1.0 1.0 0.0 0.0 0.0 1:0.6666666666666666 2:4.0 
1.0 1.0 0.0 0.0 0.0 1:0.3333333333333333 2:2.0 
1.0 1.0 1.0 0.0 0.0 1:2.6666666666666665 2:6.0 
1.0 1.0 0.0 0.0 0.0 1:1.0 2:1.0 
1.0 1.0 0.0 0.0 0.0 1:2.6666666666666665 2:2.0 
1.0 1.0 0.16872476666385192 0.0 0.0 1:2.6666666666666665 2:2.0 
0.9101256907171883 1.0 0.9564022938208856 0.0 0.0 1:5.333333333333333 2:18.0 
1.0 1.0 0.8680200913891233 0.0 0.0 1:7.333333333333333 2:10.0 
1.0 1.0 1.0 0.0 0.0 1:1.0 2:2.0 
1.0 1.0 0.0 0.0 0.0 1:1.0 2:1.0 
1.0 1.0 1.0 0.0 0.0 1:1.6666666666666667 2:2.0 
1.0 1.0 0.0 0.0 0.0 1:2.0 2:1.0 
1.0 1.0 0.0 0.0 0.0 1:1.6666666666666667 2:3.0 
0.09299649982368087 1.0 1.0 0.0 0.0 1:4.0 2:2.0 
1.0 1.0 1.0 0.0 0.0 1:0.5 2:0.4166666666666667 
1.0 1.0 1.0 0.0 0.0 1:0.625 2:0.4166666666666667 
1.0 1.0 0.0 0.0 0.0 1:0.2222222222222222 2:0.4 
1.0 1.0 1.0 0.0 0.0 1:1.5 2:0.6666666666666666 
1.0 1.0 1.0 0.0 0.0 1:1.4705882352941178 2:0.38461538461538464 
1.0 1.0 0.0 0.0 0.0 1:1.0 2:0.2222222222222222 
1.0 1.0 0.0 1.0 0.025745066426204763 1:1.0 2:0.2222222222222222 
1.0 1.0 0.0 0.0 0.0 1:3.857142857142857 2:4.5 
1.0 1.0 1.0 0.0 0.0 1:0.35714285714285715 2:0.0 
1.0 1.0 1.0 0.0 0.0 1:0.21428571428571427 2:0.5 
1.0 1.0 0.0 0.0 0.0 1:0.4444444444444444 2:0.6666666666666666 
1.0 1.0 1.0 0.0 0.0 1:0.8666666666666667 2:1.75 
1.0 1.0 1.0 0.0 0.0 1:1.0 2:0.75 
1.0 1.0 1.0 0.0 0.0 1:0.8666666666666667 2:1.0 
1.0 1.0 1.0 0.0 0.0 1:0.75 2:1.0 
1.0 1.0 1.0 1.0 0.0 1:0.5555555555555556 2:0.3333333333333333 
1.0 1.0 0.0 0.0 0.0 1:0.1111111111111111 2:0.0 
1.0 1.0 1.0 0.0 0.0 1:0.23076923076923078 2:0.0 
1.0 1.0 1.0 0.0 0.5304186535448356 1:0.5384615384615384 2:0.0 
1.0 1.0 1.0 0.0 0.0 1:1.6666666666666667 2:1.6666666666666667 
1.0 1.0 1.0 0.0 0.0 1:1.6666666666666667 2:1.6666666666666667 
1.0 1.0 0.0 0.0 0.0 1:0.6 2:0.0 
1.0 1.0 0.0 0.0 0.0 1:0.6666666666666666 2:0.5 
1.0 1.0 0.0 0.0 0.0 1:0.6666666666666666 2:0.5 
1.0 1.0 0.0 0.0 0.0 1:0.6666666666666666 2:1.5 
1.0 1.0 0.0 0.0 0.0 1:0.6666666666666666 2:1.0 
1.0 1.0 1.0 0.0 0.0 1:2.3333333333333335 2:1.5 
1.0 1.0 0.0 0.0 0.0 1:0.5 2:0.5 
1.0 1.0 0.0 0.0 0.0 1:0.18181818181818182 2:0.0 
1.0 1.0 1.0 0.0 0.0 1:0.5454545454545454 2:1.5 
1.0 1.0 0.0 0.0 0.0 1:0.2727272727272727 2:1.5 
1.0 1.0 0.0 0.0 0.0 1:1.0 2:1.0 
1.0 1.0 0.018804721246273463 0.0 0.0 1:0.631578947368421 2:0.5 
1.0 1.0 1.0 0.0 0.0 1:1.5 2:0.3333333333333333 
1.0 1.0 1.0 0.0 0.0 1:0.5 2:1.6666666666666667 
1.0 1.0 1.0 0.0 0.0 1:2.25 2:1.3333333333333333 
1.0 1.0 0.9773812877623227 0.0 0.0 1:0.11764705882352941 2:0.1111111111111111 
1.0 1.0 1.0 0.0 0.0 1:0.6666666666666666 2:0.0 
1.0 1.0 1.0 0.0 0.0 1:0.5833333333333334 2:0.25 
1.0 1.0 1.0 1.0 0.0 1:1.4166666666666667 2:0.0 
1.0 1.0 1.0 0.0 0.0 1:0.6551724137931034 2:1.1818181818181819 
1.0 1.0 0.0 0.0 0.0 1:1.2758620689655173 2:2.3636363636363638 
1.0 1.0 1.0 0.0 0.0 1:1.0 2:1.5 
1.0 1.0 1.0 0.0 0.0 1:1.1428571428571428 2:0.5 
1.0 1.0 1.0 0.0 0.0 1:0.5714285714285714 2:0.75 
1.0 1.0 0.0 0.0 0.0 1:0.23529411764705882 2:0.125 
1.0 1.0 0.0 0.0 0.0 1:0.4117647058823529 2:0.125 
1.0 1.0 1.0 0.0 0.0 1:0.4117647058823529 2:1.25 
1.0 1.0 1.0 0.0 0.0 1:0.11764705882352941 2:0.25 
1.0 1.0 0.0 0.0 0.0 1:0.42857142857142855 2:1.0 
1.0 1.0 1.0 0.0 0.0 1:0.5 2:0.6363636363636364 
1.0 1.0 0.0 0.0 0.0 1:0.1111111111111111 2:0.18181818181818182 
1.0 1.0 1.0 0.0 0.0 1:1.4444444444444444 2:5.0 
1.0 1.0 1.0 0.0 0.0 1:0.7777777777777778 2:2.0 
1.0 1.0 1.0 0.0 0.0 1:0.7777777777777778 2:3.0 
1.0 1.0 0.8552925606410337 0.0 0.0 1:2.0 2:0.6 
1.0 1.0 1.0 0.0 0.0 1:1.25 2:0.8 
1.0 1.0 0.0 0.0 0.0 1:0.5 2:0.0 
1.0 1.0 0.0 0.0 0.0 1:0.3333333333333333 2:0.21428571428571427 
1.0 1.0 1.0 0.0 0.0 1:0.7142857142857143 2:2.5 
1.0 1.0 1.0 0.0 0.0 1:4.75 2:1.0 
1.0 1.0 1.0 0.0 0.0 1:4.75 2:1.0 
1.0 1.0 0.0 0.0 0.0 1:2.0 2:3.0 
1.0 1.0 1.0 0.0 0.0 1:3.0 2:3.0 
1.0 1.0 0.0 0.0 0.0 1:1.0 2:1.0 
1.0 1.0 0.0 0.0 0.0 1:2.0 2:1.0 
1.0 1.0 0.0 0.0 0.0 1:1.2 2:0.0 
1.0 1.0 0.0 0.0 0.0 1:0.0 2:0.0 
1.0 1.0 0.0 0.0 0.0 1:0.2222222222222222 2:0.0 
1.0 1.0 1.0 0.0 0.0 1:1.5 2:0.0 
1.0 1.0 1.0 0.07137717527808435 0.0 1:2.5 2:0.3333333333333333 
1.0 1.0 0.0 0.0 0.0 1:1.0 2:0.0 
0.9800006590054549 1.0 0.0 0.0 0.0 1:5.0 2:0.0 
0.0 1.0 0.0 0.5361356383535534 0.0 1:7.0 2:0.3333333333333333 
1.0 1.0 1.0 0.6014932308685758 0.0 1:4.0 2:1.0 
1.0 1.0 0.0 0.0 0.0 1:1.3333333333333333 2:3.0 
1.0 1.0 0.0 0.0 0.0 1:1.1666666666666667 2:0.8 
1.0 1.0 1.0 0.0 0.0 1:0.5 2:0.5555555555555556 
1.0 1.0 0.0 0.0 0.0 1:0.625 2:0.5 
1.0 1.0 0.0 0.0 0.0 1:0.125 2:0.0 
1.0 1.0 0.0 0.0 0.0 1:0.05555555555555555 2:0.1 
1.0 1.0 0.0 0.0 0.0 1:0.2777777777777778 2:0.3 
1.0 1.0 0.0 0.0 0.0 1:0.16666666666666666 2:0.0 
1.0 1.0 0.0 0.0 0.0 1:0.14285714285714285 2:0.5 
1.0 1.0 0.7492162266009027 0.0 0.0 1:1.3571428571428572 2:3.25 
1.0 1.0 1.0 0.0 0.0 1:0.35714285714285715 2:0.5 
1.0 1.0 0.0 0.0 0.0 1:0.5 2:0.2 
1.0 1.0 0.0 0.0 0.0 1:1.75 2:1.0 
0.0 1.0 1.0 0.0 0.0 1:5.25 2:1.6 
1.0 1.0 1.0 0.0 0.0 1:0.75 2:0.4 
1.0 1.0 1.0 0.0 0.0 1:3.75 2:0.6 
1.0 1.0 1.0 0.0 0.0 1:5.0 2:1.2 
1.0 1.0 0.0 0.0 0.0 1:1.0 2:0.0 
1.0 1.0 1.0 0.0 0.0 1:0.75 2:0.2 
1.0 1.0 0.0 0.0 0.0 1:0.5 2:0.2 
1.0 1.0 1.0 0.0 0.0 1:1.25 2:0.6 
1.0 1.0 1.0 0.0 0.0 1:0.5625 2:1.0 
1.0 1.0 0.0 0.0 0.0 1:0.5 2:0.0 
1.0 1.0 0.0 0.0 0.0 1:1.0 2:0.0 
1.0 1.0 0.008261300767477258 0.0 0.0 1:0.3181818181818182 2:0.3 
1.0 1.0 1.0 0.0 0.0 1:0.2727272727272727 2:0.4 
1.0 1.0 0.0 0.0 0.0 1:0.045454545454545456 2:0.1 
1.0 1.0 0.0 0.0 0.0 1:0.8636363636363636 2:0.5 
1.0 1.0 1.0 0.0 0.0 1:0.22727272727272727 2:0.0 
1.0 1.0 0.0 0.0 0.0 1:0.13636363636363635 2:0.0 
1.0 1.0 0.07957140513687506 0.0 0.0 1:0.45454545454545453 2:0.4 
1.0 1.0 1.0 0.0 0.0 1:2.5 2:0.0 
0.0 1.0 0.0 0.0 0.0 1:6.5 2:0.6666666666666666 
1.0 1.0 1.0 0.0 0.0 1:2.5 2:0.0 
1.0 1.0 1.0 0.0 0.0 1:3.5 2:0.0 
1.0 1.0 1.0 0.0 0.0 1:1.6666666666666667 2:1.0 
1.0 1.0 0.0 0.0 0.0 1:0.1 2:0.15789473684210525 
1.0 1.0 0.0 0.0 0.0 1:0.2 2:0.2222222222222222 
1.0 1.0 0.9839137142549002 0.0 0.0 1:0.15 2:0.2222222222222222 
1.0 1.0 0.0 0.0 0.0 1:0.5 2:0.0 
1.0 1.0 0.0 0.0 0.0 1:0.5 2:0.0 
1.0 1.0 1.0 0.0 0.0 1:0.5 2:2.0 
1.0 1.0 1.0 0.0 0.0 1:0.8333333333333334 2:1.0 
1.0 1.0 0.0 0.0 0.0 1:0.2222222222222222 2:0.0 
1.0 1.0 1.0 0.0 0.0 1:0.2222222222222222 2:0.4 
1.0 1.0 0.0 0.0 0.0 1:0.4444444444444444 2:0.0 
1.0 1.0 0.0 0.0 0.0 1:0.2222222222222222 2:0.0 
1.0 1.0 1.0 0.0 0.0 1:0.3333333333333333 2:0.8 
1.0 1.0 0.9037253400340691 0.0 0.0 1:0.4444444444444444 2:0.07692307692307693 
1.0 1.0 0.0 0.0 0.0 1:0.0625 2:0.4 
1.0 1.0 1.0 0.0 0.0 1:0.4375 2:1.2 
1.0 1.0 0.0 0.0 0.0 1:0.125 2:0.0 
1.0 1.0 1.0 0.1685417775371476 0.0 1:3.5 2:0.0 
1.0 1.0 0.9684464355724336 0.0 0.0 1:0.2727272727272727 2:0.3333333333333333 
1.0 1.0 0.0 0.0 0.0 1:0.36363636363636365 2:0.2222222222222222 
1.0 1.0 0.0 0.0 0.0 1:0.09090909090909091 2:0.2222222222222222 
1.0 1.0 0.0 0.0 0.01709402377572565 1:1.1818181818181819 2:0.1111111111111111 
1.0 1.0 0.0 0.0 0.0 1:0.5454545454545454 2:0.2222222222222222 
1.0 1.0 1.0 0.0 0.0 1:0.18181818181818182 2:0.4444444444444444 
1.0 1.0 0.0 0.0 0.0 1:0.14285714285714285 2:0.0 
1.0 1.0 0.0 0.0 0.0 1:0.06666666666666667 2:0.0 
1.0 1.0 1.0 0.0 0.0 1:0.5 2:0.75 
1.0 1.0 1.0 0.0 0.0 1:0.25 2:0.25 
1.0 1.0 0.0 0.0 0.0 1:5.0 2:0.0 
1.0 1.0 0.0 0.0 0.0 1:5.0 2:0.0 
1.0 1.0 1.0 1.0 0.0 1:4.0 2:0.0 
1.0 1.0 0.0 0.0 0.0 1:1.0 2:0.0 
1.0 1.0 0.0 0.0 0.0 1:0.25 2:0.0 
1.0 1.0 0.0 0.0 0.0 1:0.25 2:0.0 
1.0 1.0 0.0 0.0 0.0 1:0.3333333333333333 2:0.125 
1.0 1.0 0.0 0.0 0.0 1:0.16666666666666666 2:0.125 
1.0 1.0 1.0 0.0 0.0 1:0.6666666666666666 2:0.125 
1.0 1.0 1.0 0.0 0.0 1:5.5 2:3.0 
1.0 1.0 1.0 0.0 0.0 1:1.5 2:0.0 
1.0 1.0 0.2568148471844534 0.0 0.0 1:6.5 2:1.0 
1.0 1.0 0.9693134998920324 0.0 0.0 1:6.5 2:1.0 
1.0 1.0 1.0 0.0 0.0 1:1.5 2:1.0 
1.0 1.0 1.0 0.0 0.0 1:1.25 2:4.5 
1.0 1.0 0.0 0.0 0.0 1:0.07142857142857142 2:0.0 
1.0 1.0 0.0 0.0 0.0 1:0.0 2:0.3333333333333333 
1.0 1.0 0.0 0.0 0.0 1:0.15789473684210525 2:0.0 
1.0 1.0 1.0 0.0 0.0 1:0.42105263157894735 2:0.42857142857142855 
1.0 1.0 0.0 0.0 0.0 1:1.0 2:0.2 
1.0 1.0 1.0 0.0 0.0 1:0.4 2:0.0 
1.0 1.0 1.0 0.0 0.0 1:0.3333333333333333 2:0.42857142857142855 
1.0 1.0 0.9838615251796744 0.0 0.0 1:1.1111111111111112 2:1.0 
1.0 1.0 1.0 0.0 0.0 1:0.4444444444444444 2:0.2857142857142857 
1.0 1.0 0.05442372190775411 0.0 0.0 1:0.3333333333333333 2:0.5714285714285714 
1.0 1.0 0.0 0.0 0.0 1:0.6666666666666666 2:1.0 
1.0 1.0 0.0 0.0 0.0 1:0.6666666666666666 2:0.42857142857142855 
1.0 1.0 1.0 0.0 0.0 1:5.333333333333333 2:3.142857142857143 
1.0 1.0 0.7694279177056911 0.0 0.0 1:0.1111111111111111 2:0.14285714285714285 
1.0 1.0 1.0 0.0 0.0 1:2.3333333333333335 2:0.5714285714285714 
1.0 1.0 1.0 0.0 0.0 1:0.8888888888888888 2:0.42857142857142855 
1.0 1.0 1.0 0.0 0.0 1:0.4444444444444444 2:0.42857142857142855 
1.0 1.0 1.0 0.0 0.0 1:0.6 2:0.4166666666666667 
1.0 1.0 0.6646837109466206 0.0 0.0 1:9.75 2:13.5 
1.0 1.0 0.0 0.0 0.0 1:0.375 2:0.5 
1.0 1.0 0.0 0.0 0.0 1:0.375 2:0.5 
1.0 1.0 0.0 0.0 0.0 1:0.125 2:0.5 
1.0 1.0 0.0 0.0 0.0 1:0.375 2:2.0 
1.0 1.0 1.0 0.0 0.0 1:1.0 2:2.5 
1.0 1.0 0.0 0.0 0.0 1:0.125 2:2.5 
1.0 1.0 1.0 0.0 0.0 1:2.090909090909091 2:1.1428571428571428 
1.0 1.0 0.9731270577390448 0.0016889573878837642 0.0 1:1.0 2:0.8571428571428571 
1.0 1.0 0.0 0.0 0.0 1:1.0 2:1.0 
1.0 1.0 0.0 0.0 0.0 1:0.2 2:0.0 
1.0 1.0 1.0 0.0 0.0 1:3.0 2:5.0 
1.0 1.0 0.0 0.0 0.0 1:0.2 2:0.0 
1.0 1.0 0.0 0.0 0.0 1:0.6 2:0.0 
1.0 1.0 1.0 0.0 0.0 1:2.2 2:10.0 
1.0 1.0 0.0 0.0 0.0 1:2.6 2:2.0 
1.0 1.0 1.0 0.0 0.0 1:1.0 2:3.0 
1.0 1.0 1.0 0.0 0.0 1:0.9166666666666666 2:0.25 
1.0 1.0 0.0 0.0 0.0 1:0.6666666666666666 2:1.0 
1.0 1.0 0.0 0.0 0.0 1:0.4444444444444444 2:0.6666666666666666 
1.0 1.0 0.8326877941167777 0.0 0.0 1:1.0 2:1.1666666666666667 
1.0 1.0 0.8148298017401963 0.0 0.0 1:1.2222222222222223 2:1.0 
1.0 1.0 1.0 0.0 0.0 1:0.0 2:0.3333333333333333 
1.0 1.0 0.1845771887454821 0.0 0.0 1:0.0 2:0.1 
1.0 1.0 1.0 1.0 0.0 1:0.35294117647058826 2:0.0 
1.0 1.0 0.0 0.0 0.0 1:0.5 2:0.0 
1.0 1.0 0.0 0.0 0.0 1:0.25 2:0.0 
1.0 1.0 0.0 0.0 0.0 1:0.2 2:0.2 
1.0 1.0 0.0 0.0 0.0 1:0.125 2:0.3333333333333333 
1.0 1.0 1.0 0.0 0.0 1:0.23076923076923078 2:0.3333333333333333 
1.0 1.0 0.0 0.0 0.0 1:0.6153846153846154 2:0.0 
1.0 1.0 0.0 0.0 0.0 1:0.6 2:0.0 
1.0 1.0 1.0 0.054467123888533045 0.0 1:2.4 2:0.6 
1.0 1.0 1.0 0.0 0.0 1:1.1818181818181819 2:0.3333333333333333 
1.0 1.0 1.0 0.0 0.0 1:1.5 2:2.0 
1.0 1.0 0.0 0.0 0.0 1:0.14285714285714285 2:0.1111111111111111 
1.0 1.0 1.0 0.0 0.0 1:0.21428571428571427 2:0.3333333333333333 
1.0 1.0 1.0 0.0 0.0 1:2.0714285714285716 2:5.111111111111111 
1.0 1.0 0.10578119391050456 0.0 0.0 1:0.42857142857142855 2:0.5555555555555556 
1.0 1.0 0.07141208047645947 0.0 0.0 1:1.2857142857142858 2:2.2222222222222223 
1.0 1.0 0.0 0.0 0.0 1:0.21428571428571427 2:0.7777777777777778 
1.0 1.0 0.08820117596486915 0.0 0.0 1:1.0 2:2.0 
1.0 1.0 1.0 0.0 0.0 1:0.26666666666666666 2:0.4 
1.0 1.0 0.0 0.0 0.0 1:3.0 2:8.5 
1.0 1.0 0.10620397451978598 0.0 0.0 1:0.5714285714285714 2:0.0 
1.0 1.0 1.0 0.0 0.0 1:0.2857142857142857 2:1.0 
1.0 1.0 1.0 0.0 0.0 1:1.5714285714285714 2:6.0 
1.0 1.0 1.0 0.0 0.0 1:1.5714285714285714 2:4.5 
1.0 1.0 1.0 0.0 0.0 1:1.1428571428571428 2:3.5 
1.0 1.0 0.0 0.0 0.0 1:1.4285714285714286 2:3.0 
1.0 1.0 1.0 0.0 0.0 1:1.4285714285714286 2:2.5 
1.0 1.0 1.0 0.0 0.0 1:1.7142857142857142 2:2.5 
1.0 1.0 0.12160742048849124 0.0 0.0 1:0.7142857142857143 2:1.0 
1.0 1.0 0.9567774405031317 0.0 0.0 1:1.2857142857142858 2:4.0 
1.0 1.0 0.0 0.0 0.0 1:0.2857142857142857 2:2.0 
1.0 1.0 0.0 0.0 0.0 1:0.14285714285714285 2:1.0 
1.0 1.0 1.0 0.0 0.0 1:0.5714285714285714 2:2.0 
1.0 1.0 0.0 0.0 0.0 1:4.142857142857143 2:3.0 
1.0 1.0 0.0 0.0 0.0 1:0.42857142857142855 2:1.0 
1.0 1.0 0.0 0.0 0.0 1:0.0 2:0.16666666666666666 
1.0 1.0 0.0 0.0 0.0 1:0.42857142857142855 2:0.0 
1.0 1.0 1.0 0.0 0.0 1:1.0 2:0.75 
1.0 1.0 1.0 0.0 0.0 1:0.5555555555555556 2:0.5 
1.0 1.0 1.0 0.0 0.0 1:1.4285714285714286 2:1.5 
1.0 1.0 1.0 0.0 0.0 1:2.142857142857143 2:1.25 
1.0 1.0 0.0 0.0 0.0 1:0.13333333333333333 2:0.4 
1.0 1.0 0.9906537575708699 0.0 0.0 1:0.16666666666666666 2:0.14285714285714285 
1.0 1.0 1.0 0.0 0.0 1:3.0 2:3.0 
1.0 1.0 0.0 0.0 0.0 1:1.0 2:0.0 
1.0 1.0 0.0 0.0 0.0 1:0.18181818181818182 2:0.16666666666666666 
1.0 1.0 1.0 0.0 0.0 1:0.36363636363636365 2:1.1666666666666667 
1.0 1.0 1.0 0.0 0.0 1:0.36363636363636365 2:0.5 
1.0 1.0 1.0 0.0 0.0 1:0.22727272727272727 2:0.16666666666666666 
1.0 1.0 1.0 0.0 0.0 1:0.09090909090909091 2:0.5 
1.0 1.0 0.0 0.0 0.0 1:0.3181818181818182 2:0.0 
1.0 1.0 0.011504772069841032 0.0 0.0 1:0.5909090909090909 2:0.5 
1.0 1.0 1.0 0.0 0.0 1:0.2727272727272727 2:0.8333333333333334 
1.0 1.0 1.0 0.0 0.0 1:3.3333333333333335 2:1.0 
1.0 1.0 0.0 0.0 0.0 1:1.3333333333333333 2:2.5 
1.0 1.0 1.0 0.0 0.0 1:2.0 2:2.0 
0.0 1.0 0.7106204466275621 0.0 0.0 1:4.333333333333333 2:2.5 
1.0 1.0 0.0 0.0 0.0 1:2.0 2:1.0 
1.0 1.0 0.0 0.0 0.0 1:1.3333333333333333 2:1.0 
1.0 1.0 1.0 0.0 0.0 1:1.3333333333333333 2:0.5 
1.0 1.0 1.0 0.0 0.0 1:4.0 2:0.5 
1.0 1.0 1.0 0.0 0.0 1:2.6666666666666665 2:1.5 
1.0 1.0 1.0 0.0 0.0 1:3.6666666666666665 2:1.5 
1.0 1.0 1.0 0.0 0.0 1:2.3333333333333335 2:3.0 
1.0 1.0 1.0 0.0 0.0 1:5.333333333333333 2:3.0 
1.0 1.0 0.0 0.0 0.0 1:1.0 2:1.0 
1.0 1.0 1.0 0.0 0.0 1:1.6666666666666667 2:2.0 
1.0 1.0 0.0 0.0 0.0 1:1.0 2:0.5 
1.0 1.0 0.0 0.0 0.0 1:0.6666666666666666 2:1.0 
1.0 1.0 1.0 0.0 0.0 1:4.666666666666667 2:4.0 
1.0 1.0 0.0 0.0 0.0 1:1.0 2:0.0 
1.0 1.0 1.0 0.0 0.0 1:2.3333333333333335 2:1.5 
1.0 1.0 0.0 0.0 0.0 1:0.3076923076923077 2:0.0 
1.0 1.0 1.0 0.0 0.0 1:1.2307692307692308 2:1.7142857142857142 
1.0 1.0 0.8200815253226773 0.0017809529962873117 0.0 1:0.9230769230769231 2:0.8571428571428571 
1.0 1.0 1.0 0.0 0.0 1:0.38461538461538464 2:0.14285714285714285 
1.0 1.0 1.0 0.0 0.0 1:1.4615384615384615 2:0.7142857142857143 
1.0 1.0 0.0 0.0 0.0 1:0.8461538461538461 2:0.8571428571428571 
1.0 1.0 0.0 0.0 0.0 1:0.2727272727272727 2:0.16666666666666666 
1.0 1.0 1.0 0.0 0.0 1:0.8461538461538461 2:1.75 
1.0 1.0 1.0 0.0 0.0 1:0.5384615384615384 2:1.5 
1.0 1.0 0.0 0.0 0.0 1:0.5 2:0.5 
1.0 1.0 1.0 0.0 0.0 1:0.75 2:2.5 
1.0 1.0 1.0 0.0 0.0 1:0.75 2:1.0 
1.0 1.0 0.0 0.0 0.0 1:0.25 2:0.0 
1.0 1.0 0.0 0.0 0.0 1:0.5 2:0.0 
1.0 1.0 0.0 0.0 0.0 1:0.09090909090909091 2:0.2 
1.0 1.0 1.0 0.0 0.0 1:0.36363636363636365 2:0.2 
1.0 1.0 0.0 0.0 0.0 1:0.09090909090909091 2:0.0 
1.0 1.0 0.22925883858504167 0.0 0.0 1:0.3333333333333333 2:0.5 
1.0 1.0 0.0 0.0 0.0 1:0.3333333333333333 2:0.0 
1.0 1.0 0.010630071206036207 0.0 0.0 1:0.5555555555555556 2:1.0 
1.0 1.0 0.0 0.0 0.0 1:0.2727272727272727 2:0.0 
1.0 1.0 0.0 0.0 0.0 1:0.3333333333333333 2:1.0 
1.0 1.0 1.0 0.0 0.0 1:1.5 2:2.0 
1.0 1.0 0.0 0.0 0.0 1:0.5 2:1.0 
1.0 1.0 0.0 0.0 0.0 1:1.0 2:2.0 
1.0 1.0 0.0 0.0 0.0 1:0.3333333333333333 2:0.0 
1.0 1.0 0.0 0.0 0.0 1:1.1666666666666667 2:0.0 
1.0 1.0 1.0 0.0 0.0 1:0.6666666666666666 2:0.0 
1.0 1.0 0.0 0.0 0.0 1:0.3333333333333333 2:1.0 
1.0 1.0 0.0 0.0 0.0 1:0.16666666666666666 2:1.0 
1.0 1.0 1.0 0.0 0.0 1:0.5 2:2.0 
1.0 1.0 0.0 0.0 0.0 1:0.125 2:0.0 
1.0 1.0 0.0 0.0 0.0 1:0.15384615384615385 2:0.2857142857142857 
1.0 1.0 1.0 0.0 0.0 1:0.46153846153846156 2:0.7142857142857143 
1.0 1.0 1.0 0.0 0.0 1:0.38461538461538464 2:0.42857142857142855 
1.0 1.0 0.956448448002703 0.0 0.0 1:0.15384615384615385 2:0.14285714285714285 
1.0 1.0 0.0 0.0 0.0 1:1.6153846153846154 2:3.0 
1.0 1.0 0.0 0.0 0.0 1:0.38461538461538464 2:0.0 
1.0 1.0 0.0 0.0 0.0 1:0.38461538461538464 2:0.0 
1.0 1.0 0.0 0.0 0.0 1:0.25 2:0.0 
1.0 1.0 0.007693047282742993 0.0 0.0 1:0.5384615384615384 2:0.5 
1.0 1.0 0.0 0.0 0.0 1:0.1 2:0.0 
1.0 1.0 0.0 0.0 0.0 1:0.4166666666666667 2:0.5 
1.0 1.0 1.0 0.0 0.0 1:0.5 2:0.25 
1.0 1.0 1.0 0.0 0.0 1:0.16666666666666666 2:0.25 
1.0 1.0 1.0 1.0 0.0 1:1.0833333333333333 2:0.5 
1.0 1.0 0.9961466693159028 1.0 0.0 1:1.2222222222222223 2:0.0 
1.0 1.0 1.0 0.0 0.0 1:0.5454545454545454 2:1.1 
1.0 1.0 0.0 0.0 0.0 1:0.05555555555555555 2:0.0 
1.0 1.0 1.0 0.0 0.0 1:1.6666666666666667 2:1.5 
1.0 1.0 1.0 0.0 0.0 1:3.0 2:1.0 
1.0 1.0 1.0 0.0 0.0 1:0.6666666666666666 2:0.0 
1.0 1.0 0.8855768305531126 0.0 0.0 1:0.9166666666666666 2:1.25 
1.0 1.0 0.0 0.0 0.0 1:1.0 2:0.5 
1.0 1.0 1.0 0.0 0.0 1:0.6666666666666666 2:0.6666666666666666 
1.0 1.0 1.0 0.0 0.0 1:2.5 2:3.0 
1.0 1.0 0.9626961752527227 0.0 0.0 1:0.13333333333333333 2:0.125 
1.0 1.0 0.0 0.0 0.0 1:0.3333333333333333 2:0.25 
1.0 1.0 1.0 0.0 0.0 1:0.26666666666666666 2:0.125 
1.0 1.0 0.0 0.0 0.0 1:0.9090909090909091 2:0.25 
1.0 1.0 0.0 0.0 0.0 1:0.45454545454545453 2:0.0 
1.0 1.0 1.0 0.0 0.0 1:0.0 2:0.5 
1.0 1.0 0.8097671367902736 0.0 0.0 1:0.9090909090909091 2:1.0 
1.0 1.0 1.0 0.0 0.0 1:1.3333333333333333 2:0.8 
1.0 1.0 0.0 0.0 0.0 1:0.6 2:0.0 
1.0 1.0 1.0 0.0 0.0 1:0.1111111111111111 2:0.6666666666666666 
1.0 1.0 0.10159653746526821 0.0 0.0 1:0.45454545454545453 2:0.8 
1.0 1.0 1.0 0.0 0.0 1:0.8181818181818182 2:0.4 
1.0 1.0 0.05798344143985437 0.002844201545501847 0.0 1:0.36363636363636365 2:0.4 
1.0 1.0 0.8371239316956168 0.0 0.0 1:0.2727272727272727 2:1.2 
1.0 1.0 1.0 0.0 0.0 1:0.45454545454545453 2:0.2 
1.0 1.0 1.0 0.0 0.0 1:0.18181818181818182 2:0.2 
1.0 1.0 1.0 0.0 0.0 1:0.09090909090909091 2:0.4 
1.0 1.0 1.0 0.0 0.0 1:0.6363636363636364 2:2.0 
1.0 1.0 1.0 0.0 0.0 1:0.2727272727272727 2:0.6 
1.0 1.0 0.0 0.0 0.0 1:0.45454545454545453 2:0.0 
1.0 1.0 1.0 0.0 0.0 1:0.18181818181818182 2:0.8 
1.0 1.0 0.0 0.0 0.0 1:1.9090909090909092 2:0.4 
1.0 1.0 1.0 0.0 0.0 1:1.0 2:1.2 
1.0 1.0 1.0 0.0 0.0 1:0.45454545454545453 2:0.4 
1.0 1.0 1.0 0.0 0.0 1:0.36363636363636365 2:0.2 
1.0 1.0 0.0 0.0 0.0 1:0.18181818181818182 2:1.0 
1.0 1.0 1.0 0.0 0.01841415550550681 1:1.1818181818181819 2:0.2 
1.0 1.0 1.0 0.0 0.0 1:0.09090909090909091 2:0.4 
1.0 1.0 0.04747695511994812 0.0 0.0 1:0.45454545454545453 2:0.0 
1.0 1.0 0.0 0.0 0.0 1:0.9090909090909091 2:1.6 
1.0 1.0 1.0 0.0 0.0 1:0.18181818181818182 2:0.2 
1.0 1.0 1.0 0.0 0.0 1:0.5454545454545454 2:0.8 
1.0 1.0 1.0 0.0 0.0 1:0.8181818181818182 2:1.6 
1.0 1.0 0.0 0.0 0.0 1:0.18181818181818182 2:0.0 
1.0 1.0 0.0 0.0 0.0 1:0.18181818181818182 2:0.4 
1.0 1.0 0.043965885854161016 0.0 0.0 1:0.8181818181818182 2:0.6 
1.0 1.0 0.8733757072650327 0.0 0.0 1:0.09090909090909091 2:0.2 
1.0 1.0 0.0 0.0 0.0 1:0.125 2:0.0 
1.0 1.0 0.0 0.0 0.0 1:1.3333333333333333 2:2.5 
1.0 1.0 1.0 0.0 0.0 1:0.5555555555555556 2:0.5 
1.0 1.0 0.07998335721192579 0.0 0.0 1:0.4444444444444444 2:0.5 
1.0 1.0 0.0 0.0 0.0 1:0.7777777777777778 2:5.5 
1.0 1.0 0.0 0.0 0.0 1:0.2222222222222222 2:0.0 
1.0 1.0 0.0 0.0 0.0 1:0.3333333333333333 2:0.0 
1.0 1.0 1.0 0.0 0.0 1:0.7777777777777778 2:0.0 
1.0 1.0 1.0 0.0 0.0 1:0.6363636363636364 2:0.3333333333333333 
1.0 1.0 0.3990159655256415 0.0 0.0 1:0.375 2:0.5 
1.0 1.0 1.0 0.0 0.0 1:0.3 2:0.2 
1.0 1.0 1.0 0.0 0.0 1:0.4 2:0.3 
1.0 1.0 0.0 0.0 0.0 1:0.1 2:0.0 
1.0 1.0 0.0 0.0 0.0 1:0.05 2:0.1 
1.0 1.0 0.0 0.0 0.0 1:0.2 2:0.2 
1.0 1.0 0.0 0.0 0.0 1:0.05 2:0.1 
1.0 1.0 0.3061279279149668 0.0 0.0 1:0.1 2:0.1 
1.0 1.0 0.0 0.0 0.0 1:0.1 2:0.2 
1.0 1.0 0.01386468094728537 0.0 0.0 1:0.35 2:0.3 
1.0 1.0 1.0 0.0 0.0 1:0.45 2:0.0 
1.0 1.0 0.0 0.0 0.0 1:0.2 2:0.3 
1.0 1.0 1.0 0.0 0.0 1:0.4 2:0.4 
1.0 1.0 0.0 0.0 0.0 1:0.5 2:1.0 
1.0 1.0 0.0 0.0 0.0 1:0.8333333333333334 2:0.2 
1.0 1.0 1.0 0.0 0.0 1:0.18181818181818182 2:0.125 
1.0 1.0 0.0 0.0 0.0 1:0.1 2:0.14285714285714285 
1.0 1.0 0.0 0.0 0.0 1:0.4 2:0.14285714285714285 
1.0 1.0 1.0 0.0 0.0 1:0.375 2:0.1 
1.0 1.0 0.0 0.0 0.0 1:0.0 2:0.0 
1.0 1.0 0.0 0.0 0.0 1:0.0 2:0.0 
1.0 1.0 0.0 0.0 0.0 1:0.0 2:0.0 
1.0 1.0 0.5121748268056692 0.0 0.0 1:0.5714285714285714 2:2.5 
1.0 1.0 1.0 0.0 0.0 1:0.4 2:1.0 
1.0 1.0 0.0 0.0 0.0 1:0.35294117647058826 2:0.29411764705882354 
1.0 1.0 0.0 0.0 0.0 1:0.125 2:0.0 
1.0 1.0 0.0 0.0 0.0 1:0.16666666666666666 2:0.4 
1.0 1.0 1.0 0.0 0.0 1:0.75 2:1.4 
1.0 1.0 1.0 0.0 0.0 1:0.4166666666666667 2:0.5 
1.0 1.0 0.0 0.0 0.0 1:0.0 2:0.1 
1.0 1.0 0.0 0.0 0.0 1:0.3333333333333333 2:0.0 
1.0 1.0 1.0 0.0 0.0 1:0.2916666666666667 2:0.5 
1.0 1.0 0.0 0.0 0.0 1:0.25 2:0.3 
1.0 1.0 0.0 0.0 0.0 1:0.041666666666666664 2:0.4 
1.0 1.0 0.0 0.0 0.0 1:0.125 2:0.5 
1.0 1.0 0.0 0.0 0.0 1:0.25 2:0.4 
1.0 1.0 0.917353600046814 0.0 0.0 1:0.125 2:0.1 
1.0 1.0 0.012476902231272765 0.0 0.0 1:0.25 2:0.4 
1.0 1.0 1.0 0.0 0.0 1:0.20833333333333334 2:0.6 
1.0 1.0 1.0 0.0 0.0 1:0.5 2:1.3 
1.0 1.0 0.0 0.0 0.0 1:0.20833333333333334 2:0.1 
1.0 1.0 0.0 0.0 0.0 1:0.125 2:0.6 
1.0 1.0 0.0 0.0 0.0 1:0.16666666666666666 2:0.0 
1.0 1.0 0.0 0.0 0.0 1:0.375 2:0.2 
1.0 1.0 0.0 0.0 0.0 1:0.25 2:0.3 
1.0 1.0 1.0 0.0 0.0 1:0.625 2:0.6 
1.0 1.0 1.0 0.0 0.0 1:0.2857142857142857 2:1.0 
1.0 1.0 1.0 0.0 0.0 1:2.6666666666666665 2:2.0 
1.0 1.0 0.0032939049843951043 0.0 0.0 1:0.375 2:0.3333333333333333 
1.0 1.0 0.0 0.0 0.0 1:0.125 2:0.3333333333333333 
1.0 1.0 1.0 0.0 0.0 1:0.625 2:2.0 
1.0 1.0 0.0 0.0 0.0 1:0.4 2:0.16666666666666666 
1.0 1.0 1.0 0.0 0.0 1:1.5 2:0.5 
1.0 1.0 0.004626866520388323 0.0 0.0 1:0.5555555555555556 2:0.4 
1.0 1.0 0.0 0.0 0.0 1:0.3333333333333333 2:0.0 
1.0 1.0 0.0 0.0 0.0 1:0.5 2:0.2 
1.0 1.0 0.0 0.0 0.0 1:1.125 2:0.0 
1.0 1.0 1.0 0.0 0.0 1:0.3 2:0.1 
1.0 1.0 1.0 0.0 0.0 1:1.75 2:1.3333333333333333 
1.0 1.0 1.0 0.0 0.0 1:0.8 2:2.0 
1.0 1.0 0.0 0.0 0.0 1:0.6 2:0.0 
1.0 1.0 1.0 0.0 0.0 1:2.4 2:3.0 
1.0 1.0 1.0 0.0 0.0 1:0.4 2:0.0 
1.0 1.0 1.0 0.0 0.0 1:0.4 2:1.0 
1.0 1.0 1.0 0.0 0.0 1:0.8 2:1.0 
1.0 1.0 1.0 0.0 0.0 1:0.4 2:1.0 
1.0 1.0 0.0 0.0 0.0 1:0.0 2:2.0 
1.0 1.0 1.0 0.0 0.0 1:0.4 2:0.0 
1.0 1.0 0.0 0.0 0.0 1:1.0 2:0.0 
1.0 1.0 1.0 0.0 0.0 1:0.75 2:0.5 
1.0 1.0 0.0 0.0 0.0 1:0.5 2:0.5 
1.0 1.0 0.0 0.0 0.0 1:0.5 2:0.3333333333333333 
1.0 1.0 0.0 0.0 0.0 1:0.07142857142857142 2:0.0 
1.0 1.0 1.0 0.0 0.0 1:0.14285714285714285 2:0.3333333333333333 
1.0 1.0 0.9701490212381407 0.0 0.0 1:0.17857142857142858 2:0.16666666666666666 
1.0 1.0 1.0 0.0 0.0 1:0.10714285714285714 2:0.6666666666666666 
1.0 1.0 0.0 0.0 0.0 1:0.07142857142857142 2:0.3333333333333333 
1.0 1.0 1.0 0.0 0.0 1:0.4642857142857143 2:0.16666666666666666 
1.0 1.0 0.0 0.0 0.0 1:0.07142857142857142 2:0.0 
1.0 1.0 0.0 0.0 0.0 1:0.25 2:1.1666666666666667 
1.0 1.0 0.10207148237235772 0.0 0.0 1:0.5357142857142857 2:0.6666666666666666 
1.0 1.0 1.0 0.0 0.0 1:0.07142857142857142 2:0.3333333333333333 
1.0 1.0 0.0 0.0 0.0 1:0.2857142857142857 2:0.5 
1.0 1.0 0.0 0.0 0.0 1:0.2857142857142857 2:0.16666666666666666 
1.0 1.0 1.0 0.0 0.0 1:0.07142857142857142 2:0.6666666666666666 
1.0 1.0 0.7866593651723579 0.0 0.0 1:0.17857142857142858 2:1.0 
1.0 1.0 0.8273471639045519 0.0 0.0 1:0.03571428571428571 2:0.6666666666666666 
1.0 1.0 0.0 0.0 0.0 1:0.3333333333333333 2:0.2727272727272727 
1.0 1.0 0.0 0.0 0.0 1:0.0967741935483871 2:0.6 
1.0 1.0 0.33251566841506663 0.0 0.0 1:0.75 2:0.0 
0.0 1.0 0.0 0.0 0.0 1:4.5 2:0.0 
1.0 1.0 1.0 0.0 0.0 1:1.6923076923076923 2:1.75 
1.0 1.0 0.0 0.0 0.0 1:0.5555555555555556 2:0.42857142857142855 
1.0 1.0 1.0 0.0 0.0 1:0.0 2:0.25 
1.0 1.0 1.0 0.0 0.0 1:0.3333333333333333 2:0.3333333333333333 
1.0 1.0 1.0 0.0 0.0 1:0.06666666666666667 2:0.4 
1.0 1.0 1.0 0.002324043438019784 0.0 1:0.6 2:0.8 
1.0 1.0 0.9917410611968261 0.0 0.0 1:0.23076923076923078 2:0.16666666666666666 
1.0 1.0 0.0 0.0 0.0 1:0.23076923076923078 2:0.25 
1.0 1.0 0.0 0.0 0.0 1:0.3333333333333333 2:0.75 
1.0 1.0 1.0 0.0 0.0 1:0.4 2:0.0 
1.0 1.0 0.8980405547270359 0.0 0.0 1:2.0 2:0.6666666666666666 
1.0 1.0 1.0 0.0 0.0 1:0.8333333333333334 2:0.4 
1.0 1.0 0.0 0.0 0.0 1:0.5 2:0.4 
1.0 1.0 0.06205780878969301 0.0 0.0 1:0.3333333333333333 2:0.6 
1.0 1.0 0.9906012029329293 0.0 0.0 1:0.18181818181818182 2:0.14285714285714285 
1.0 1.0 1.0 0.0 0.0 1:0.36363636363636365 2:0.42857142857142855 
1.0 1.0 1.0 0.0 0.0 1:1.4545454545454546 2:1.0 
1.0 1.0 0.0 0.0 0.0 1:0.4 2:0.2 
1.0 1.0 1.0 0.0 0.0 1:0.4 2:0.0 
1.0 1.0 0.0 0.0 0.0 1:0.0 2:1.0 
1.0 1.0 0.0 0.0 0.0 1:0.36363636363636365 2:2.0 
1.0 1.0 1.0 0.0 0.0 1:1.0909090909090908 2:5.0 
1.0 1.0 1.0 0.0 0.0 1:1.1818181818181819 2:3.0 
1.0 1.0 1.0 0.0 0.0 1:1.4545454545454546 2:5.0 
1.0 1.0 1.0 0.0 0.0 1:0.5454545454545454 2:1.0 
1.0 1.0 1.0 0.0 0.0 1:1.5454545454545454 2:4.0 
1.0 1.0 1.0 0.0 0.0 1:0.19230769230769232 2:0.8 
1.0 1.0 0.0 0.0 0.0 1:0.375 2:0.0 
1.0 1.0 0.0 0.0 0.0 1:1.625 2:3.0 
1.0 1.0 0.0 0.0 0.0 1:0.09090909090909091 2:0.0 
1.0 1.0 0.0 0.0 0.0 1:0.16666666666666666 2:0.5 
1.0 1.0 1.0 0.0 0.0 1:0.1 2:0.3333333333333333 
1.0 1.0 0.0 0.0 0.0 1:0.16666666666666666 2:0.2 
1.0 1.0 0.0 0.0 0.0 1:0.16666666666666666 2:0.4 
1.0 1.0 1.0 0.0 0.0 1:0.4444444444444444 2:0.8 
1.0 1.0 0.04578462141349747 0.0 0.0 1:1.0 2:1.0 
1.0 1.0 1.0 0.0 0.0 1:0.8333333333333334 2:1.4 
1.0 1.0 1.0 0.0 0.0 1:0.2222222222222222 2:0.2 
1.0 1.0 1.0 0.0 0.0 1:0.6666666666666666 2:1.4 
1.0 1.0 0.0 0.0 0.0 1:0.18181818181818182 2:0.0 
1.0 1.0 0.0 0.0 0.0 1:0.18181818181818182 2:0.0 
1.0 1.0 0.9879598204933735 0.0 0.0 1:3.0 2:0.0 
1.0 1.0 0.0 0.0 0.0 1:0.07692307692307693 2:3.0 
1.0 1.0 1.0 0.0 0.0 1:0.3076923076923077 2:1.0 
1.0 1.0 1.0 0.0 0.0 1:0.3333333333333333 2:0.8 
1.0 1.0 0.0 0.0 0.0 1:0.14285714285714285 2:0.0 
1.0 1.0 0.030591043669381486 0.0 0.0 1:0.5 2:1.5 
1.0 1.0 0.0 0.0 0.0 1:0.16666666666666666 2:0.0 
1.0 1.0 1.0 0.0 0.0 1:1.2727272727272727 2:0.6666666666666666 
1.0 1.0 0.0 0.0 0.0 1:0.9090909090909091 2:1.6666666666666667 
1.0 1.0 0.18433353678968228 0.0 0.0 1:0.6363636363636364 2:5.0 
1.0 1.0 1.0 0.0 0.0 1:0.45454545454545453 2:1.0 
1.0 1.0 1.0 1.0 0.0 1:0.7 2:0.23076923076923078 
1.0 1.0 0.0 0.0 0.0 1:0.3 2:0.0 
1.0 1.0 1.0 0.0 0.0 1:0.2 2:0.23076923076923078 
1.0 1.0 0.9492691622808525 0.0 0.0 1:1.0 2:0.6923076923076923 
1.0 1.0 1.0 0.0 0.0 1:0.2 2:0.07692307692307693 
1.0 1.0 0.0 0.0 0.0 1:0.5 2:0.07692307692307693 
1.0 1.0 0.0 0.0 0.0 1:0.1 2:0.0 
1.0 1.0 1.0 0.0 0.0 1:0.6 2:0.38461538461538464 
1.0 1.0 1.0 0.0 0.0 1:1.7 2:1.2307692307692308 
1.0 1.0 1.0 0.0 0.0 1:2.9 2:2.1538461538461537 
1.0 1.0 1.0 0.0 0.0 1:0.7 2:0.07692307692307693 
1.0 1.0 1.0 0.0 0.0 1:0.2 2:0.07692307692307693 
1.0 1.0 1.0 0.0 0.0 1:3.3 2:0.6153846153846154 
1.0 1.0 0.0 0.0 0.0 1:1.2 2:0.6923076923076923 
1.0 1.0 1.0 0.0 0.0 1:0.4 2:0.07692307692307693 
1.0 1.0 0.9658851321846137 0.0 0.0 1:0.9 2:0.07692307692307693 
1.0 1.0 1.0 0.0 0.0 1:0.5 2:0.3076923076923077 
1.0 1.0 1.0 0.0 0.0 1:1.0 2:0.23076923076923078 
1.0 1.0 0.0 0.0 0.0 1:0.3 2:0.15384615384615385 
1.0 1.0 0.9972409788062294 0.11810068454297164 0.0 1:1.1 2:0.0 
1.0 1.0 1.0 0.0 0.0 1:1.6 2:1.8461538461538463 
1.0 1.0 0.0 0.0 0.0 1:0.8 2:0.07692307692307693 
1.0 1.0 0.0 0.0 0.0 1:0.5 2:0.07692307692307693 
1.0 1.0 1.0 0.0 0.0 1:2.7 2:0.7692307692307693 
1.0 1.0 1.0 1.0 0.0 1:0.8 2:0.23076923076923078 
1.0 1.0 1.0 0.0 0.0 1:0.4 2:0.3076923076923077 
1.0 1.0 0.0 0.0 0.0 1:0.8 2:0.07692307692307693 
1.0 1.0 0.7827811524477372 0.0 0.0 1:0.6 2:0.07692307692307693 
1.0 1.0 0.9950216692341225 0.0 0.0 1:0.8 2:0.15384615384615385 
1.0 1.0 1.0 0.0 0.0 1:1.0 2:0.38461538461538464 
1.0 1.0 1.0 0.0 0.0 1:0.7 2:0.46153846153846156 
1.0 1.0 1.0 0.0 0.0 1:0.7 2:0.38461538461538464 
1.0 1.0 1.0 0.0 0.0 1:2.5 2:1.4615384615384615 
1.0 1.0 0.0 0.0 0.0 1:1.1 2:1.0769230769230769 
1.0 1.0 1.0 0.0 0.0 1:2.2 2:0.6923076923076923 
1.0 1.0 1.0 0.008363643370632287 0.0 1:2.1 2:1.0 
1.0 1.0 0.0 0.0 0.0 1:0.3076923076923077 2:0.14285714285714285 
1.0 1.0 1.0 0.0 0.0 1:2.5 2:0.0 
1.0 1.0 0.0 0.0 0.0 1:0.09090909090909091 2:0.0 
1.0 1.0 0.0 0.0 0.0 1:0.13636363636363635 2:0.0 
1.0 1.0 0.0 0.0 0.0 1:0.2727272727272727 2:0.0 
1.0 1.0 0.9940545325532022 0.0 0.0 1:0.18181818181818182 2:0.1 
1.0 1.0 1.0 0.0 0.0 1:0.22727272727272727 2:0.0 
1.0 1.0 1.0 0.0 0.0 1:0.5 2:0.3 
1.0 1.0 0.0 0.0 0.0 1:0.13636363636363635 2:0.0 
1.0 1.0 0.0 0.0 0.0 1:0.3181818181818182 2:0.0 
1.0 1.0 1.0 0.0 0.0 1:0.45454545454545453 2:0.1 
1.0 1.0 1.0 0.0 0.0 1:0.22727272727272727 2:0.5 
1.0 1.0 0.0 0.0 0.0 1:0.22727272727272727 2:0.3 
1.0 1.0 1.0 0.0 0.0 1:0.3181818181818182 2:0.2 
1.0 1.0 1.0 0.0 0.0 1:0.45454545454545453 2:0.3 
1.0 1.0 1.0 0.0 0.0 1:0.6363636363636364 2:0.4 
1.0 1.0 1.0 0.0 0.0 1:0.8181818181818182 2:0.2 
1.0 1.0 1.0 0.0 0.0 1:0.6363636363636364 2:0.2 
1.0 1.0 1.0 0.0 0.0 1:0.4090909090909091 2:0.3 
1.0 1.0 0.0 0.0 0.0 1:0.36363636363636365 2:0.1 
1.0 1.0 0.7957254473548796 0.0 0.0 1:1.2272727272727273 2:0.7 
1.0 1.0 0.0 0.0 0.0 1:0.2727272727272727 2:0.0 
1.0 1.0 0.0 0.0 0.0 1:0.13636363636363635 2:0.1 
1.0 1.0 0.0 0.0 0.0 1:0.25 2:0.16666666666666666 
1.0 1.0 0.0 0.0 0.0 1:0.25 2:0.16666666666666666 
1.0 1.0 0.9890319281309026 0.0 0.0 1:0.0 2:0.0 
1.0 1.0 0.0 0.0 0.0 1:1.25 2:1.0 
1.0 1.0 0.0 0.0 0.0 1:0.5 2:0.0 
1.0 1.0 1.0 0.9970085644323397 0.03292700977308742 1:0.7 2:0.0 
1.0 1.0 0.0 0.0 0.0 1:0.25 2:0.0 
1.0 1.0 0.030598570861266428 0.0 0.0 1:0.625 2:0.0 
1.0 1.0 1.0 0.0 0.0 1:0.4375 2:0.0 
1.0 1.0 0.0 0.0 0.0 1:0.125 2:0.0 
1.0 1.0 1.0 0.0 0.0 1:0.25 2:0.3333333333333333 
1.0 1.0 1.0 0.0 0.0 1:0.625 2:1.3333333333333333 
1.0 1.0 1.0 0.0 0.0 1:0.375 2:0.3333333333333333 
1.0 1.0 0.0 0.0 0.0 1:0.125 2:0.0 
1.0 1.0 0.0 0.0 0.0 1:0.125 2:0.0 
1.0 1.0 0.0 0.0 0.0 1:0.3333333333333333 2:0.0 
1.0 1.0 1.0 0.0 0.0 1:0.6666666666666666 2:0.0 
1.0 1.0 0.0 0.0 0.0 1:0.6666666666666666 2:0.16666666666666666 
1.0 1.0 0.0 0.0 0.0 1:0.8888888888888888 2:0.5 
1.0 1.0 1.0 0.0 0.0 1:0.7777777777777778 2:0.0 
1.0 1.0 0.0 0.0 0.0 1:1.2857142857142858 2:1.0 
1.0 1.0 1.0 0.0 0.0 1:0.0 2:0.0 
1.0 1.0 1.0 0.0 0.0 1:1.2 2:0.0 
1.0 1.0 0.15306759891217497 0.0 0.0 1:0.6 2:0.0 
1.0 1.0 1.0 0.0 0.0 1:0.14285714285714285 2:0.42857142857142855 
1.0 1.0 1.0 0.0 0.0 1:0.8 2:0.5 
1.0 1.0 1.0 0.0 0.0 1:0.46153846153846156 2:1.0 
1.0 1.0 1.0 0.0 0.0 1:0.5769230769230769 2:0.8333333333333334 
1.0 1.0 0.996152027906446 0.0 0.0 1:1.0769230769230769 2:1.3333333333333333 
1.0 1.0 0.0 0.0 0.0 1:0.8 2:0.25 
1.0 1.0 0.0 0.0 0.0 1:0.4 2:0.25 
1.0 1.0 0.0 0.0 0.0 1:0.0 2:1.0 
1.0 1.0 0.0 0.0 0.0 1:1.0 2:2.0 
1.0 1.0 0.0 0.0 0.0 1:2.0 2:1.0 
1.0 1.0 0.0 0.0 0.0 1:1.3333333333333333 2:1.0 
1.0 1.0 1.0 0.0 0.0 1:5.666666666666667 2:3.0 
1.0 1.0 1.0 0.29313373308531315 0.0 1:3.6666666666666665 2:3.0 
1.0 1.0 1.0 0.0 0.0 1:1.6666666666666667 2:1.5 
1.0 1.0 0.0 0.0 0.0 1:0.3333333333333333 2:1.0 
1.0 1.0 1.0 0.0 0.0 1:0.42857142857142855 2:0.25 
1.0 1.0 1.0 0.0 0.0 1:0.21428571428571427 2:0.5 
1.0 1.0 1.0 0.0 0.0 1:1.0 2:0.75 
1.0 1.0 0.0 0.0 0.0 1:0.42857142857142855 2:1.0 
1.0 1.0 0.0 0.0 0.0 1:0.2857142857142857 2:0.25 
1.0 1.0 0.0 0.0 0.0 1:0.6428571428571429 2:0.5 
1.0 1.0 1.0 0.0 0.0 1:0.5 2:0.75 
1.0 1.0 1.0 0.0 0.0 1:0.35714285714285715 2:1.0 
1.0 1.0 0.0 0.0 0.0 1:0.2857142857142857 2:0.5 
1.0 1.0 0.9871922342496179 0.0 0.0 1:0.21428571428571427 2:1.0 
1.0 1.0 1.0 0.0 0.0 1:0.42857142857142855 2:0.25 
1.0 1.0 0.0 0.0 0.0 1:0.14285714285714285 2:0.0 
1.0 1.0 1.0 0.0 0.0 1:0.5 2:1.25 
1.0 1.0 1.0 0.0 0.0 1:0.0 2:0.0 
1.0 1.0 0.0 0.0 0.0 1:0.42857142857142855 2:0.0 
1.0 1.0 0.0 0.0 0.0 1:0.42857142857142855 2:1.0 
1.0 1.0 0.0 0.0 0.0 1:0.07142857142857142 2:0.5 
1.0 1.0 0.0 0.0 0.0 1:0.2857142857142857 2:0.5 
1.0 1.0 1.0 0.0 0.0 1:0.21428571428571427 2:0.25 
1.0 1.0 1.0 0.0 0.0 1:0.35714285714285715 2:0.5 
1.0 1.0 1.0 0.0 0.0 1:0.7142857142857143 2:1.5 
1.0 1.0 1.0 0.0 0.0 1:0.42857142857142855 2:1.5 
1.0 1.0 1.0 0.0 0.0 1:0.6428571428571429 2:0.5 
1.0 1.0 0.0 0.0 0.0 1:0.2857142857142857 2:1.75 
1.0 1.0 1.0 0.0 0.0 1:0.6428571428571429 2:0.5 
1.0 1.0 1.0 0.0 0.0 1:0.6428571428571429 2:1.25 
1.0 1.0 0.0 0.0 0.0 1:0.3333333333333333 2:0.0 
1.0 1.0 0.0 0.0 0.0 1:0.2 2:0.0 
1.0 1.0 1.0 0.0 0.0 1:0.13333333333333333 2:0.0 
1.0 1.0 0.0 0.0 0.0 1:0.1 2:0.0 
1.0 1.0 0.0 0.0 0.0 1:0.3333333333333333 2:0.0 
1.0 1.0 0.0 0.0 0.0 1:1.6666666666666667 2:0.0 
1.0 1.0 1.0 0.33679102985756126 0.0 1:2.6666666666666665 2:0.3333333333333333 
1.0 1.0 1.0 0.0 0.0 1:2.6666666666666665 2:1.3333333333333333 
0.06765882874190572 1.0 1.0 0.0 0.0 1:8.0 2:4.0 
1.0 1.0 1.0 0.02619200488278658 0.0 1:4.0 2:1.3333333333333333 
1.0 1.0 0.0 0.0 0.0 1:0.09523809523809523 2:0.0 
1.0 1.0 0.0 0.0 0.0 1:0.09523809523809523 2:0.0 
1.0 1.0 0.0 0.0 0.0 1:0.09523809523809523 2:0.0 
1.0 1.0 1.0 0.0 0.0 1:1.1111111111111112 2:1.6666666666666667 
1.0 1.0 1.0 0.0 0.0 1:0.7777777777777778 2:0.6666666666666666 
1.0 1.0 0.031098214052133963 0.0 0.0 1:0.4444444444444444 2:0.0 
1.0 1.0 0.0 0.0 0.0 1:0.5555555555555556 2:0.0 
1.0 1.0 0.0 0.0 0.0 1:0.4444444444444444 2:0.3333333333333333 
1.0 1.0 0.0 0.0 0.0 1:0.3333333333333333 2:0.0 
1.0 1.0 1.0 0.0 0.0 1:0.3333333333333333 2:0.3333333333333333 
1.0 1.0 1.0 0.0 0.0 1:0.5555555555555556 2:1.3333333333333333 
1.0 1.0 0.0 0.0 0.0 1:1.0 2:0.0 
1.0 1.0 1.0 0.9863204163817496 0.0 1:0.7777777777777778 2:0.0 
1.0 1.0 0.0424815514943631 0.0 0.0 1:0.4444444444444444 2:0.6666666666666666 
1.0 1.0 0.0 0.0 0.0 1:0.2222222222222222 2:1.0 
1.0 1.0 0.0 0.0 0.0 1:0.3333333333333333 2:0.0 
1.0 1.0 1.0 0.0 0.0 1:0.5555555555555556 2:1.6666666666666667 
1.0 1.0 1.0 0.0 0.0 1:0.4444444444444444 2:0.6666666666666666 
1.0 1.0 1.0 0.0 0.0 1:1.0 2:1.0 
1.0 1.0 1.0 0.0 0.0 1:0.5555555555555556 2:2.3333333333333335 
1.0 1.0 0.0 0.0 0.0 1:0.2222222222222222 2:0.0 
1.0 1.0 0.0 0.0 0.0 1:0.4444444444444444 2:1.0 
1.0 1.0 1.0 0.0 0.0 1:1.1111111111111112 2:1.3333333333333333 
1.0 1.0 1.0 0.0 0.0 1:0.5555555555555556 2:0.4 
1.0 1.0 1.0 0.0 0.0 1:0.6 2:2.5 
1.0 1.0 1.0 0.0 0.0 1:0.47619047619047616 2:0.14285714285714285 
1.0 1.0 0.12934280240556448 0.0 0.0 1:1.2857142857142858 2:3.0 
1.0 1.0 0.0 0.0 0.0 1:0.42857142857142855 2:0.5 
1.0 1.0 0.7158187843910806 0.0 0.0 1:6.0 2:6.0 
1.0 1.0 0.0 0.0 0.0 1:0.5714285714285714 2:1.0 
1.0 1.0 1.0 0.0 0.0 1:0.3 2:0.0 
1.0 1.0 1.0 0.0 0.0 1:0.0 2:0.0 
1.0 1.0 1.0 0.0 0.0 1:0.5 2:0.25 
1.0 1.0 0.0 0.0 0.0 1:0.2 2:1.5 
1.0 1.0 1.0 0.0 0.0 1:0.6666666666666666 2:0.3333333333333333 
1.0 1.0 1.0 0.0 0.0 1:0.0 2:0.0 
1.0 1.0 0.0 0.0 0.0 1:0.0 2:3.0 
1.0 1.0 0.0 0.0 0.0 1:0.0 2:1.0 
1.0 1.0 0.0 0.0 0.0 1:0.0 2:3.0 
1.0 1.0 0.0 0.0 0.0 1:0.0 2:3.0 
1.0 1.0 0.0 0.0 0.0 1:0.0 2:3.0 
1.0 1.0 0.0 0.0 0.0 1:0.0 2:5.0 
1.0 1.0 0.0 0.0 0.0 1:0.0 2:2.0 
1.0 1.0 0.0 0.0 0.0 1:0.0 2:1.0 
1.0 1.0 1.0 0.0 0.0 1:0.0 2:0.0 
1.0 1.0 0.0 0.0 0.0 1:0.0 2:2.0 
1.0 1.0 1.0 0.0 0.0 1:0.0 2:0.0 
1.0 1.0 1.0 0.0 0.0 1:0.0 2:0.0 
1.0 1.0 0.8567308076939801 0.0 0.0 1:0.0 2:5.0 
1.0 1.0 0.0 0.0 0.0 1:0.0 2:4.0 
1.0 1.0 0.0 0.0 0.0 1:0.0 2:2.0 
1.0 1.0 1.0 0.0 0.0 1:0.0 2:0.0 
1.0 1.0 0.0 0.0 0.0 1:0.0 2:6.0 
1.0 1.0 0.2083372547494434 0.0 0.0 1:0.0 2:3.0 
1.0 1.0 1.0 0.0 0.0 1:0.0 2:0.0 
1.0 1.0 1.0 0.0 0.0 1:0.0 2:3.0 
1.0 1.0 0.0 0.0 0.0 1:0.0 2:1.0 
1.0 1.0 0.0 0.0 0.0 1:0.0 2:1.0 
1.0 1.0 0.0 0.0 0.0 1:0.0 2:7.0 
1.0 1.0 0.0 0.0 0.0 1:0.0 2:1.0 
1.0 1.0 0.0 0.0 0.0 1:0.0 2:1.0 
1.0 1.0 0.7138914834601962 0.0 0.0 1:0.0 2:1.0 
1.0 1.0 1.0 0.0 0.0 1:0.0 2:0.0 
1.0 1.0 7.771998035226675E-4 0.0 0.0 1:0.0 2:4.0 
1.0 1.0 1.0 0.0 0.0 1:0.0 2:1.0 
1.0 1.0 1.0 0.0 0.0 1:0.0 2:3.0 
1.0 1.0 0.9439106780819793 0.0 0.0 1:0.0 2:3.0 
1.0 1.0 0.0 0.0 0.0 1:0.0 2:2.0 
1.0 1.0 1.0 0.0 0.0 1:2.0 2:6.0 
1.0 1.0 1.0 0.0 0.0 1:0.2777777777777778 2:0.1111111111111111 
1.0 1.0 0.0 0.0 0.0 1:0.2222222222222222 2:0.0 
1.0 1.0 0.0 0.0 0.0 1:0.1 2:0.5 
1.0 1.0 0.0 0.0 0.0 1:0.35294117647058826 2:0.2222222222222222 
1.0 1.0 1.0 0.0 0.0 1:0.8181818181818182 2:1.0 
1.0 1.0 0.2684407355484536 0.0 0.0 1:0.6363636363636364 2:4.5 
1.0 1.0 1.0 0.0 0.0 1:0.4 2:0.0 
1.0 1.0 0.0 0.0 0.0 1:0.5 2:0.0 
1.0 1.0 0.0 0.0 0.0 1:0.4 2:0.2 
1.0 1.0 1.0 0.0 0.0 1:1.5 2:1.0 
1.0 1.0 1.0 0.0 0.0 1:0.6 2:0.0 
1.0 1.0 1.0 0.0 0.0 1:0.7 2:0.4 
1.0 1.0 0.0 0.0 0.0 1:0.5 2:0.2 
1.0 1.0 1.0 0.0 0.0 1:0.3 2:0.4 
1.0 1.0 0.0 0.0 0.0 1:0.2 2:0.4 
1.0 1.0 0.0 0.0 0.0 1:0.2 2:0.2 
1.0 1.0 0.0 0.0 0.0 1:0.2222222222222222 2:1.5 
1.0 1.0 0.0 0.0 0.0 1:0.2777777777777778 2:0.75 
1.0 1.0 1.0 0.0 0.0 1:0.5 2:0.75 
1.0 1.0 0.0 0.0 0.0 1:0.07142857142857142 2:0.0 
1.0 1.0 1.0 0.0 0.0 1:0.3333333333333333 2:0.16666666666666666 
1.0 1.0 0.0 0.0 0.0 1:0.06666666666666667 2:0.16666666666666666 
1.0 1.0 0.0 0.0 0.0 1:1.125 2:0.16666666666666666 
1.0 1.0 0.0 0.0 0.0 1:0.25 2:0.0 
1.0 1.0 0.0 0.0 0.0 1:0.25 2:0.16666666666666666 
1.0 1.0 0.8443235101419784 0.0 0.0 1:0.625 2:0.08333333333333333 
1.0 1.0 0.0 0.0 0.0 1:0.25 2:0.08333333333333333 
1.0 1.0 1.0 0.0 0.0 1:0.0 2:0.6666666666666666 
1.0 1.0 0.0 0.0 0.0 1:0.125 2:0.16666666666666666 
1.0 1.0 0.0 0.0 0.0 1:0.3076923076923077 2:0.0 
1.0 1.0 0.0 0.0 0.0 1:0.23076923076923078 2:0.2857142857142857 
1.0 1.0 0.0 0.0 0.0 1:0.3076923076923077 2:0.0 
1.0 1.0 0.9372494801826233 0.0 0.0 1:0.23076923076923078 2:0.2857142857142857 
1.0 1.0 1.0 0.0 0.0 1:2.0 2:0.0 
1.0 1.0 0.0 0.0 0.0 1:0.3333333333333333 2:0.0 
1.0 1.0 1.0 0.0053458431585226346 0.0 1:2.5 2:0.0 
1.0 1.0 1.0 0.0 0.0 1:2.5 2:0.75 
0.3734380291171745 1.0 1.0 0.0 0.0 1:4.0 2:2.75 
1.0 1.0 0.0 0.0 0.0 1:0.5 2:0.5 
1.0 1.0 1.0 0.0 0.0 1:1.5 2:0.25 
1.0 1.0 0.0 0.0 0.0 1:1.0 2:0.25 
1.0 1.0 0.0 0.0 0.0 1:0.10714285714285714 2:0.0 
1.0 1.0 0.9599202721266306 0.0 0.0 1:0.2 2:1.0 
1.0 1.0 1.0 0.0 0.0 1:1.7 2:0.6 
1.0 1.0 1.0 0.8539373371530606 0.0 1:2.2 2:1.0 
1.0 1.0 0.0 0.0 0.0 1:0.6 2:0.2 
1.0 1.0 0.0 0.0 0.0 1:0.2 2:0.2 
1.0 1.0 0.0 0.0 0.0 1:1.0 2:0.2 
1.0 1.0 1.0 0.0 0.0 1:2.3 2:1.2 
1.0 1.0 0.0 0.0 0.0 1:0.15384615384615385 2:0.5 
1.0 1.0 1.0 0.0 0.0 1:2.1666666666666665 2:1.0 
1.0 1.0 1.0 0.0 0.0 1:0.5 2:0.14285714285714285 
1.0 1.0 0.0 0.0 0.0 1:0.25 2:0.0 
1.0 1.0 0.0 0.011112379252400297 0.0 1:0.3125 2:0.0 
1.0 1.0 1.0 0.0 0.0 1:0.375 2:0.14285714285714285 
1.0 1.0 0.0 0.0 0.0 1:0.375 2:0.7142857142857143 
1.0 1.0 0.0 0.0 0.0 1:0.25 2:0.2857142857142857 
1.0 1.0 1.0 0.0 0.0 1:0.25 2:0.42857142857142855 
1.0 1.0 0.0 0.0 0.0 1:0.2 2:0.0 
1.0 1.0 1.0 0.0 0.0 1:0.22727272727272727 2:0.125 
0.7873139185205557 1.0 1.0 0.0 0.0 1:3.75 2:2.0 
1.0 1.0 0.20027818080390247 0.0 0.0 1:2.0 2:4.0 
0.08717417881181555 1.0 1.0 0.0 0.0 1:6.0 2:4.0 
1.0 1.0 1.0 0.0 0.0 1:0.2857142857142857 2:0.2 
1.0 1.0 0.0 0.0 0.0 1:0.08 2:0.2222222222222222 
1.0 1.0 0.0 0.0 0.0 1:0.2 2:0.42857142857142855 
1.0 1.0 0.0 0.0 0.0 1:0.2 2:0.0 
1.0 1.0 0.0 0.0 0.0 1:0.05 2:0.14285714285714285 
1.0 1.0 0.0 0.0 0.0 1:0.15 2:0.0 
1.0 1.0 1.0 0.0 0.0 1:0.25 2:0.8571428571428571 
1.0 1.0 0.15648909802322433 0.0 0.0 1:0.35 2:0.5714285714285714 
1.0 1.0 1.0 0.0 0.0 1:0.25 2:0.42857142857142855 
1.0 1.0 0.0 0.0 0.0 1:0.18181818181818182 2:0.16666666666666666 
1.0 1.0 0.0 0.0 0.0 1:0.16666666666666666 2:0.1111111111111111 
1.0 1.0 1.0 0.0 0.0 1:0.6666666666666666 2:0.3333333333333333 
1.0 1.0 0.0 0.0 0.0 1:0.3333333333333333 2:0.0 
1.0 1.0 0.006747944794337273 0.0 0.0 1:1.0 2:0.6666666666666666 
1.0 1.0 1.0 1.0 0.0 1:0.5 2:0.23076923076923078 
0.0 1.0 0.0 0.0 0.0 1:6.25 2:4.5 
1.0 1.0 1.0 0.0 0.0 1:3.0 2:2.0 
1.0 1.0 1.0 0.0 0.0 1:0.5714285714285714 2:0.75 
1.0 1.0 0.0 0.0 0.0 1:0.8571428571428571 2:0.5 
1.0 1.0 1.0 0.0 0.0 1:1.5714285714285714 2:0.75 
1.0 1.0 0.0 0.0 0.0 1:1.1428571428571428 2:1.0 
1.0 1.0 0.0 0.0 0.0 1:0.2857142857142857 2:0.0 
1.0 1.0 0.0 0.0 0.0 1:0.08333333333333333 2:0.0 
1.0 1.0 1.0 0.0 0.0 1:0.8571428571428571 2:0.3333333333333333 
1.0 1.0 1.0 1.0 0.0 1:0.13333333333333333 2:0.0 
1.0 1.0 0.0 0.0 0.0 1:0.125 2:1.0 
1.0 1.0 1.0 0.0 0.0 1:0.375 2:0.5 
1.0 1.0 0.0 0.0 0.0 1:0.5 2:0.0 
1.0 1.0 1.0 0.0 0.0 1:1.25 2:1.25 
1.0 1.0 0.0 0.0 0.0 1:0.2222222222222222 2:0.0 
1.0 1.0 1.0 0.0 0.0 1:0.3333333333333333 2:0.6 
1.0 1.0 0.0 0.0 0.0 1:0.4 2:0.2222222222222222 
1.0 1.0 1.0 0.0 0.0 1:1.6 2:0.5555555555555556 
1.0 1.0 1.0 0.0 0.0 1:1.0 2:1.0 
1.0 1.0 1.0 0.0 0.0 1:1.0 2:1.0 
1.0 1.0 1.0 0.006128959585772733 0.0 1:0.7333333333333333 2:0.8 
1.0 1.0 0.0 0.0 0.0 1:0.4 2:3.0 
1.0 1.0 0.0 0.0 0.0 1:0.2 2:0.0 
1.0 1.0 0.0 0.0 0.0 1:0.4 2:0.5 
1.0 1.0 1.0 0.0 0.0 1:0.0 2:0.0 
1.0 1.0 0.0 0.0 0.0 1:0.13636363636363635 2:0.0 
1.0 1.0 1.0 0.0 0.0 1:1.2727272727272727 2:1.5555555555555556 
1.0 1.0 1.0 0.0 0.0 1:2.0 2:2.6666666666666665 
1.0 1.0 1.0 0.0 0.0 1:1.0909090909090908 2:0.3333333333333333 
1.0 1.0 0.0 0.0 0.0 1:0.2727272727272727 2:0.0 
1.0 1.0 0.0 0.0 0.0 1:0.5 2:0.0 
1.0 1.0 0.0 0.0 0.0 1:0.625 2:0.5 
1.0 1.0 0.0 0.0 0.0 1:1.0 2:0.5 
1.0 1.0 0.0 0.0 0.0 1:0.125 2:1.0 
1.0 1.0 1.0 0.0 0.0 1:1.625 2:1.0 
1.0 1.0 1.0 0.0 0.0 1:9.0 2:0.0 
1.0 1.0 1.0 0.0 0.0 1:1.6666666666666667 2:1.0 
1.0 1.0 1.0 0.0 0.0 1:2.6666666666666665 2:3.0 
1.0 1.0 1.0 0.0 0.0 1:2.6666666666666665 2:0.0 
0.9626337259639067 1.0 0.44900183625388773 0.0 0.0 1:25.0 2:37.0 
1.0 1.0 0.9812532741138592 0.0 0.0 1:6.666666666666667 2:5.0 
1.0 1.0 1.0 0.0 0.0 1:0.6666666666666666 2:2.0 
0.6148094877604824 1.0 1.0 0.0 0.0 1:14.666666666666666 2:0.0 
0.0 1.0 0.0 0.0 0.0 1:12.333333333333334 2:1.0 
1.0 1.0 0.0 0.0 0.0 1:0.2222222222222222 2:0.0 
1.0 1.0 1.0 0.0 0.0 1:0.13333333333333333 2:0.3333333333333333 
1.0 1.0 1.0 0.0 0.0 1:0.6 2:4.666666666666667 
1.0 1.0 0.0 0.0 0.0 1:0.06666666666666667 2:0.3333333333333333 
1.0 1.0 1.0 0.0 0.0 1:0.26666666666666666 2:0.6666666666666666 
1.0 1.0 1.0 0.0 0.0 1:0.26666666666666666 2:0.0 
1.0 1.0 0.0 0.0 0.0 1:0.26666666666666666 2:0.3333333333333333 
1.0 1.0 1.0 0.0 0.0 1:1.0 2:1.0 
1.0 1.0 1.0 0.0 0.0 1:0.5 2:2.0 
1.0 1.0 0.2055032156744726 0.0 0.0 1:0.5 2:3.0 
1.0 1.0 1.0 0.0 0.0 1:2.75 2:1.0 
1.0 1.0 0.30049406101073245 0.0 0.0 1:0.4 2:0.5 
1.0 1.0 0.0 0.0 0.0 1:3.6 2:4.0 
1.0 1.0 1.0 0.0 0.0 1:2.6 2:3.0 
1.0 1.0 0.0 0.0 0.0 1:2.4 2:2.5 
1.0 1.0 1.0 0.0 0.0 1:1.2 2:3.0 
1.0 1.0 0.033544813301657754 0.0 0.0 1:0.5833333333333334 2:0.6666666666666666 
1.0 1.0 0.09201814094976853 0.0 0.0 1:1.0 2:0.0 
1.0 1.0 0.0 0.0 0.0 1:0.3333333333333333 2:0.0 
1.0 1.0 0.0 0.0 0.0 1:0.16666666666666666 2:0.3333333333333333 
1.0 1.0 1.0 0.0 0.0 1:0.3333333333333333 2:0.3333333333333333 
1.0 1.0 0.0 0.0 0.0 1:0.6428571428571429 2:0.21428571428571427 
1.0 1.0 0.0 0.0 0.0 1:0.058823529411764705 2:0.1 
1.0 1.0 0.002723398656049979 0.0 0.0 1:0.05 2:0.5 
1.0 1.0 0.0 0.0 0.0 1:0.3 2:0.25 
1.0 1.0 1.0 0.0 0.0 1:0.55 2:0.75 
1.0 1.0 0.649259304830682 0.0 0.0 1:0.1 2:0.1111111111111111 
1.0 1.0 0.0 0.0 0.0 1:0.15 2:0.1111111111111111 
1.0 1.0 0.0 0.0 0.0 1:0.35 2:0.1111111111111111 
1.0 1.0 0.0 0.0 0.0 1:0.3333333333333333 2:0.0 
1.0 1.0 1.0 0.0 0.0 1:1.3 2:2.0 
1.0 1.0 1.0 0.0 0.0 1:0.4 2:0.3333333333333333 
1.0 1.0 0.0 0.0 0.0 1:0.06666666666666667 2:0.09090909090909091 
1.0 1.0 0.0 0.0 0.0 1:0.3333333333333333 2:0.0 
1.0 1.0 1.0 0.0 0.0 1:0.16666666666666666 2:0.75 
1.0 1.0 0.0 0.0 0.0 1:0.8181818181818182 2:0.25 
1.0 1.0 0.0 0.0 0.0 1:0.2727272727272727 2:0.5 
1.0 1.0 0.0 0.0 0.0 1:2.0 2:1.0 
1.0 1.0 1.0 0.0 0.0 1:5.909090909090909 2:1.5 
1.0 1.0 1.0 0.00535939856129886 0.0 1:2.3333333333333335 2:0.6666666666666666 
1.0 1.0 0.9234935312890499 0.0 0.0 1:0.8333333333333334 2:2.0 
1.0 1.0 1.0 0.0 0.0 1:2.0 2:2.5 
1.0 1.0 1.0 0.0 0.0 1:1.0 2:1.0 
1.0 1.0 1.0 0.0 0.0 1:0.3333333333333333 2:0.0 
1.0 1.0 1.0 0.0 0.0 1:0.8333333333333334 2:0.5 
1.0 1.0 1.0 0.0 0.0 1:1.5833333333333333 2:0.9285714285714286 
1.0 1.0 1.0 0.0 0.0 1:0.07692307692307693 2:0.0 
1.0 1.0 1.0 0.0 0.0 1:0.3333333333333333 2:0.0 
1.0 1.0 1.0 0.0 0.0 1:2.0 2:0.0 
1.0 1.0 0.0 0.0 0.0 1:0.18181818181818182 2:0.0 
1.0 1.0 0.0 0.0 0.0 1:0.2727272727272727 2:0.0 
1.0 1.0 1.0 0.003561848976998838 0.0 1:0.6818181818181818 2:0.75 
1.0 1.0 0.0 0.0 0.0 1:0.2727272727272727 2:0.0 
1.0 1.0 0.0 0.0 0.05601660758916427 1:0.3181818181818182 2:0.0 
1.0 1.0 1.0 0.0 0.0 1:0.5454545454545454 2:0.25 
1.0 1.0 0.9631624933880191 0.0 0.0 1:0.36363636363636365 2:0.125 
1.0 1.0 0.0 0.0 0.0 1:0.09090909090909091 2:0.0 
1.0 1.0 1.0 0.0 0.0 1:0.6818181818181818 2:0.5 
1.0 1.0 0.0 0.0 0.0 1:0.09090909090909091 2:0.25 
1.0 1.0 0.997670704991538 0.0 0.0 1:0.09090909090909091 2:0.0 
1.0 1.0 0.4023512721141406 0.0 0.0 1:0.09090909090909091 2:0.125 
1.0 1.0 0.0 0.0 0.0 1:0.13636363636363635 2:0.125 
1.0 1.0 0.9740003073921193 0.0 0.0 1:0.18181818181818182 2:0.125 
1.0 1.0 1.0 0.0 0.0 1:0.2727272727272727 2:0.25 
1.0 1.0 0.057810728117513706 0.0 0.0 1:0.2727272727272727 2:0.5 
1.0 1.0 1.0 0.0 0.0 1:5.285714285714286 2:2.5 
1.0 1.0 1.0 0.0 0.0 1:1.1428571428571428 2:3.0 
1.0 1.0 1.0 0.0 0.0 1:6.5 2:4.5 
1.0 1.0 1.0 0.0 0.0 1:3.75 2:1.5 
1.0 1.0 0.047524425959563465 0.0 0.0 1:1.25 2:0.0 
1.0 1.0 1.0 0.0 0.0 1:1.25 2:4.5 
1.0 1.0 0.0 0.0 0.0 1:0.5 2:0.0 
1.0 1.0 0.0 0.0 0.0 1:0.25 2:0.0 
1.0 1.0 0.0 0.0 0.0 1:0.25 2:0.0 
1.0 1.0 0.0 0.0 0.0 1:0.125 2:0.5 
1.0 1.0 0.0 0.0 0.0 1:0.3684210526315789 2:0.2222222222222222 
1.0 1.0 0.0 0.0 0.0 1:0.3333333333333333 2:0.2 
1.0 1.0 0.0 0.0 0.0 1:0.0 2:0.2 
1.0 1.0 0.0 0.0 0.0 1:0.6666666666666666 2:0.4 
1.0 1.0 1.0 0.0 0.0 1:1.5 2:1.4 
1.0 1.0 1.0 0.0 0.0 1:0.6666666666666666 2:0.2 
1.0 1.0 1.0 1.0 0.0 1:1.8 2:0.0 
1.0 1.0 0.9774506185308998 0.014025855381406594 0.0 1:0.7142857142857143 2:0.8333333333333334 
1.0 1.0 1.0 0.0 0.0 1:1.5 2:1.25 
1.0 1.0 1.0 0.0 0.0 1:0.375 2:0.5 
1.0 1.0 1.0 0.0 0.0 1:0.375 2:0.25 
1.0 1.0 1.0 0.0 0.0 1:0.05555555555555555 2:0.4 
1.0 1.0 1.0 0.0 0.0 1:0.36 2:0.25 
1.0 1.0 1.0 0.0 0.0 1:0.26666666666666666 2:1.0 
1.0 1.0 0.0 0.0 0.0 1:2.0 2:1.0 
1.0 1.0 0.0 0.0 0.0 1:0.25 2:0.0 
1.0 1.0 0.0 0.0 0.0 1:0.25 2:0.0 
1.0 1.0 0.011112262341982235 0.0 0.0 1:0.36363636363636365 2:0.0 
1.0 1.0 0.0 0.0 0.0 1:0.058823529411764705 2:0.5 
1.0 1.0 0.9630810623210257 0.0 0.0 1:0.11764705882352941 2:0.25 
1.0 1.0 1.0 0.0 0.0 1:1.0 2:0.0 
1.0 1.0 1.0 0.0 0.0 1:1.25 2:0.0 
1.0 1.0 1.0 0.0 0.0 1:1.0 2:0.0 
1.0 1.0 0.0 0.0 0.0 1:3.0 2:0.0 
1.0 1.0 1.0 0.017386348252116914 0.0 1:2.6 2:0.0 
1.0 1.0 1.0 0.0 0.0 1:0.14285714285714285 2:0.42857142857142855 
1.0 1.0 0.0 0.0 0.0 1:0.2727272727272727 2:1.5 
1.0 1.0 1.0 0.0 0.0 1:0.0 2:0.0 
1.0 1.0 1.0 0.0 0.0 1:0.7727272727272727 2:2.5 
1.0 1.0 0.0 0.0 0.0 1:0.46153846153846156 2:0.0 
1.0 1.0 0.0 0.0 0.0 1:0.46153846153846156 2:0.0 
1.0 1.0 0.09332203473210804 0.0024729561285912424 0.0 1:0.46153846153846156 2:0.0 
1.0 1.0 0.0 0.0 0.0 1:0.42857142857142855 2:1.0 
1.0 1.0 1.0 0.0 0.0 1:0.3 2:0.0 
1.0 1.0 0.0 0.0 0.0 1:1.8571428571428572 2:0.8 
1.0 1.0 1.0 0.0 0.0 1:0.3333333333333333 2:0.0 
1.0 1.0 1.0 0.0 0.0 1:0.55 2:0.11764705882352941 
1.0 1.0 1.0 0.0 0.0 1:0.5 2:0.29411764705882354 
1.0 1.0 0.0 0.0 0.0 1:0.85 2:0.23529411764705882 
1.0 1.0 0.0 0.0 0.0 1:0.1 2:0.11764705882352941 
1.0 1.0 0.003479744342789049 0.0 0.0 1:0.8 2:0.47058823529411764 
1.0 1.0 1.0 0.0 0.0 1:0.4 2:0.11764705882352941 
1.0 1.0 1.0 0.0 0.0 1:0.4 2:0.23529411764705882 
1.0 1.0 0.0 0.0 0.0 1:0.55 2:0.0 
1.0 1.0 0.9261434346739746 0.0 0.0 1:0.1 2:0.11764705882352941 
1.0 1.0 1.0 0.0 0.0 1:0.65 2:0.17647058823529413 
1.0 1.0 0.0 0.0 0.0 1:0.5 2:0.11764705882352941 
1.0 1.0 1.0 0.0 0.0 1:0.35 2:0.17647058823529413 
1.0 1.0 1.0 0.0 0.0 1:1.35 2:0.4117647058823529 
1.0 1.0 0.0 0.0 0.0 1:0.1 2:0.0 
1.0 1.0 0.0 0.0 0.0 1:0.1 2:0.17647058823529413 
1.0 1.0 0.0 0.0 0.0 1:0.75 2:0.058823529411764705 
1.0 1.0 0.28300426994838285 0.0 0.0 1:1.8 2:0.6470588235294118 
1.0 1.0 0.0 0.0 0.0 1:0.1 2:0.0 
1.0 1.0 0.0 0.0 0.0 1:0.05 2:0.0 
1.0 1.0 1.0 0.9803483619462596 0.0 1:1.25 2:0.23529411764705882 
1.0 1.0 1.0 0.0 0.0 1:0.55 2:0.11764705882352941 
1.0 1.0 1.0 0.0 0.0 1:0.55 2:0.17647058823529413 
1.0 1.0 1.0 0.0 0.0 1:0.6 2:0.11764705882352941 
1.0 1.0 1.0 0.0 0.0 1:0.65 2:0.29411764705882354 
1.0 1.0 0.0 0.0 0.0 1:0.2 2:0.0 
1.0 1.0 0.0 0.0 0.0 1:0.2 2:0.058823529411764705 
1.0 1.0 1.0 0.0 0.0 1:0.45 2:0.29411764705882354 
1.0 1.0 0.7120231192193296 0.0 0.0 1:0.75 2:0.058823529411764705 
1.0 1.0 1.0 0.0 0.0 1:0.0 2:1.0 
1.0 1.0 1.0 0.0 0.0 1:1.0 2:0.0 
1.0 1.0 0.7441873018875013 0.0 0.0 1:0.08 2:0.16666666666666666 
1.0 1.0 1.0 0.0 0.0 1:0.2413793103448276 2:0.7 
1.0 1.0 1.0 0.0 0.0 1:0.55 2:1.2 
1.0 1.0 0.9505768046473608 0.004244349438147755 0.0 1:0.75 2:0.8 
1.0 1.0 1.0 0.0 0.0 1:0.5 2:1.8 
1.0 1.0 1.0 0.0 0.0 1:0.2 2:0.8 
1.0 1.0 1.0 0.0 0.0 1:0.25 2:0.4 
1.0 1.0 1.0 0.0 0.0 1:0.5 2:2.0 
1.0 1.0 1.0 0.0 0.0 1:0.45 2:0.6 
1.0 1.0 1.0 0.0 0.0 1:0.5833333333333334 2:0.75 
1.0 1.0 0.0 0.0 0.0 1:0.5 2:0.5 
1.0 1.0 0.0 0.0 0.0 1:0.05 2:0.0 
1.0 1.0 0.0 0.0 0.0 1:1.0 2:0.5 
1.0 1.0 1.0 0.0 0.0 1:1.5 2:0.25 
1.0 1.0 1.0 0.0 0.0 1:0.19047619047619047 2:0.5 
1.0 1.0 0.0 0.0 0.0 1:0.16666666666666666 2:0.0 
1.0 1.0 0.0 0.0 0.0 1:0.2727272727272727 2:0.0 
1.0 1.0 1.0 0.0 0.009096103709533003 1:1.2727272727272727 2:0.4444444444444444 
1.0 1.0 1.0 0.0 0.0 1:0.36363636363636365 2:0.4444444444444444 
1.0 1.0 0.9212849538229266 0.0 0.0 1:1.1818181818181819 2:1.0 
1.0 1.0 0.0 0.0 0.0 1:0.18181818181818182 2:0.0 
1.0 1.0 1.0 0.0 0.0 1:0.7272727272727273 2:0.4444444444444444 
1.0 1.0 0.0 0.0 0.0 1:0.07692307692307693 2:1.5 
1.0 1.0 0.0 0.0 0.0 1:0.46153846153846156 2:3.0 
1.0 1.0 0.0 0.0 0.0 1:0.6923076923076923 2:5.0 
1.0 1.0 0.0 0.0 0.0 1:0.9230769230769231 2:4.0 
1.0 1.0 0.9150141376755758 0.0 0.0 1:0.23076923076923078 2:3.5 
1.0 1.0 1.0 0.0 0.0 1:2.076923076923077 2:6.5 
1.0 1.0 0.0 0.0 0.0 1:0.46153846153846156 2:5.5 
1.0 1.0 0.0 0.0 0.0 1:0.15384615384615385 2:1.0 
1.0 1.0 0.0 0.0 0.0 1:0.3076923076923077 2:0.0 
1.0 1.0 0.0 0.0 0.0 1:0.07692307692307693 2:2.5 
1.0 1.0 0.0 0.0 0.0 1:0.15384615384615385 2:1.5 
1.0 1.0 1.0 0.0 0.0 1:0.6153846153846154 2:0.5 
1.0 1.0 0.0 0.0 0.0 1:2.076923076923077 2:4.5 
1.0 1.0 1.0 0.0 0.0 1:1.2307692307692308 2:6.5 
1.0 1.0 0.4864980595532907 0.0 0.0 1:4.3076923076923075 2:23.0 
1.0 1.0 1.0 0.0 0.0 1:0.9230769230769231 2:6.5 
1.0 1.0 0.0 0.0 0.0 1:2.0 2:1.0 
1.0 1.0 1.0 0.0 0.0 1:0.38461538461538464 2:1.0 
1.0 1.0 0.0 0.0 0.0 1:0.23076923076923078 2:2.5 
1.0 1.0 0.0 0.0 0.0 1:0.9230769230769231 2:4.0 
1.0 1.0 0.0 0.0 0.0 1:1.4615384615384615 2:3.0 
1.0 1.0 0.052915925979474254 0.0 0.0 1:0.38461538461538464 2:0.5 
1.0 1.0 1.0 0.0 0.0 1:0.23076923076923078 2:0.0 
1.0 1.0 0.0 0.0 0.0 1:0.6153846153846154 2:1.5 
1.0 1.0 0.0 0.0 0.0 1:0.5384615384615384 2:5.0 
1.0 1.0 1.0 0.0 0.0 1:0.07692307692307693 2:0.0 
1.0 1.0 1.0 0.0 0.0 1:0.7692307692307693 2:1.5 
1.0 1.0 0.0 0.0 0.0 1:0.6153846153846154 2:1.0 
1.0 1.0 0.0 0.0 0.0 1:0.6153846153846154 2:6.5 
1.0 1.0 1.0 0.0 0.0 1:0.38461538461538464 2:1.0 
1.0 1.0 0.825385551327884 0.0 0.0 1:2.0 2:11.0 
1.0 1.0 1.0 0.0 0.0 1:0.23076923076923078 2:0.0 
1.0 1.0 0.0 0.0 0.0 1:0.23076923076923078 2:1.0 
1.0 1.0 1.0 0.0 0.0 1:0.46153846153846156 2:3.5 
1.0 1.0 0.19510603914450475 0.0 0.0 1:0.6153846153846154 2:1.5 
1.0 1.0 0.0 0.0 0.0 1:0.15384615384615385 2:0.5 
1.0 1.0 0.04098034609564532 0.0 0.0 1:0.38461538461538464 2:1.5 
1.0 1.0 1.0 0.0 0.0 1:0.6153846153846154 2:1.0 
1.0 1.0 0.0 0.0 0.0 1:0.23076923076923078 2:3.0 
1.0 1.0 1.0 0.0 0.0 1:1.3076923076923077 2:2.0 
1.0 1.0 0.6111644138537282 0.0 0.0 1:1.4615384615384615 2:3.5 
1.0 1.0 0.0 0.0 0.0 1:0.23076923076923078 2:0.5 
1.0 1.0 0.0 0.0068933176215215655 0.0 1:0.23076923076923078 2:0.5 
1.0 1.0 0.0 0.0 0.0 1:0.23076923076923078 2:2.0 
1.0 1.0 1.0 0.0 0.0 1:1.3846153846153846 2:4.0 
1.0 1.0 0.0 0.0 0.0 1:0.7692307692307693 2:4.5 
1.0 1.0 1.0 0.0 0.0 1:1.0 2:3.0 
1.0 1.0 0.0 0.0 0.0 1:0.5384615384615384 2:2.5 
1.0 1.0 0.0 0.0 0.0 1:1.3076923076923077 2:2.5 
1.0 1.0 0.9226076395256538 0.0 0.0 1:0.3076923076923077 2:1.5 
1.0 1.0 1.0 0.0 0.0 1:0.6923076923076923 2:1.5 
1.0 1.0 1.0 0.0 0.0 1:0.3076923076923077 2:0.0 
1.0 1.0 0.0 0.0 0.0 1:0.15384615384615385 2:2.0 
1.0 1.0 1.0 0.0 0.0 1:0.6153846153846154 2:1.5 
1.0 1.0 1.0 0.0 0.0 1:0.6153846153846154 2:1.5 
1.0 1.0 0.0 0.0 0.0 1:0.3076923076923077 2:2.0 
1.0 1.0 1.0 0.0 0.0 1:0.38461538461538464 2:1.5 
1.0 1.0 1.0 0.0 0.0 1:0.46153846153846156 2:2.0 
1.0 1.0 1.0 0.0 0.0 1:0.46153846153846156 2:1.5 
1.0 1.0 1.0 0.0 0.0 1:0.5384615384615384 2:0.5 
1.0 1.0 0.0 0.0 0.0 1:0.1111111111111111 2:5.0 
1.0 1.0 0.0 0.0 0.0 1:0.1111111111111111 2:2.0 
1.0 1.0 1.0 0.0 0.0 1:2.3846153846153846 2:1.2 
1.0 1.0 0.0 0.0 0.0 1:0.25 2:0.0 
1.0 1.0 1.0 0.0 0.0 1:0.2857142857142857 2:0.5555555555555556 
1.0 1.0 0.0 0.0 0.0 1:0.6666666666666666 2:0.5 
1.0 1.0 1.0 0.0 0.0 1:3.272727272727273 2:2.2857142857142856 
1.0 1.0 1.0 0.0 0.0 1:1.7272727272727273 2:1.1428571428571428 
1.0 1.0 0.0 0.0 0.0 1:0.2727272727272727 2:0.0 
1.0 1.0 0.0 0.0 0.0 1:0.5 2:0.4 
1.0 1.0 1.0 0.0 0.0 1:0.25 2:0.0 
1.0 1.0 1.0 0.0 0.0 1:1.5 2:1.0 
1.0 1.0 0.0 0.0 0.0 1:0.5 2:0.0 
1.0 1.0 0.0 0.0 0.0 1:0.5 2:0.0 
1.0 1.0 1.0 0.0 0.0 1:1.5 2:2.0 
1.0 1.0 1.0 0.0 0.0 1:0.25 2:0.0 
1.0 1.0 1.0 0.0 0.0 1:1.0 2:2.5 
1.0 1.0 1.0 0.0 0.0 1:1.4285714285714286 2:1.0 
1.0 1.0 0.035747990438477664 0.0 0.0 1:0.5 2:0.5 
1.0 1.0 0.0 0.0 0.0 1:0.1 2:0.2 
1.0 1.0 0.0 0.0 0.0 1:0.06666666666666667 2:0.0 
1.0 1.0 0.0 0.0 0.0 1:0.13333333333333333 2:0.4 
1.0 1.0 1.0 0.006581078957296302 0.0 1:0.23333333333333334 2:0.0 
1.0 1.0 1.0 1.0 0.0 1:0.13333333333333333 2:0.0 
1.0 1.0 0.0 0.0 0.0 1:0.1 2:0.2 
1.0 1.0 0.0 0.0 0.0 1:0.1 2:0.0 
1.0 1.0 1.0 0.0 0.0 1:0.3 2:0.2 
1.0 1.0 1.0 0.0 0.0 1:0.13333333333333333 2:0.4 
1.0 1.0 0.9935588122053819 0.0 0.0 1:0.3333333333333333 2:1.8 
1.0 1.0 0.0 0.0 0.0 1:0.13333333333333333 2:0.2 
1.0 1.0 0.0 0.0 0.0 1:1.0 2:0.5 
1.0 1.0 0.0 0.0 0.0 1:0.5 2:0.3333333333333333 
1.0 1.0 0.9573333768705987 0.0 0.0 1:0.8181818181818182 2:0.75 
1.0 1.0 0.0 0.0 0.0 1:0.2 2:0.0 
1.0 1.0 0.0 0.0 0.0 1:0.3125 2:0.2857142857142857 
1.0 1.0 1.0 0.0 0.0 1:0.375 2:0.14285714285714285 
1.0 1.0 0.9400675271951016 0.0 0.0 1:0.1875 2:0.2857142857142857 
1.0 1.0 0.0 0.0 0.0 1:1.0909090909090908 2:1.75 
1.0 1.0 0.0 0.0 0.0 1:1.2727272727272727 2:2.0 
1.0 1.0 1.0 0.0 0.0 1:0.8181818181818182 2:1.0 
1.0 1.0 0.0 0.0 0.0 1:0.2727272727272727 2:0.0 
1.0 1.0 0.0 0.0 0.0 1:1.2727272727272727 2:1.0 
1.0 1.0 1.0 0.0 0.0 1:0.2727272727272727 2:0.0 
1.0 1.0 1.0 0.0 0.0 1:0.2727272727272727 2:0.5 
1.0 1.0 0.0 0.0 0.0 1:1.0909090909090908 2:1.75 
1.0 1.0 1.0 0.0 0.0 1:0.18181818181818182 2:0.75 
1.0 1.0 1.0 0.0 0.0 1:0.18181818181818182 2:0.25 
1.0 1.0 0.0 0.0 0.0 1:0.09090909090909091 2:0.25 
1.0 1.0 0.0 0.0 0.0 1:0.09090909090909091 2:0.25 
1.0 1.0 0.0 0.0 0.0 1:0.14285714285714285 2:0.25 
1.0 1.0 0.0 0.0 0.0 1:1.0 2:0.5 
1.0 1.0 1.0 0.0 0.0 1:0.42857142857142855 2:1.75 
1.0 1.0 1.0 0.0 0.0 1:0.14285714285714285 2:0.25 
1.0 1.0 1.0 0.0 0.0 1:3.3 2:0.4444444444444444 
1.0 1.0 0.0 0.0 0.0 1:0.10526315789473684 2:0.0 
1.0 1.0 0.0 0.0 0.0 1:0.2631578947368421 2:0.14285714285714285 
1.0 1.0 0.0 0.0 0.0 1:0.3684210526315789 2:0.14285714285714285 
1.0 1.0 0.0 0.0 0.0 1:0.043478260869565216 2:0.07142857142857142 
1.0 1.0 0.0 0.0 0.0 1:0.043478260869565216 2:0.07142857142857142 
1.0 1.0 0.0 0.0 0.0 1:0.13333333333333333 2:0.08333333333333333 
1.0 1.0 1.0 0.0 0.0 1:1.0 2:0.6666666666666666 
1.0 1.0 0.0 0.0 0.0 1:0.21428571428571427 2:0.2222222222222222 
1.0 1.0 1.0 0.0 0.0 1:0.8571428571428571 2:0.6666666666666666 
1.0 1.0 1.0 0.0 0.0 1:0.25 2:0.125 
0.9575225630939916 1.0 1.0 0.0 0.0 1:13.5 2:3.0 
1.0 1.0 1.0 0.0 0.0 1:0.0 2:0.0 
1.0 1.0 1.0 0.0 0.0 1:0.36363636363636365 2:1.8 
1.0 1.0 1.0 0.0 0.0 1:0.26666666666666666 2:0.25 
1.0 1.0 1.0 0.0 0.0 1:0.75 2:0.0 
1.0 1.0 1.0 0.0 0.0 1:1.5 2:2.0 
1.0 1.0 0.0 0.0 0.0 1:0.25 2:1.0 
1.0 1.0 1.0 0.0 0.0 1:0.5 2:0.5 
1.0 1.0 0.5418720323031027 0.0 0.0 1:1.75 2:3.5 
1.0 1.0 1.0 0.0 0.0 1:1.4 2:1.6666666666666667 
1.0 1.0 0.960657976881045 0.0 0.0 1:0.375 2:2.0 
1.0 1.0 1.0 0.0 0.0 1:0.5 2:0.2222222222222222 
1.0 1.0 0.0 0.0 0.0 1:0.5 2:0.3333333333333333 
0.0 1.0 0.7159641058628292 0.0 0.0 1:4.125 2:2.6666666666666665 
1.0 1.0 0.18199946789656946 0.0 0.0 1:5.0 2:3.0 
1.0 1.0 1.0 0.0 0.0 1:1.0 2:1.0 
1.0 1.0 1.0 0.0 0.0 1:0.6666666666666666 2:1.3333333333333333 
1.0 1.0 1.0 0.0 0.0 1:0.6666666666666666 2:1.3333333333333333 
1.0 1.0 1.0 0.005546841798344645 0.0 1:0.2727272727272727 2:0.0 
1.0 1.0 1.0 0.0 0.0 1:0.6666666666666666 2:0.0 
1.0 1.0 1.0 0.0 0.030499143737916075 1:1.2222222222222223 2:0.3333333333333333 
1.0 1.0 1.0 0.0 0.0 1:0.4166666666666667 2:0.0 
1.0 1.0 0.0 0.0 0.0 1:0.3333333333333333 2:0.4 
1.0 1.0 0.0 0.0 0.0 1:1.3333333333333333 2:1.0 
1.0 1.0 1.0 0.8832938750567549 0.0 1:2.3333333333333335 2:0.0 
1.0 1.0 0.0 0.0 0.0 1:3.3333333333333335 2:4.0 
1.0 1.0 1.0 0.0 0.0 1:0.125 2:0.6666666666666666 
1.0 1.0 1.0 0.0 0.0 1:1.8 2:10.0 
1.0 1.0 1.0 0.0 0.0 1:5.0 2:5.0 
0.0 1.0 0.0 0.0 0.0 1:1.8 2:12.0 
1.0 1.0 0.0 0.0 0.0 1:1.2 2:1.0 
1.0 1.0 1.0 0.0 0.0 1:0.6 2:2.0 
1.0 1.0 0.0 0.0 0.0 1:1.2 2:11.0 
0.0 1.0 0.814992324120276 0.0 0.0 1:2.4 2:12.0 
0.6112363230220836 1.0 1.0 0.0 0.0 1:3.4 2:11.0 
1.0 1.0 1.0 0.0 0.0 1:1.8 2:2.0 
1.0 1.0 0.0 0.0 0.0 1:1.8 2:3.0 
1.0 1.0 1.0 0.0 0.0 1:0.4 2:0.0 
1.0 1.0 1.0 0.0 0.0 1:1.4 2:2.0 
0.0 1.0 0.0 0.0 0.0 1:2.2 2:12.0 
1.0 1.0 0.0 0.0 0.0 1:2.4 2:2.0 
1.0 1.0 0.0 0.0 0.0 1:0.4117647058823529 2:0.14285714285714285 
1.0 1.0 1.0 0.0 0.0 1:0.23529411764705882 2:0.14285714285714285 
1.0 1.0 1.0 0.0 0.0 1:1.5294117647058822 2:0.7142857142857143 
1.0 1.0 0.0 0.0 0.0 1:0.6666666666666666 2:0.5 
1.0 1.0 0.9901243569664955 0.0 0.0 1:1.0 2:1.5 
1.0 1.0 0.0 0.0 0.0 1:0.4444444444444444 2:1.0 
1.0 1.0 1.0 0.0 0.0 1:1.2222222222222223 2:0.5 
1.0 1.0 1.0 0.0 0.0 1:0.4444444444444444 2:0.5 
1.0 1.0 1.0 0.0 0.0 1:0.8888888888888888 2:0.5 
1.0 1.0 1.0 0.0 0.0 1:0.3333333333333333 2:0.5 
1.0 1.0 1.0 0.0 0.0 1:0.5555555555555556 2:0.5 
1.0 1.0 0.0 0.0 0.0 1:0.5 2:0.3333333333333333 
1.0 1.0 0.0 0.0 0.0 1:0.07142857142857142 2:0.08333333333333333 
1.0 1.0 1.0 0.0 0.0 1:0.0 2:0.0 
1.0 1.0 1.0 0.0 0.0 1:0.2857142857142857 2:0.08333333333333333 
1.0 1.0 1.0 0.0 0.0 1:0.8333333333333334 2:0.5 
1.0 1.0 0.0 0.0 0.0 1:1.3333333333333333 2:1.0 
1.0 1.0 0.15152574421836484 0.0 0.0 1:1.0 2:2.5 
1.0 1.0 1.0 0.0 0.0 1:0.4 2:0.0 
1.0 1.0 1.0 0.0 0.0 1:1.2 2:0.0 
1.0 1.0 1.0 0.0 0.0 1:0.2222222222222222 2:0.2 
1.0 1.0 1.0 0.0 0.0 1:0.3333333333333333 2:0.0 
1.0 1.0 1.0 0.0 0.0 1:0.4444444444444444 2:0.8 
1.0 1.0 0.0 0.0 0.0 1:0.3333333333333333 2:0.2 
1.0 1.0 0.0 0.0 0.0 1:0.16666666666666666 2:0.0 
1.0 1.0 0.0 0.0 0.0 1:0.2727272727272727 2:0.125 
1.0 1.0 1.0 0.0 0.0 1:1.5 2:0.2 
1.0 1.0 1.0 0.0 0.004913392363753527 1:1.5 2:0.2 
1.0 1.0 1.0 0.0 0.0 1:0.6666666666666666 2:2.3333333333333335 
1.0 1.0 0.0 0.0 0.0 1:0.2857142857142857 2:0.14285714285714285 
1.0 1.0 0.0 0.0 0.0 1:0.35714285714285715 2:0.14285714285714285 
1.0 1.0 0.9567870575480806 0.0 0.0 1:0.8571428571428571 2:0.14285714285714285 
1.0 1.0 1.0 0.0 0.0 1:0.7142857142857143 2:0.14285714285714285 
1.0 1.0 1.0 0.0 0.0 1:1.5 2:0.25 
1.0 1.0 1.0 0.0 0.0 1:0.3333333333333333 2:0.0 
1.0 1.0 1.0 0.0 0.0 1:0.25 2:0.0 
1.0 1.0 1.0 0.0 0.0 1:0.25 2:0.0 
1.0 1.0 1.0 0.0 0.0 1:0.25 2:0.0 
1.0 1.0 1.0 0.0 0.0 1:0.6363636363636364 2:3.0 
1.0 1.0 0.0 0.0 0.0 1:0.5454545454545454 2:4.0 
1.0 1.0 1.0 0.0 0.0 1:0.2727272727272727 2:1.0 
1.0 1.0 0.0 0.0 0.0 1:0.25 2:0.5 
1.0 1.0 1.0 0.0 0.0 1:1.25 2:0.5 
1.0 1.0 1.0 0.0 0.0 1:4.5 2:0.75 
1.0 1.0 1.0 0.0 0.0 1:0.13636363636363635 2:0.4166666666666667 
1.0 1.0 1.0 0.0 0.0 1:1.0 2:0.3333333333333333 
1.0 1.0 0.0 0.0 0.0 1:0.1111111111111111 2:0.16666666666666666 
1.0 1.0 0.4602905627001275 0.0 0.0 1:0.375 2:3.6666666666666665 
1.0 1.0 0.0 0.0 0.0 1:1.125 2:4.333333333333333 
1.0 1.0 0.0 0.0 0.0 1:0.625 2:1.0 
1.0 1.0 1.0 0.0 0.0 1:1.0 2:1.0 
1.0 1.0 1.0 0.0 0.0 1:0.25 2:0.0 
1.0 1.0 1.0 0.0 0.0 1:1.875 2:2.0 
1.0 1.0 0.0 0.0 0.0 1:0.5 2:0.4 
1.0 1.0 1.0 1.0 0.0 1:1.8 2:0.0 
1.0 1.0 0.0 0.0 0.0 1:0.125 2:0.0 
1.0 1.0 1.0 0.0 0.0 1:1.4615384615384615 2:0.75 
1.0 1.0 1.0 0.0 0.0 1:1.4 2:1.3333333333333333 
1.0 1.0 0.0 0.0 0.0 1:0.7 2:1.0 
1.0 1.0 0.0 0.0 0.0 1:1.2 2:0.6666666666666666 
1.0 1.0 0.9983812086522739 0.0 0.0 1:1.4 2:0.0 
1.0 1.0 0.0 0.0 0.0 1:1.3 2:1.0 
1.0 1.0 1.0 0.0 0.0 1:1.4 2:0.6666666666666666 
1.0 1.0 0.0 0.0 0.0 1:0.125 2:0.2222222222222222 
1.0 1.0 0.0 0.0 0.0 1:0.6 2:4.0 
1.0 1.0 0.0 0.0 0.0 1:0.2 2:0.0 
1.0 1.0 0.0 0.0 0.0 1:0.2 2:0.2 
1.0 1.0 0.9800032967045778 0.0 0.0 1:0.14285714285714285 2:0.16666666666666666 
1.0 1.0 0.0 0.0 0.0 1:0.42857142857142855 2:0.16666666666666666 
1.0 1.0 1.0 0.0 0.0 1:0.0 2:0.0 
1.0 1.0 1.0 0.0 0.0 1:0.7142857142857143 2:0.5 
1.0 1.0 0.0 0.0 0.0 1:0.5 2:0.0 
1.0 1.0 1.0 0.0 0.0 1:0.5 2:3.0 
1.0 1.0 0.0 0.0 0.0 1:0.3333333333333333 2:2.0 
1.0 1.0 1.0 0.0 0.0 1:1.8333333333333333 2:4.0 
1.0 1.0 1.0 0.0 0.0 1:0.8571428571428571 2:0.0 
1.0 1.0 0.0 0.0 0.0 1:0.2727272727272727 2:0.16666666666666666 
1.0 1.0 0.0 0.0 0.0 1:0.09090909090909091 2:0.16666666666666666 
1.0 1.0 1.0 0.002644653997529875 0.0 1:2.0 2:0.8333333333333334 
1.0 1.0 0.8774635793995662 0.0 0.0 1:1.5 2:0.14285714285714285 
1.0 1.0 0.0 0.0 0.0 1:2.0 2:1.4285714285714286 
1.0 1.0 1.0 0.0021667220977135203 0.0 1:1.375 2:0.8571428571428571 
1.0 1.0 1.0 0.0 0.0 1:0.75 2:0.0 
1.0 1.0 0.0 0.0 0.0 1:0.125 2:0.2857142857142857 
1.0 1.0 0.9273006031363237 0.0 0.0 1:0.125 2:0.14285714285714285 
1.0 1.0 0.0 0.0 0.0 1:0.125 2:0.0 
1.0 1.0 0.0 0.0 0.0 1:0.09090909090909091 2:2.0 
1.0 1.0 1.0 0.0 0.0 1:0.45454545454545453 2:0.0 
1.0 1.0 0.7127690284263546 0.0 0.0 1:0.0 2:2.0 
1.0 1.0 0.0 0.0 0.0 1:0.1875 2:0.0 
1.0 1.0 0.0 0.0 0.0 1:0.0625 2:0.0 
1.0 1.0 1.0 0.0 0.0 1:0.47058823529411764 2:0.3 
1.0 1.0 0.09120169228988566 0.0 0.0 1:0.4117647058823529 2:0.4 
1.0 1.0 0.9830825957693672 0.0 0.0 1:0.17647058823529413 2:0.1 
1.0 1.0 1.0 0.0 0.0 1:0.35294117647058826 2:0.2 
1.0 1.0 0.0 0.0 0.0 1:0.17647058823529413 2:0.0 
1.0 1.0 0.0 0.0 0.0 1:0.058823529411764705 2:0.2 
1.0 1.0 0.0 0.0 0.0 1:1.0 2:0.4 
1.0 1.0 0.0 0.0 0.0 1:0.058823529411764705 2:0.3 
1.0 1.0 0.0 0.0 0.0 1:0.2857142857142857 2:0.25 
1.0 1.0 0.0 0.0 0.0 1:0.8571428571428571 2:0.25 
1.0 1.0 1.0 0.0 0.0 1:0.5714285714285714 2:0.75 
1.0 1.0 0.0 0.0 0.0 1:0.42857142857142855 2:0.5 
1.0 1.0 0.0 0.0 0.0 1:0.14285714285714285 2:0.0 
1.0 1.0 0.0 0.0 0.0 1:0.8571428571428571 2:0.6 
1.0 1.0 1.0 0.0 0.0 1:2.5714285714285716 2:1.4 
1.0 1.0 1.0 0.0 0.0 1:1.0 2:1.2 
1.0 1.0 0.0 0.0 0.0 1:1.0 2:0.4 
1.0 1.0 0.0 0.0 0.0 1:0.5714285714285714 2:0.4 
1.0 1.0 1.0 0.0 0.0 1:0.8571428571428571 2:1.0 
1.0 1.0 1.0 0.0 0.0 1:1.0 2:0.0 
1.0 1.0 1.0 0.0 0.0 1:1.7142857142857142 2:2.2 
1.0 1.0 1.0 0.0 0.0 1:0.7142857142857143 2:0.8 
1.0 1.0 0.0 0.0 0.0 1:0.42857142857142855 2:0.4 
1.0 1.0 1.0 0.0 0.0 1:1.8571428571428572 2:1.6 
0.0 1.0 1.0 0.0 0.0 1:4.428571428571429 2:2.2 
1.0 1.0 1.0 0.0 0.0 1:0.42857142857142855 2:0.6 
1.0 1.0 1.0 0.0 0.0 1:2.7142857142857144 2:2.8 
1.0 1.0 0.7597783845364117 0.0 0.0 1:0.8571428571428571 2:0.8 
1.0 1.0 1.0 0.0 0.0 1:0.5714285714285714 2:0.6 
1.0 1.0 1.0 0.0 0.0 1:0.0 2:0.4 
1.0 1.0 0.0 0.0 0.0 1:0.14285714285714285 2:0.2 
1.0 1.0 0.0 0.0 0.0 1:0.7142857142857143 2:0.2 
1.0 1.0 1.0 0.0 0.0 1:1.2857142857142858 2:0.6 
1.0 1.0 1.0 0.0 0.0 1:0.7142857142857143 2:0.4 
1.0 1.0 1.0 0.0 0.0 1:0.7142857142857143 2:1.8 
1.0 1.0 0.0 0.0 0.0 1:0.5714285714285714 2:0.4 
1.0 1.0 1.0 1.0 0.0 1:0.42857142857142855 2:0.6 
1.0 1.0 0.0 0.0 0.0 1:0.14285714285714285 2:0.0 
1.0 1.0 0.0 0.0 0.0 1:3.0 2:4.2 
1.0 1.0 0.0 0.0 0.0 1:0.5714285714285714 2:0.2 
1.0 1.0 1.0 0.0 0.17446318404556543 1:0.7142857142857143 2:0.0 
1.0 1.0 1.0 0.0 0.0 1:0.5714285714285714 2:0.6 
1.0 1.0 0.0 0.0 0.0 1:0.7142857142857143 2:0.2 
1.0 1.0 0.0 0.0 0.0 1:1.0 2:0.4 
1.0 1.0 0.0 0.0 0.0 1:0.2857142857142857 2:0.0 
1.0 1.0 1.0 0.0 0.0 1:0.7142857142857143 2:0.4 
1.0 1.0 1.0 0.0 0.0 1:1.8571428571428572 2:1.6 
1.0 1.0 0.0 0.0 0.0 1:0.14285714285714285 2:0.0 
1.0 1.0 0.0 0.0 0.0 1:0.14285714285714285 2:0.0 
1.0 1.0 1.0 0.0 0.0 1:0.5714285714285714 2:0.8 
1.0 1.0 1.0 0.0 0.0 1:1.8571428571428572 2:2.2 
1.0 1.0 1.0 0.0 0.0 1:1.4285714285714286 2:1.0 
1.0 1.0 1.0 0.0 0.0 1:1.7142857142857142 2:1.8 
1.0 1.0 1.0 0.0 0.0 1:1.5714285714285714 2:1.4 
1.0 1.0 1.0 0.0 0.0 1:0.42857142857142855 2:0.8 
1.0 1.0 0.0 0.0 0.0 1:1.8571428571428572 2:1.0 
1.0 1.0 0.0 0.0 0.0 1:2.0 2:1.2 
1.0 1.0 1.0 0.0 0.0 1:3.0 2:1.0 
1.0 1.0 0.0 0.0 0.0 1:0.14285714285714285 2:0.4 
1.0 1.0 0.1338955342356967 0.0 0.0 1:0.42857142857142855 2:0.4 
1.0 1.0 0.0 0.0 0.0 1:0.42857142857142855 2:0.2 
1.0 1.0 0.0 0.0 0.0 1:0.7142857142857143 2:0.2 
1.0 1.0 1.0 0.0 0.0 1:5.571428571428571 2:3.8 
1.0 1.0 0.0 0.0 0.0 1:0.0 2:0.2 
1.0 1.0 1.0 0.42091287356795765 0.0 1:3.142857142857143 2:3.2 
1.0 1.0 1.0 0.0 0.0 1:0.0 2:0.0 
1.0 1.0 0.0 0.0 0.0 1:0.14285714285714285 2:0.2 
1.0 1.0 0.43363746527293306 0.0 0.0 1:2.0 2:3.6 
1.0 1.0 1.0 0.0 0.0 1:1.7142857142857142 2:0.8 
1.0 1.0 0.0 0.0 0.0 1:0.5714285714285714 2:0.4 
1.0 1.0 0.0 0.0 0.0 1:0.5714285714285714 2:0.4 
1.0 1.0 0.0 0.0 0.0 1:0.14285714285714285 2:0.2 
1.0 1.0 1.0 0.0 0.0 1:0.42857142857142855 2:0.4 
1.0 1.0 0.952925856626422 0.0 0.0 1:1.0 2:1.2 
1.0 1.0 1.0 0.0 0.0 1:0.8571428571428571 2:0.0 
1.0 1.0 1.0 0.0 0.0 1:1.2857142857142858 2:1.8 
1.0 1.0 1.0 0.0 0.0 1:2.4285714285714284 2:3.2 
1.0 1.0 0.0 0.0 0.0 1:1.8571428571428572 2:0.2 
1.0 1.0 1.0 0.0 0.0 1:0.42857142857142855 2:1.2 
1.0 1.0 1.0 0.0 0.0 1:0.5714285714285714 2:0.4 
1.0 1.0 1.0 0.0021769124478069456 0.0 1:1.4285714285714286 2:0.8 
1.0 1.0 1.0 0.0 0.0 1:0.5714285714285714 2:0.4 
1.0 1.0 1.0 0.0 0.0 1:0.7142857142857143 2:0.8 
1.0 1.0 0.0 0.0 0.0 1:2.2857142857142856 2:1.6 
1.0 1.0 0.0 0.0 0.0 1:0.5714285714285714 2:1.0 
1.0 1.0 1.0 0.0 0.0 1:0.0 2:0.0 
1.0 1.0 1.0 0.0 0.0 1:1.8571428571428572 2:2.4 
1.0 1.0 1.0 0.0019405270527209895 0.0 1:1.2857142857142858 2:0.8 
1.0 1.0 0.0 0.0 0.0 1:0.8571428571428571 2:0.4 
1.0 1.0 1.0 0.0 0.0 1:0.8571428571428571 2:0.6 
1.0 1.0 1.0 0.0 0.0 1:0.5714285714285714 2:0.0 
1.0 1.0 1.0 0.0 0.0 1:0.7142857142857143 2:0.4 
1.0 1.0 0.14720581209195305 0.0 0.0 1:0.42857142857142855 2:0.0 
1.0 1.0 1.0 0.0 0.0 1:1.2857142857142858 2:1.4 
1.0 1.0 0.0 0.0 0.0 1:0.2857142857142857 2:0.0 
1.0 1.0 1.0 0.0 0.0 1:0.8571428571428571 2:0.0 
1.0 1.0 0.0 0.0 0.0 1:4.428571428571429 2:2.8 
1.0 1.0 0.0 0.0 0.0 1:1.0 2:0.6 
1.0 1.0 1.0 0.0 0.0 1:0.5714285714285714 2:0.2 
1.0 1.0 1.0 0.0 0.0 1:1.0 2:1.0 
1.0 1.0 0.0 0.0 0.0 1:2.142857142857143 2:3.8 
1.0 1.0 1.0 0.0 0.0 1:1.5714285714285714 2:0.4 
1.0 1.0 0.840597740497629 0.0 0.0 1:0.14285714285714285 2:0.6 
1.0 1.0 1.0 0.0 0.0 1:0.8571428571428571 2:0.4 
1.0 1.0 1.0 0.0 0.0 1:3.0 2:1.8 
1.0 1.0 0.0 0.0 0.0 1:0.7142857142857143 2:0.2 
1.0 1.0 0.9952630922570016 0.0 0.0 1:1.1428571428571428 2:1.4 
1.0 1.0 0.0 0.0 0.0 1:0.14285714285714285 2:0.2 
1.0 1.0 0.0 0.0 0.0 1:1.1428571428571428 2:0.8 
1.0 1.0 0.1164173282447595 0.0 0.0 1:1.5714285714285714 2:2.8 
1.0 1.0 1.0 0.0 0.0 1:0.8571428571428571 2:0.6 
1.0 1.0 1.0 0.0 0.0 1:0.5714285714285714 2:0.6 
1.0 1.0 1.0 0.0 0.0 1:0.5714285714285714 2:0.4 
1.0 1.0 0.0 0.0 0.0 1:0.0 2:0.2 
1.0 1.0 0.33866243978578847 0.0 0.0 1:1.1428571428571428 2:1.8 
1.0 1.0 0.0 0.0 0.0 1:0.14285714285714285 2:0.2 
1.0 1.0 0.004479843339328177 0.0 0.0 1:0.2631578947368421 2:0.3333333333333333 
1.0 1.0 0.0 0.0 0.0 1:0.14285714285714285 2:0.4 
1.0 1.0 0.0 0.0 0.0 1:0.7142857142857143 2:0.2 
1.0 1.0 0.0 0.0 0.0 1:0.14285714285714285 2:0.0 
1.0 1.0 1.0 0.0 0.0 1:0.7333333333333333 2:1.0 
1.0 1.0 0.0 0.0 0.0 1:0.15384615384615385 2:0.0 
1.0 1.0 0.9878161841720967 0.0 0.0 1:0.8571428571428571 2:0.75 
1.0 1.0 0.9010810377777405 0.0 0.0 1:0.1111111111111111 2:0.1111111111111111 
1.0 1.0 1.0 0.0 0.0 1:1.3888888888888888 2:1.0 
1.0 1.0 0.8282295772898194 0.0 0.0 1:0.09090909090909091 2:0.1111111111111111 
1.0 1.0 1.0 0.0 0.0 1:0.7222222222222222 2:1.4285714285714286 
1.0 1.0 0.9892136768794955 0.0 0.0 1:1.1111111111111112 2:1.4285714285714286 
1.0 1.0 1.0 0.0 0.0 1:4.555555555555555 2:6.857142857142857 
1.0 1.0 0.10386431404946753 0.0 0.0 1:1.8888888888888888 2:1.1428571428571428 
1.0 1.0 0.0 0.0 0.0 1:2.9444444444444446 2:4.0 
1.0 1.0 1.0 0.0 0.0 1:1.7777777777777777 2:1.2857142857142858 
1.0 1.0 0.028074748593843128 0.0 0.0 1:0.5555555555555556 2:0.0 
1.0 1.0 0.17442191804031298 0.0 0.0 1:2.0 2:5.0 
1.0 1.0 1.0 0.0 0.0 1:0.0 2:2.0 
1.0 1.0 1.0 0.0 0.0 1:0.75 2:1.0 
1.0 1.0 1.0 0.0 0.0 1:0.25 2:1.0 
1.0 1.0 1.0 0.0 0.0 1:0.5714285714285714 2:0.16666666666666666 
1.0 1.0 1.0 0.0 0.0 1:3.125 2:2.0 
1.0 1.0 0.0 0.0 0.0 1:0.06666666666666667 2:0.0 
1.0 1.0 1.0 0.0 0.0 1:0.625 2:0.0 
1.0 1.0 0.0 0.0 0.0 1:0.5 2:0.16666666666666666 
1.0 1.0 1.0 0.0 0.0 1:0.5 2:0.16666666666666666 
1.0 1.0 1.0 0.0 0.0 1:0.5 2:0.16666666666666666 
1.0 1.0 1.0 0.0 0.0 1:0.5 2:0.16666666666666666 
1.0 1.0 0.0 0.0 0.0 1:0.7 2:0.2 
0.9626927068322051 1.0 0.5538099013101492 0.0 0.0 1:13.4 2:9.6 
1.0 1.0 1.0 0.0 0.0 1:0.3333333333333333 2:0.5 
1.0 1.0 1.0 0.0 0.0 1:0.26666666666666666 2:0.75 
1.0 1.0 0.0 0.0 0.0 1:0.2 2:0.0 
1.0 1.0 0.9874161409911761 0.0 0.0 1:0.8 2:0.75 
1.0 1.0 0.9942837561519515 0.0 0.0 1:0.26666666666666666 2:1.0 
1.0 1.0 1.0 0.0 0.0 1:0.26666666666666666 2:0.0 
1.0 1.0 1.0 0.0 0.0 1:0.6666666666666666 2:1.75 
1.0 1.0 0.0 0.0 0.0 1:1.1428571428571428 2:0.0 
1.0 1.0 0.0 0.0 0.0 1:0.2222222222222222 2:0.0 
1.0 1.0 0.0 0.0 0.0 1:0.2222222222222222 2:0.0 
1.0 1.0 1.0 1.0 0.0 1:3.75 2:0.0 
1.0 1.0 0.0 0.0 0.0 1:0.25 2:0.5 
1.0 1.0 0.00115324167729879 0.0 0.0 1:3.0 2:0.0 
1.0 1.0 1.0 0.0 0.0 1:1.25 2:0.5 
1.0 1.0 1.0 0.0 0.0 1:0.4444444444444444 2:0.0 
1.0 1.0 1.0 0.0 0.0 1:0.3 2:0.0 
1.0 1.0 1.0 0.0 0.0 1:2.0 2:1.0 
1.0 1.0 0.9928329365148809 0.0 0.0 1:0.7272727272727273 2:1.0 
1.0 1.0 1.0 0.0 0.0 1:0.0 2:0.0 
1.0 1.0 0.0 0.002791404966049849 0.0 1:1.1176470588235294 2:0.75 
1.0 1.0 0.0 0.0 0.0 1:0.17647058823529413 2:0.4 
1.0 1.0 0.0 0.0 0.0 1:0.3684210526315789 2:0.14285714285714285 
1.0 1.0 0.0 0.0 0.0 1:0.05263157894736842 2:0.0 
1.0 1.0 0.11437937041513242 0.0 0.0 1:0.3157894736842105 2:0.5714285714285714 
1.0 1.0 0.10179220061073327 0.0 0.0 1:0.47368421052631576 2:0.7142857142857143 
1.0 1.0 0.0 0.0 0.0 1:0.05263157894736842 2:0.0 
1.0 1.0 0.0 0.0 0.0 1:0.15789473684210525 2:0.2857142857142857 
1.0 1.0 1.0 0.0 0.0 1:1.0 2:2.7142857142857144 
1.0 1.0 0.0 0.0 0.0 1:0.0 2:0.14285714285714285 
1.0 1.0 0.0 0.0 0.0 1:0.15789473684210525 2:0.2857142857142857 
1.0 1.0 0.0 0.0 0.0 1:0.05263157894736842 2:0.0 
1.0 1.0 0.0 0.0 0.0 1:0.23076923076923078 2:0.25 
1.0 1.0 1.0 0.0 0.0 1:0.1111111111111111 2:0.5 
1.0 1.0 1.0 0.0 0.0 1:0.4444444444444444 2:0.5 
1.0 1.0 0.0 0.0 0.0 1:0.2 2:0.0 
1.0 1.0 0.9941543327314536 0.0 0.0 1:1.2 2:0.0 
1.0 1.0 0.0 0.0 0.0 1:0.15384615384615385 2:0.0 
1.0 1.0 1.0 0.0 0.0 1:0.7142857142857143 2:0.6 
1.0 1.0 0.0 0.0 0.0 1:0.0625 2:0.2 
1.0 1.0 0.0 0.0 0.0 1:0.0625 2:0.2 
1.0 1.0 1.0 0.0 0.0 1:0.5 2:0.8 
1.0 1.0 0.0 0.0 0.0 1:0.1875 2:0.2 
1.0 1.0 0.0 0.0 0.0 1:0.5 2:0.0 
1.0 1.0 1.0 0.0 0.0 1:0.0625 2:0.4 
1.0 1.0 0.0 0.0 0.0 1:0.1875 2:0.0 
1.0 1.0 1.0 0.0 0.0 1:0.0 2:0.6 
1.0 1.0 1.0 0.0 0.0 1:0.4375 2:0.2 
1.0 1.0 0.0 0.0 0.0 1:0.0625 2:0.2 
1.0 1.0 0.0 1.0 0.006272965506019441 1:0.0625 2:0.0 
1.0 1.0 1.0 0.0 0.0 1:0.25 2:0.0 
1.0 1.0 0.0 0.0 0.0 1:0.125 2:0.0 
1.0 1.0 0.986991592235229 0.0 0.0 1:0.0625 2:0.8 
1.0 1.0 0.0 0.0 0.0 1:0.0625 2:0.6 
1.0 1.0 0.5419515553106361 0.0 0.0 1:0.0625 2:0.6 
1.0 1.0 1.0 0.0 0.0 1:0.25 2:0.0 
1.0 1.0 1.0 0.010181446896667045 0.0 1:2.25 2:0.75 
1.0 1.0 1.0 0.0 0.0 1:0.5714285714285714 2:0.0 
1.0 1.0 0.0 0.0 0.0 1:0.2857142857142857 2:0.3333333333333333 
1.0 1.0 0.9258957404053614 0.0 0.0 1:0.8571428571428571 2:2.3333333333333335 
1.0 1.0 0.0 0.0 0.0 1:0.42857142857142855 2:0.6666666666666666 
1.0 1.0 1.0 0.0 0.0 1:1.7142857142857142 2:2.3333333333333335 
1.0 1.0 0.0 0.0 0.0 1:0.8 2:0.4444444444444444 
1.0 1.0 1.0 0.0 0.0 1:2.0 2:0.6666666666666666 
1.0 1.0 1.0 0.0 0.0 1:0.0 2:0.0 
1.0 1.0 1.0 0.0 0.0 1:0.4166666666666667 2:0.08333333333333333 
1.0 1.0 0.0 0.0 0.0 1:0.058823529411764705 2:0.1111111111111111 
1.0 1.0 1.0 0.0 0.0 1:0.23076923076923078 2:0.9090909090909091 
1.0 1.0 0.0 0.0 0.0 1:0.5 2:0.2 
1.0 1.0 1.0 0.0 0.0 1:0.3333333333333333 2:0.0 
1.0 1.0 1.0 0.0 0.0 1:0.4166666666666667 2:0.2 
1.0 1.0 0.0 0.0 0.0 1:0.16666666666666666 2:0.0 
1.0 1.0 1.0 0.0 0.0 1:0.25 2:0.6 
1.0 1.0 1.0 0.0 0.0 1:0.25 2:0.0 
1.0 1.0 0.0 0.7881167576939974 0.0 1:0.5833333333333334 2:1.0 
1.0 1.0 1.0 0.0 0.0 1:0.5 2:0.8 
1.0 1.0 0.0 0.0 0.0 1:0.6666666666666666 2:0.5 
1.0 1.0 0.0 0.0 0.0 1:0.5 2:0.07142857142857142 
0.5530673740896219 1.0 0.1397880081986977 0.0 0.0 1:10.416666666666666 2:0.5714285714285714 
1.0 1.0 0.0 0.0 0.0 1:0.16666666666666666 2:0.0 
1.0 1.0 0.0 0.0 0.0 1:0.2 2:0.0 
1.0 1.0 0.0 0.0 0.0 1:0.2 2:0.0 
1.0 1.0 0.0 0.0 0.0 1:0.2 2:0.0 
1.0 1.0 1.0 0.0 0.0 1:0.4 2:0.0 
1.0 1.0 1.0 0.0 0.0 1:0.4 2:0.0 
1.0 1.0 1.0 0.0 0.0 1:0.8 2:0.3333333333333333 
1.0 1.0 1.0 0.0 0.0 1:0.4 2:1.0 
1.0 1.0 1.0 0.0 0.0 1:0.4 2:0.3333333333333333 
1.0 1.0 1.0 0.0 0.0 1:0.6 2:0.0 
1.0 1.0 0.9965312345696852 0.0 0.0 1:0.8 2:0.6666666666666666 
1.0 1.0 1.0 0.0 0.0 1:0.0 2:0.3333333333333333 
1.0 1.0 1.0 0.0 0.0 1:0.4 2:0.0 
1.0 1.0 1.0 0.0 0.0 1:0.2 2:0.3333333333333333 
1.0 1.0 1.0 0.0 0.0 1:1.0 2:0.0 
1.0 1.0 1.0 0.0 0.0 1:0.2 2:0.0 
1.0 1.0 1.0 0.0 0.0 1:1.0 2:0.6666666666666666 
1.0 1.0 1.0 0.0 0.0 1:0.4 2:0.0 
1.0 1.0 1.0 0.0 0.0 1:1.0 2:0.3333333333333333 
1.0 1.0 1.0 0.0 0.0 1:0.4 2:0.3333333333333333 
1.0 1.0 1.0 0.0 0.0 1:0.0 2:0.3333333333333333 
1.0 1.0 0.0 0.0 0.0 1:0.4 2:0.6666666666666666 
1.0 1.0 1.0 0.0 0.0 1:0.6 2:0.3333333333333333 
1.0 1.0 1.0 0.0 0.0 1:0.25 2:0.2 
1.0 1.0 0.0 0.0 0.0 1:0.0625 2:0.1 
1.0 1.0 0.9701834091288088 1.0 0.0 1:0.125 2:0.2 
1.0 1.0 0.0 0.0 0.0 1:0.5 2:0.1 
1.0 1.0 1.0 0.0 0.0 1:0.9375 2:0.5 
1.0 1.0 1.0 0.0 0.0 1:0.3333333333333333 2:0.16666666666666666 
1.0 1.0 1.0 0.0 0.0 1:0.19047619047619047 2:0.5 
1.0 1.0 1.0 0.0 0.0 1:2.0 2:1.0 
1.0 1.0 1.0 0.0 0.0 1:0.5 2:2.0 
1.0 1.0 1.0 0.0 0.0 1:1.5 2:0.0 
1.0 1.0 1.0 0.0 0.0 1:1.0 2:0.0 
1.0 1.0 1.0 0.0 0.0 1:3.5 2:0.5 
1.0 1.0 1.0 0.0 0.0 1:10.5 2:0.5 
1.0 1.0 1.0 0.0 0.0 1:0.0 2:0.0 
1.0 1.0 1.0 0.0 0.0 1:1.5 2:0.0 
1.0 1.0 0.0 0.0 0.0 1:0.14285714285714285 2:0.0 
1.0 1.0 1.0 0.0 0.0 1:0.1875 2:0.0 
1.0 1.0 0.0 0.0 0.0 1:0.5333333333333333 2:0.2 
1.0 1.0 1.0 0.0 0.0 1:0.6666666666666666 2:0.0 
1.0 1.0 1.0 0.0 0.0 1:2.6666666666666665 2:2.0 
1.0 1.0 1.0 0.0 0.0 1:0.6666666666666666 2:0.0 
1.0 1.0 1.0 0.0 0.0 1:0.6 2:3.0 
1.0 1.0 1.0 0.0 0.0 1:0.8 2:2.0 
1.0 1.0 1.0 0.0 0.0 1:2.0 2:2.0 
1.0 1.0 1.0 0.0 0.0 1:0.2 2:0.0 
1.0 1.0 1.0 0.0 0.0 1:1.0 2:1.0 
1.0 1.0 0.0 0.0 0.0 1:1.2 2:2.0 
1.0 1.0 0.42259962125671746 0.0 0.0 1:0.6666666666666666 2:1.5 
1.0 1.0 1.0 0.0 0.0 1:3.6666666666666665 2:1.0 
1.0 1.0 0.0 0.0 0.0 1:1.8333333333333333 2:0.25 
1.0 1.0 1.0 0.0 0.0 1:1.1666666666666667 2:0.25 
1.0 1.0 1.0 0.0 0.0 1:1.0 2:0.0 
1.0 1.0 1.0 0.0 0.0 1:1.1176470588235294 2:1.25 
1.0 1.0 0.06105102917636276 0.0 0.0 1:0.47058823529411764 2:0.5 
1.0 1.0 1.0 0.0 0.0 1:0.125 2:0.2857142857142857 
0.0 1.0 1.0 0.0 0.0 1:7.5 2:0.0 
1.0 1.0 1.0 0.0 0.0 1:0.5294117647058824 2:0.5 
1.0 1.0 1.0 0.0 0.0 1:0.35294117647058826 2:0.125 
1.0 1.0 0.0 0.0 0.0 1:0.08695652173913043 2:0.0 
1.0 1.0 0.0 0.0 0.0 1:0.30434782608695654 2:0.2727272727272727 
1.0 1.0 0.0 0.0 0.0 1:0.21739130434782608 2:0.09090909090909091 
1.0 1.0 1.0 0.0 0.0 1:0.3225806451612903 2:0.5833333333333334 
1.0 1.0 1.0 0.0 0.0 1:1.2142857142857142 2:1.0 
1.0 1.0 0.0 0.0 0.0 1:0.5 2:0.2 
1.0 1.0 0.0 0.0 0.0 1:1.0 2:0.4 
1.0 1.0 1.0 0.0 0.0 1:0.25 2:0.0 
1.0 1.0 0.4367937723399596 0.0 0.0 1:1.3333333333333333 2:2.5 
1.0 1.0 1.0 0.0 0.0 1:2.6666666666666665 2:0.0 
1.0 1.0 0.0 0.0 0.0 1:2.5 2:5.0 
1.0 1.0 0.0 0.0 0.0 1:0.2857142857142857 2:0.3333333333333333 
1.0 1.0 0.0 0.0 0.0 1:0.2857142857142857 2:0.0 
1.0 1.0 1.0 0.0 0.0 1:0.5 2:1.3333333333333333 
1.0 1.0 0.0 0.0 0.0 1:0.08695652173913043 2:0.25 
1.0 1.0 0.0 0.0 0.0 1:0.043478260869565216 2:0.125 
1.0 1.0 1.0 0.0 0.0 1:0.08695652173913043 2:0.0 
1.0 1.0 1.0 0.0 0.0 1:0.5 2:0.2 
1.0 1.0 0.0 0.0 0.0 1:0.5 2:0.0 
1.0 1.0 1.0 0.0 0.0 1:1.6666666666666667 2:0.6 
1.0 1.0 0.9850931338971697 0.0 0.0 1:0.8333333333333334 2:0.2 
1.0 1.0 0.0 0.0 0.0 1:0.8333333333333334 2:0.6 
1.0 1.0 0.0 0.0 0.0 1:0.5 2:0.0 
1.0 1.0 1.0 0.0 0.0 1:0.8333333333333334 2:0.0 
1.0 1.0 1.0 0.0 0.0 1:2.3333333333333335 2:1.4 
1.0 1.0 0.0 0.0 0.0 1:0.3333333333333333 2:0.2 
1.0 1.0 0.0 0.0 0.0 1:1.8333333333333333 2:0.2 
1.0 1.0 0.5996464640624793 0.0 0.0 1:1.6666666666666667 2:0.2 
1.0 1.0 0.029801432204510248 0.0 0.0 1:1.1666666666666667 2:0.8 
1.0 1.0 0.0 0.0 0.0 1:0.5 2:0.4 
1.0 1.0 0.0 0.0 0.0 1:2.0 2:1.2 
1.0 1.0 1.0 0.0 0.022505683099549624 1:1.3333333333333333 2:0.4 
1.0 1.0 0.0 0.0 0.0 1:1.0 2:0.2 
1.0 1.0 1.0 0.0 0.0 1:1.3333333333333333 2:0.6 
1.0 1.0 0.0 0.0 0.0 1:0.5 2:0.4 
1.0 1.0 1.0 0.0 0.0 1:1.5 2:1.0 
1.0 1.0 0.0 0.0 0.0 1:0.0 2:0.2 
1.0 1.0 1.0 0.0 0.0 1:0.5 2:0.2 
1.0 1.0 0.01779285569967682 0.0 0.0 1:0.5 2:0.4 
1.0 1.0 0.0 0.0 0.0 1:0.16666666666666666 2:0.4 
1.0 1.0 0.9911617743476134 0.0 0.0 1:1.8333333333333333 2:0.8 
1.0 1.0 0.0 0.0 0.0 1:0.5 2:0.0 
1.0 1.0 1.0 0.0 0.0 1:0.3333333333333333 2:0.0 
1.0 1.0 1.0 0.0 0.0 1:0.8333333333333334 2:0.4 
1.0 1.0 0.0 0.0 0.0 1:0.2 2:0.2 
1.0 1.0 0.057214037654425676 0.0 0.0 1:0.38461538461538464 2:0.0 
1.0 1.0 0.0 0.0 0.0 1:2.0 2:1.3333333333333333 
1.0 1.0 0.0 0.0 0.0 1:0.5 2:0.0 
1.0 1.0 1.0 0.0 0.0 1:1.5 2:0.3333333333333333 
1.0 1.0 1.0 0.0 0.0 1:0.75 2:0.0 
1.0 1.0 1.0 0.047748098459032204 0.0 1:1.5 2:0.6666666666666666 
1.0 1.0 1.0 0.0 0.0 1:1.0 2:1.3333333333333333 
1.0 1.0 1.0 0.0 0.0 1:0.25 2:0.3333333333333333 
1.0 1.0 0.0 0.0 0.0 1:0.5 2:0.0 
1.0 1.0 0.0 0.0 0.0 1:0.125 2:0.0 
1.0 1.0 1.0 0.0 0.0 1:1.625 2:2.6666666666666665 
1.0 1.0 1.0 0.0 0.0 1:0.5 2:0.6666666666666666 
1.0 1.0 0.0 0.0 0.0 1:0.2857142857142857 2:0.16666666666666666 
1.0 1.0 1.0 0.0 0.0 1:0.19047619047619047 2:0.16666666666666666 
1.0 1.0 1.0 0.0 0.0 1:0.09523809523809523 2:0.3333333333333333 
1.0 1.0 1.0 0.0 0.0 1:0.6923076923076923 2:1.0 
1.0 1.0 0.0 0.0 0.0 1:0.15384615384615385 2:0.0 
1.0 1.0 0.0 0.0 0.0 1:0.15384615384615385 2:1.0 
1.0 1.0 1.0 0.0 0.0 1:0.8461538461538461 2:3.0 
1.0 1.0 1.0 0.0 0.0 1:0.3076923076923077 2:1.0 
1.0 1.0 0.0 0.0 0.0 1:0.23076923076923078 2:2.0 
1.0 1.0 1.0 0.0 0.0 1:0.5384615384615384 2:2.0 
1.0 1.0 0.0 0.0 0.0 1:0.6923076923076923 2:4.0 
1.0 1.0 1.0 0.0 0.0 1:1.25 2:0.0 
1.0 1.0 0.0 0.0 0.0 1:0.16666666666666666 2:4.0 
1.0 1.0 1.0 0.0 0.0 1:0.5 2:0.5 
